layers 3
layer 64 8
weights -0.046498466 0.024826221 0.23349282 -0.26596862 -0.33282027 0.034928314 -0.083091334 0.032710548 -0.022430636 -0.34142458 -0.33843431 -0.094450451 -0.2083489 -0.21760805 -0.10299716 -0.1994402 -0.35347861 -0.25415894 0.070910931 0.046510901 -0.28645247 -0.28499758 -0.090907589 -0.33457184 -0.21582398 0.20094383 0.061076093 -0.23236623 -0.27889845 0.22462554 -0.34000039 0.22111185 -0.17534037 -0.0046034078 0.33039853 0.14861399 0.20307195 0.16572665 -0.035256859 -0.14738546 -0.19955732 -0.159988 0.17414589 -0.13021193 -0.079093404 0.27792427 0.2880629 -0.19592708 -0.26984468 0.045194551 0.23037966 0.32246795 0.083766878 -0.16929984 -0.26296803 -0.0020235861 0.22452179 -0.24734122 0.23563911 -0.22054102 0.2730225 -0.21350536 0.2327542 -0.22359969 -0.066661142 -0.29296201 -0.29770851 -0.19263276 0.013883931 -0.2173239 0.13678174 0.097104654 -0.17594922 -0.31308937 -0.1209864 -0.27615103 0.29627228 0.12359972 -0.12480259 -0.33860061 -0.27234933 0.28455251 -0.058803055 0.17103077 0.33655223 -0.077427074 0.1915302 0.23277363 -0.34883264 0.18905963 -0.10206866 0.022162329 -0.16934735 0.037667524 -0.14842792 -0.048544232 0.28672639 -0.21618606 0.018261513 0.096203133 -0.1399924 -0.1911982 -0.025320688 -0.34130579 0.3009257 0.2087843 0.30154923 0.19120534 -0.16088544 -0.038082428 -0.236645 -0.31172457 -0.077855892 -0.2020984 -0.35200787 0.16835061 0.22612931 -0.15872827 -0.14373854 -0.32921669 0.13622354 0.15213317 -0.12389302 -0.1939044 0.0423637 0.1935917 -0.10919375 -0.29429874 -0.16317165 -0.2467666 -0.34066615 -0.23470719 0.12178412 -0.31938532 0.11084107 0.039427955 -0.19094089 0.19627151 0.0076893242 0.083243035 -0.2949498 -0.10710202 8.6040527e-05 0.089086108 -0.0048936284 0.16107079 -0.20882659 -0.16853783 -0.22607203 -0.0032413877 0.30018714 0.18599875 0.19087437 -0.28762206 -0.092490532 -0.18866685 0.33164272 0.21208221 -0.051166818 -0.0076066898 -0.092511065 -0.31719992 0.22297318 0.30246571 -0.19968313 0.16921222 -0.058895878 -0.32355809 -0.24268588 -0.28667131 0.24423243 0.031296436 -0.30832902 -0.10644338 -0.22682077 -0.32870525 0.24334629 -0.26275852 0.24644358 -0.017406268 -0.34349242 -0.32108745 0.26531476 -0.013766635 0.29401332 -0.055560101 -0.2113831 -0.16220674 0.0076921028 0.17788313 0.003421783 0.23994555 0.35522726 -0.12776361 0.045576375 0.069922991 -0.045944765 0.30136198 0.25529596 0.12559809 0.16190411 -0.33746016 0.18265525 0.34397069 0.19717845 0.066850148 0.16185285 0.27696338 0.25085279 -0.03677354 -0.017684648 -0.075930797 0.03464333 0.20374306 -0.10482526 0.2341006 0.31507117 0.35064453 0.15549152 0.075667366 -0.17779778 -0.0025677648 -0.24002236 0.17214103 -0.020044282 -0.33678105 -0.035661206 -0.16370527 0.11900036 -0.34581098 -0.15284601 -0.26424301 -0.18042348 -0.26531243 0.29378262 -0.27518338 -0.29109883 0.19311289 -0.030179208 -0.052788675 0.088176973 -0.15232915 -0.038781505 -0.31519529 -0.30112499 -0.12102505 0.35098061 0.34639463 -0.025384709 -0.33750442 -0.090746887 -0.06948182 -0.15729144 -0.10261122 -0.21276437 -0.10095489 0.23460922 -0.16258888 -0.17756814 0.028532283 0.22782259 0.1470702 -0.29960868 0.055663347 -0.058860548 0.21152057 0.29533303 0.28619254 -0.15345229 0.34092608 -0.33058652 -0.2438935 0.27256018 0.15827212 -0.15637608 0.24942075 -0.17003614 0.35160664 0.26553056 0.011260496 -0.22952303 0.2393049 0.169385 0.16344866 -0.1234453 0.036389552 -0.18044697 0.15485188 0.2892085 -0.026052495 0.3042216 0.28302222 -0.061403599 -0.10734779 0.13544202 -0.13028392 -0.25700939 0.24982823 -0.27765459 0.10521715 -0.1246641 -0.19866687 0.018799361 0.34430337 -0.043115858 -0.24860518 0.27168283 -0.039952036 0.28779036 0.065165281 -0.039838709 0.2977396 0.1872557 -0.034652703 0.24901724 0.1319502 0.29301232 0.032039471 0.29593086 0.34899208 -0.13976404 -0.24543206 0.043764669 0.35456258 -0.18965396 0.2635588 0.17450988 -0.082442045 -0.32841891 -0.0077772313 0.20095819 -0.33932 0.087311365 -0.15765998 -0.12658253 0.055933293 0.14121108 0.29358682 -0.080871627 -0.1070068 -0.1023913 -0.28653345 -0.23685002 0.25062734 -0.030679069 0.22525762 -0.11829221 -0.16908208 -0.062295571 -0.26634786 0.24720466 0.1066405 0.23488538 0.077943541 0.16181839 -0.22201784 -0.32340077 0.12664953 0.33540863 -0.18611096 -0.030160874 -0.26016289 0.022791835 -0.27244297 0.089484543 -0.19162899 0.0079749003 -0.055509381 0.16977584 0.27456009 -0.34700233 0.34262916 -0.35318184 -0.2020109 0.073391177 0.28439975 0.0099492213 0.076517306 0.068669379 0.044062372 0.20658125 0.14479859 -0.29115024 -0.050988209 0.2203055 0.10227217 0.27670902 0.18932793 -0.33373189 -0.0396 0.33094218 -0.13308866 0.093795039 -0.228165 -0.15636861 0.15979785 0.077834964 0.15148093 -0.23946008 -0.33582142 -0.1356131 -0.2845335 0.29572091 -0.076744802 -0.24854791 0.096612997 0.045610435 -0.18260631 0.19523135 -0.067810453 0.1222236 0.22287409 -0.086081401 0.003712669 0.30766377 0.092184953 -0.16283919 0.25550878 -0.11135045 -0.22768734 0.040249314 -0.058365081 0.17846856 0.19263841 0.21701062 -0.0027078928 -0.27241206 -0.25437844 -0.031296268 -0.31581241 -0.24319363 -0.11522198 -0.30256155 -0.048229605 0.091524176 0.026425032 0.2657305 -0.051485077 0.12556 -0.069465026 0.35085481 0.035925105 -0.075189717 0.23793781 0.26248366 0.29893956 0.11494963 -0.10425867 0.23296683 -0.12787324 -0.3470661 -0.35110176 0.1937207 -0.043232974 -0.10485642 -0.16454281 0.072785996 -0.052696433 -0.33904552 0.11666843 0.17183298 -0.26642177 -0.26695675 0.27541646 -0.2036553 -0.092182703 0.26388761 -0.16852012 -0.0031719718 -0.063371748 0.26735854 0.18489982 0.015259111 0.33351117 0.32398638 0.25649625 -0.32985172 0.24078292 -0.072069488 -0.26964286 0.016221799 -0.2685225 0.30721235 0.2578181 -0.085689224 0.052832864 -0.096328169 -0.17763157 0.032535974 -0.3309249 -0.34012324 -0.17447804 -0.25277525 0.0035914592 -0.071054272 -0.29735044 0.17171228 0.25008324 0.15459165 -0.023750296 -0.137701 -0.24759987 0.2340232 -0.11744847 -0.26815197 -0.042961281 0.25194281 0.30574384 0.29160407 -0.29418197 0.060937129 0.22379564
bias -0.29523289 -0.26210985 -0.34202179 -0.33005521 -0.26583222 -0.34547973 -0.017597815 -0.32694367 -0.11579033 -0.080624811 -0.081688188 -0.29056472 -0.30302265 -0.07495898 -0.089833811 0.25434345 -0.0076336372 0.3102839 -0.20750757 0.33017021 -0.31341812 -0.34109744 -0.34577304 -0.11415216 -0.085927919 -0.057047661 -0.074596174 0.12899056 0.28642616 0.11367258 0.30790871 -0.14959779 0.11994345 -0.3513813 0.1444944 -0.095688529 -0.2189485 0.33081442 0.0092034051 -0.17150116 0.32063809 0.036188211 -0.31860551 0.08517199 0.283149 0.12638542 -0.09667886 0.13119073 -0.056034978 0.31189185 0.10716676 0.0018872319 -0.16473614 -0.036392622 0.048486926 -0.083839156 -0.10433153 -0.29708681 -0.089358732 0.073929377 0.20153235 -0.21298976 -0.18853524 0.11268824
layer 64 64
weights 0.091508895 -0.056364596 -0.00082923472 -0.0089387596 0.067601211 0.093367651 -0.058214124 -0.0096230656 -0.021262497 0.066597551 0.073247053 0.12264635 -0.077406228 -0.017420193 0.023456767 0.088960163 0.096374407 -0.10040333 0.090869442 -0.069196761 -0.062822521 -0.083860785 -0.084704995 -0.00057200075 0.043202776 0.088823639 -0.10915301 0.094390623 0.056096599 -0.00835751 0.08557155 0.089231521 0.046135236 -2.96504e-05 0.10948677 0.1005031 -0.035768088 0.13358712 0.12167133 -0.11410891 -0.018746201 0.0071311593 -0.027680948 -0.12335964 0.10407145 0.009078458 0.013170036 -0.11422825 -0.10187423 0.04161524 0.0079353135 0.03791634 0.0094652623 0.076828167 -0.031316221 -0.00071118702 0.1028377 -0.10838649 0.0093596876 -0.0067009404 -0.043793436 -0.095656618 -0.054313779 -0.09523695 0.064848259 0.12107392 0.102098 0.11675981 -0.013503585 0.096269995 0.085698821 0.12061529 -0.12017557 -0.027816191 -0.037727971 -0.11918937 -0.088924065 0.055092119 -0.05552347 -0.038138766 0.090348795 0.053476259 0.02233775 0.022586437 -0.0073367506 0.014360726 0.056448132 -0.11464735 0.022494351 -0.12884311 -0.072760873 0.055346224 -0.042775586 0.077367425 -0.037792634 -0.074629501 0.11167853 0.039587148 0.054248169 -0.0062750098 -0.049773209 0.042517465 0.011269189 0.052967723 -0.07929793 0.074320763 -0.080354661 0.034903154 0.014674713 -0.081586108 0.0036067676 0.085434876 0.033834487 -0.015055067 -0.024407037 -0.085050233 -0.077208042 0.047023028 0.0128139 -0.024135722 0.037240028 0.089016564 0.048117846 0.030866941 -0.026775945 0.00020575523 0.06016396 -0.052009188 -0.10906909 0.1100321 -0.0055604577 0.013918489 -0.049388602 0.10289076 0.056455061 0.062279671 0.11305781 -0.11165963 0.094584048 -0.11784761 -0.10078965 0.023128077 0.024806783 -0.052594468 -0.0055996329 -0.038386926 -0.065376699 -0.032823667 -0.059131503 0.075880826 0.11788841 0.056071311 0.0054080188 -0.076594457 -0.066749305 -0.022470236 0.023251086 0.010527536 0.044189259 -0.080995336 -0.02409862 0.11420448 0.025999054 -0.047995552 -0.027191386 -0.11498733 -0.11452551 0.017095149 -0.0843696 0.05362694 0.11073141 0.1208577 -0.079554036 0.079946503 -0.054044902 0.023241296 0.11851276 -0.086615995 0.0046461225 -0.11175074 0.10705584 0.072752327 -0.10892792 0.065612569 0.073970884 0.018323094 0.10160024 0.0084100068 0.11144695 -0.066550732 -0.079066157 -0.0038824677 0.057760164 -0.066602632 0.12239453 0.059366763 -0.016995922 -0.041849911 -0.11036193 -0.051130146 -0.099499002 -0.12255478 -0.04452002 0.036235899 0.012740463 0.010198638 -0.11081955 -0.058642402 0.0057387501 0.061731339 0.019937381 -0.057162806 0.072259232 0.050313324 -0.092494741 -0.11497755 0.085960642 -0.10196024 -0.0072944313 0.00081674755 0.11735398 -0.012854129 -0.027998626 0.10336401 0.0775166 0.038526535 0.06486623 -0.0076834112 0.058772236 -0.079448491 0.026515901 -0.11759581 -0.051774397 -0.048965976 0.050222114 0.089369357 -0.00012473762 0.098522827 -0.076264858 0.12419239 0.022568375 0.12127805 0.10186283 0.058725312 0.068075955 0.11369991 -0.078553587 0.038031861 0.10702504 0.0085105002 0.0068342984 0.033198193 0.043803081 -0.12227617 0.079410791 -0.065701962 0.0085635781 0.088255316 0.020057991 0.080313116 -0.053484719 0.066637307 -0.13331512 -0.094231725 0.099172458 -0.061780408 0.11441942 -0.0010667294 -0.071557224 0.034605231 0.021212891 -0.014752338 0.083484009 -0.067955703 -0.1186848 0.087433457 0.059488729 0.11483127 -0.11372195 -0.087617092 -0.057527427 -0.029397538 0.062204048 -0.018806759 0.027306348 -0.010442972 -0.042658463 0.11159271 -0.12763599 -0.030098615 -0.061732903 -0.09286131 0.011773827 -0.020644678 0.040928271 0.10641026 -0.076599225 0.032712489 0.042000398 -0.041220427 0.00034186675 0.12281175 0.012197716 -0.010609991 0.015807513 0.076015286 -0.014206703 -0.091383293 -0.082406059 -0.11015862 0.11496748 -0.025772873 0.096480578 -0.071190536 -0.041950867 0.077571258 0.031884968 0.012008741 0.056912407 0.048491903 0.052633375 0.061367631 -0.11129662 -0.062262982 -0.013026734 -0.10836449 0.087337852 0.0079118162 0.10010752 0.10809951 0.11939028 -0.072646961 0.078068793 -0.052706379 -0.039467022 -0.10266084 -0.10937208 -0.064880356 0.06536527 0.078775816 -0.02054204 0.0047638565 -0.12497552 0.026464116 -0.089859053 0.092061639 -0.059261944 0.068613254 -0.089949444 0.11911932 0.11084894 -0.11942714 -0.020188954 0.085601628 0.048032839 -0.11806946 -0.09794841 0.088944972 0.041939635 0.0080724414 0.0090056444 0.10732162 -0.040256813 0.0029517412 0.00012133981 0.084978044 -0.092900775 -0.0017440845 0.026232159 -0.037937269 -0.0069075869 -0.1129055 -0.039493442 0.041159019 0.03470904 0.1072444 0.0021960735 0.10280911 0.0085376501 -0.02332427 0.081892639 -0.032135919 0.050671875 0.052918829 0.12007828 -0.041029975 0.065494567 0.12119882 0.040285822 -0.070048839 -0.084465608 0.002810508 -0.071402773 0.0098443478 0.10410906 0.089825004 -0.031703547 -0.10009234 -0.07446225 0.11555004 -0.096092761 0.095988952 -0.045861214 0.069655195 0.089596465 -0.11375625 -9.201467e-05 -0.099052973 -0.010521042 0.00029429959 -0.0021318265 -0.1008588 -0.064114749 0.048034951 0.10070413 0.093884766 0.027159464 0.03945373 -0.016264712 0.040720895 -0.044912126 -0.12184936 0.0019067511 -0.11943331 -0.022722831 0.010862485 -0.040670335 0.045727998 -0.062863603 -0.08236894 -0.022345049 0.11591127 0.038644008 0.023518305 -0.12256739 0.043578472 -0.0091306418 -0.083521485 0.021381645 0.086185999 -0.0043270439 -0.074995503 -0.008125633 -0.039949313 0.10152457 -0.03359288 -0.10922755 0.015235931 -0.051956192 -0.086379185 0.10098375 0.058591932 0.054573059 -0.026838899 -0.044308878 -0.025399745 0.10893381 -0.093991771 0.054780811 0.025799721 -0.011019498 -0.019078918 -0.095807225 0.092695922 -0.10911559 -0.080057696 0.045291692 0.07644967 -0.093599737 -0.012873009 0.071471646 -0.070699789 0.068545997 -0.02021475 0.032663994 -0.078577772 0.11361909 -0.05324924 0.11276932 0.10878229 0.029536871 -0.061503008 -0.087684043 -0.11237191 -0.072861716 0.011818378 -0.12532669 0.074196041 -0.073857777 -0.04671663 -0.082829043 -0.043942973 -0.070769809 0.02506268 -0.12604165 -0.087249391 -0.046521321 -0.12360309 -0.061549276 0.08268708 0.0060370266 0.11250427 -0.033547122 0.079832025 0.038203657 -0.088905543 0.04626283 0.039087567 -0.10729583 0.059505165 -0.036497831 0.11077257 0.036780536 -0.085466668 -0.044772595 -0.035013542 -0.03403607 -0.062927768 0.036381677 -0.057620585 -0.10341091 -0.041664556 -0.071673155 -0.054251522 0.011587158 0.07829015 -0.034753695 -0.10273358 -0.0050129592 -0.051843256 -0.08907643 -0.060780987 -0.11919865 0.0091578066 0.11440679 -0.0045332164 0.073553622 -0.097067177 0.025014654 -0.084101692 0.12169857 -0.11236285 0.01484181 -0.026627108 0.015681759 -0.042273551 -0.019023553 -0.013891459 -0.11338048 -0.073885724 0.059201777 0.088522077 -0.039527059 -0.11842482 0.091334447 0.002630651 0.023210138 -0.033120155 0.0915135 -0.037458271 -0.022096112 -0.004588291 0.034503326 0.028567895 0.018617988 0.026751101 -0.069253951 -0.014014229 -0.013867781 -0.070286289 -0.067585096 0.044997752 0.10507607 0.064891785 0.080009475 -0.023716986 -0.047565281 -0.10560773 0.027171433 0.037207797 0.077092782 0.0040707141 -0.088993937 -0.12165877 -0.077085212 -0.085043654 0.025732938 -0.039363369 0.11723843 0.09643288 0.028096095 -0.11433225 -0.0049210489 0.092271678 0.0017194152 -0.039786872 0.0520491 0.099621505 -0.055829212 0.04081443 0.091440685 -0.015979126 0.033416625 -0.086067639 0.10296057 0.093698829 0.096868694 -0.049430564 -0.019452868 0.02243435 0.014718815 0.094410725 -0.016557265 0.026778772 -0.078601569 -0.084194407 -0.062222436 -0.031800956 0.12231362 0.036769852 -0.1073636 0.11811188 0.012274335 -0.055209897 -0.1017058 0.023144418 0.037483197 0.096838288 -0.033996046 0.019135147 -0.065398827 -0.013486408 -0.11841889 -0.018204316 -0.10558386 -0.016231621 0.13156146 -0.096696675 0.088150546 0.11360051 0.030935019 -0.014846355 0.096724972 0.063594609 -0.10381976 0.040306404 0.094227582 -0.073387071 0.087911472 0.0070455968 -0.038018614 -0.075971887 -0.12489086 -0.082370505 0.09972468 -0.094888881 -0.11627147 -0.080142193 -0.0762306 0.10243291 0.10011485 0.050474823 -0.012035251 -0.10529568 0.085516356 0.11187227 -0.11447961 -0.083199434 0.010635614 -0.10024311 -0.048155066 0.10311356 -0.082037382 -0.051958412 0.10232342 -0.074011281 -0.0067052986 0.03223078 0.082465254 -0.030368738 0.12924413 -0.072482884 0.087133244 0.031301677 0.12975378 -0.073855698 -0.11378766 -0.094793275 -0.052414894 0.05932932 -0.0039732982 -0.022036003 0.030028149 0.066417381 0.037801635 0.00038658211 0.025353059 0.11856916 -0.038190767 -0.090517633 -0.090273127 -0.014958456 0.088217676 -0.0013304818 0.12102774 0.055517912 0.079380348 -0.09755601 -0.041562214 -0.0055769086 -0.046572328 0.010994002 0.071869701 0.090450644 0.12306713 0.10254498 0.10534011 -0.10853614 0.025456086 -0.12191214 0.057865381 -0.034748942 -0.038377717 -0.08261928 0.068688944 -0.1231962 -0.076688483 0.063105896 -0.10005035 0.084778026 0.11819138 -0.025499523 -0.057998538 -0.096313894 0.082209408 -0.049222097 -0.016110823 0.032828644 -0.064235374 0.034526139 0.05494535 0.0091403574 -0.10817 0.0017892718 0.061802655 0.04479906 0.11301215 -0.0077779442 0.024696708 0.066420853 0.052195758 -0.11237487 -0.11658177 -0.10470109 0.11474539 -0.056574151 0.043232068 0.117744 -0.080381468 -0.049021825 0.066611722 0.049252763 0.064936996 0.007605806 0.024965391 0.11506046 -0.0095663369 0.10752589 0.10523079 -0.019498035 -0.083408937 0.0081143677 0.10625115 0.077569827 -0.092193678 0.03858602 -0.073922187 0.02508989 0.057757318 -0.02841188 0.072685048 -0.11029913 -0.075342253 -0.099787831 0.039330497 0.045835122 0.0086654276 -0.028141662 0.11374459 -0.083828494 0.078048989 -0.061519116 0.014737755 -0.08665742 0.035355151 -0.043754339 -0.088740051 -0.030844852 0.11648799 0.10192387 -0.11537991 -0.06573987 0.074657142 -0.008797273 0.085849553 -0.03442052 0.10982396 0.015070722 -0.097705305 0.057277828 -0.016188726 -0.065973327 -0.037280753 -0.024649188 0.021912709 -0.096627712 -0.11600582 -0.0081504285 -0.082126528 0.12039067 0.086056292 -0.014276326 -0.0038052499 -0.062584355 0.11464801 0.1138048 -0.073986724 0.0058407933 -0.098195642 -0.066097409 0.098561123 -0.10579298 0.081300288 -0.044205695 -0.043740347 -0.11571921 0.064780459 0.11897105 -0.015225511 -0.0087493509 0.011438876 -0.10539789 0.015972396 -0.090500101 0.0096318573 0.10352714 0.059689581 0.12082579 -0.11821055 -0.11495069 0.017862171 0.12845156 0.0055553466 -0.080762178 -0.070932925 0.0048184129 0.10528364 -0.024370434 0.11446579 0.090702549 0.11994836 0.028912291 0.042116333 0.093651608 -0.095311075 -0.06997478 0.1087754 0.11512048 0.035521921 0.098448969 0.082211547 0.064952284 -0.0025991206 -0.016743377 0.073606789 -0.095004067 -0.071485154 0.059796005 -0.016165538 0.036135085 0.11981582 -0.086086959 0.043455303 0.069828741 0.053195074 0.037041262 -0.069919847 0.096606404 -0.041208565 -0.035069559 0.079574302 0.0078725796 0.0019629202 0.082870141 -0.0462486 -0.0138781 0.070599511 0.056764454 -0.035294265 0.029316783 0.023099571 0.036901802 0.11012863 -0.022721872 -0.097227633 0.059806183 0.076661915 -0.079587713 -0.098017335 0.072554961 -0.026515424 0.057050765 -0.011482611 -0.091839388 -0.051164776 -0.012866765 0.088293165 -0.066053182 0.067858517 -0.016264826 0.097013205 -0.030821219 -0.047177255 0.030658334 0.08409594 0.022156179 -0.0096754581 0.083153903 0.01916796 0.073304534 0.052737474 -0.058050424 0.10200523 0.11536518 0.086261779 -0.055780396 -0.024585769 0.085433245 0.034563407 -0.073791116 -0.019345552 0.055472836 -0.11243814 -0.043870509 -0.095152751 -0.11014014 -0.03972061 -0.075921416 0.028099641 -0.0025178939 0.026324898 -0.0018973947 0.079022929 -0.060373887 -0.061134949 -0.10610393 -0.05809246 -0.01476486 -0.12355393 0.12379321 -0.077424183 -0.097228765 0.079859152 0.075871512 0.0972284 -0.040804952 0.11157116 0.055306986 0.035129353 -0.080513105 0.063285425 -0.049903169 0.099909633 -0.12022278 -0.025311187 0.031501435 0.081023097 0.089056395 0.063110635 0.10689873 -0.062698975 -0.009762913 -0.061405882 0.050405588 0.080328993 -0.015826512 -0.0055343877 -0.10111254 0.12108527 -0.10848683 -0.040184189 0.065336511 0.057895448 0.043053903 0.093754895 0.084674574 -0.090082854 -0.044968911 -0.010364218 -0.076078571 0.066667601 0.050519496 0.1028987 -0.078079805 -0.091528527 0.11080973 0.098986447 0.093046665 -0.0074186209 0.047293965 -0.049291555 0.047022313 -0.067357019 -0.042325869 -0.011858308 0.060328472 -0.055456549 0.10116388 -0.09497349 0.0255192 -0.024058877 -0.014566734 -0.025990516 -0.072044104 -0.043736041 0.024004236 0.0045093149 0.0055155456 -0.12720421 0.034488693 0.10925937 0.037152588 0.047999844 -0.02761741 -0.09479595 0.10666151 0.0073207915 0.030763036 -0.030627415 -0.026454445 -0.10273322 0.060313672 -0.073143646 0.061735529 0.072352707 0.070601895 -0.0057032555 0.00081439718 -0.062818602 -0.03954953 -0.039513044 0.026889855 0.075245515 -0.039547145 -0.13311078 -0.0014121234 0.10660966 -0.077834234 0.025048582 -0.024887506 -0.11507761 -0.053829797 -0.042550471 0.085344329 -0.070780784 0.059885964 0.036730558 0.071654454 -0.041085355 0.064160421 -0.035164427 -0.12099922 -0.074637927 -0.047479533 0.057626233 0.017428502 0.046977609 -0.01790075 -0.030261043 -0.11134274 0.022418201 -0.028911415 -0.064412445 0.037139598 -0.0027274995 0.098070174 0.11758186 0.096534923 0.059608057 -0.040775344 0.083282843 0.033744842 0.081721626 -0.05746989 0.0079132598 -0.051200122 0.10780346 -0.050455034 0.10374212 0.0080619901 0.027663261 0.10023214 -0.080919743 -0.042275816 -0.11280254 -0.030253008 -0.022484839 0.082693897 0.035358861 -0.08619009 -0.10261251 -0.12482291 -0.0064291148 -0.0365358 0.11186373 0.083636373 0.091423705 0.090111136 -0.030631781 -0.06815134 -0.016972497 0.020892838 0.090973563 -0.026405336 -0.088730268 -0.043809969 -0.058831967 0.11183292 -0.080660336 -0.089603722 -0.022226363 -0.062253803 -0.0010505598 -0.075252861 0.094283536 -0.015727544 -0.008830878 -0.087048925 -0.057503145 -0.058295138 -0.03675729 -0.10765453 -0.029094379 -0.076558501 -0.0039781928 -0.026268005 0.10855737 0.077547781 0.073433086 -0.0082397163 0.078958496 0.062379923 0.019767061 -0.065237433 0.087537155 0.12026875 -0.1314638 -0.1086359 0.031159692 -0.04738611 -0.10171583 0.097288713 0.068779774 0.10451338 -0.084877282 -0.0015174905 -0.10236669 -0.080672465 0.096285284 0.04483927 0.12422478 0.081054211 0.061976433 -0.024669722 0.023060665 -0.12730932 0.097911 0.069345951 -0.11588188 0.064538687 0.036921054 -0.10131586 0.015114376 0.06878455 0.0078790411 -0.088753879 -0.12598515 0.094572693 -0.09658514 -0.043320686 -0.042011093 -0.04097667 0.063413754 -0.092240855 -0.073695645 -0.11890198 0.038218535 0.059440821 -0.030392457 0.003583991 -0.07325197 0.056016587 -0.032575436 -0.024108261 -0.10779642 0.06186904 -0.0065570916 0.08461754 -0.12082185 0.056594606 0.05575867 -0.0040584281 0.054590952 -0.063324958 0.025320023 0.061424408 -0.11920908 -0.10490046 0.10516006 0.034926683 -0.076024219 0.11940922 0.022147365 0.037044242 0.081555486 0.017807677 0.07092686 0.037120447 0.12137224 0.083943062 -0.10015497 0.039454944 0.014962539 -0.0078560365 0.11985235 0.1091747 0.078972101 -0.12047204 -0.10779302 0.050176557 0.052815501 -0.060869038 0.10761806 -0.04499273 0.043556347 -0.091229364 0.095145129 0.11311233 -0.017038092 0.04599731 0.10873035 0.049005277 -0.09054926 -0.12603317 -0.01956513 0.078081191 -0.076878794 -0.088045269 0.066738039 -0.035917789 -0.0026976741 0.1086342 -0.062545247 -0.051500067 0.1147975 -0.050998192 -0.021308463 0.067478217 0.10867211 0.12461641 0.094619103 -0.10116232 0.071342453 0.027408088 -0.10489315 -0.060508426 0.10099183 0.064480424 0.07402432 0.082928188 -0.03874518 -0.0090038627 0.010868967 0.1109345 0.053024936 -0.064759001 -0.054177172 0.11404316 0.069669828 -0.0026402771 -0.074622124 0.085616127 0.0053724796 -0.065448932 0.047136992 -0.1287529 0.03152819 0.066567108 -0.089561343 0.10120281 0.030006617 -0.065954283 0.12383793 0.021185929 -0.022819769 -0.037241936 0.084873691 -0.078650422 -0.020389542 0.08611317 -0.11183193 0.081798807 0.047184024 0.076116927 0.018664444 -0.069721408 -0.015496387 -0.10430966 0.043267801 -0.084839262 0.088145941 0.070077896 -0.078864142 0.053700015 0.01411597 0.11073215 0.041925132 -0.03269843 0.070162281 0.058064681 -0.039364636 -0.058252644 -0.12332198 -0.056494832 -0.11037688 0.09503486 -0.11467807 0.10747872 -0.12096648 -0.053363074 -0.0034398525 -0.057606593 0.0014038831 -0.051793505 -0.050530612 -0.033685401 -0.079773232 -0.071310788 -0.015500369 0.010582179 0.051241618 0.01723364 0.056784332 -0.050839558 -0.033976145 -0.08437863 0.077515334 0.049856935 -0.12053469 0.095039196 0.11189909 -0.085790567 -0.038575917 -0.08951351 0.082755566 -0.11017352 -0.07118617 0.046076305 -0.050251964 -0.079485089 -0.075608991 0.076596573 -0.08561106 -0.049212173 -0.024386313 0.10597166 0.080434307 -0.09868069 0.062779464 0.079019099 -0.027213776 0.057382673 -0.095703639 -0.018881485 0.059391506 0.11372773 0.02258639 -0.048149571 0.040326852 -0.081724405 -0.022231303 -0.032915015 -0.064071223 -0.013318717 -0.0028099455 -0.083129413 0.10662401 -0.089947134 0.0077998033 0.065542184 -0.10284603 -0.10962848 -0.040852308 0.011766265 0.07692951 -0.013919547 -0.086717471 0.040912729 -0.009692356 -0.060959846 0.10806169 -0.091054589 0.072540753 -0.046979994 -0.055494279 -0.017232284 0.056398332 -0.079568475 0.10532094 0.12312172 -0.12003453 0.12686144 -0.062355548 0.079826936 -0.016044542 0.12783925 0.024883941 0.071885683 -0.027761713 -0.11544302 0.042893335 0.07590881 -0.0165 -0.0036789014 0.048892058 0.055078391 -0.11785756 -0.058003709 0.084912285 0.030690059 0.12119619 0.017008264 -0.024348965 0.018239919 -0.11469585 -0.010343108 0.026391586 0.066395111 0.086158253 -0.038761348 0.065245107 -0.018648148 0.041183788 -0.073972613 -0.087256767 -0.0084979935 0.067603171 0.13129562 0.017806824 -0.032297779 0.048201591 0.0060458779 -0.036064427 0.042085532 -0.019496888 -0.030702226 -0.10874422 0.048973169 0.056638461 0.10279776 -0.091682523 0.060734116 0.11183769 -0.057807982 -0.049991325 -0.11074232 -0.1128758 0.065667927 -0.11650703 -0.057345748 -0.077819914 -0.042614251 -0.047013488 -0.043216273 -0.032614633 -0.096737809 -0.0029422343 -0.059453018 -0.049681723 0.12204752 -0.018120453 -0.062336087 0.0012941658 -0.031575575 -0.030419916 0.05142891 0.070493594 0.1148571 -0.050598107 -0.1132085 -0.017932162 0.065605313 0.12856346 -0.018867359 -0.057948492 -0.057798345 0.0075716968 0.02576478 -0.060341023 0.074080534 -0.091784216 -0.0039085867 0.046945993 -0.10773833 -0.059257984 0.11549437 -0.078458458 -0.080340117 0.044799205 -0.08575733 0.038564421 -0.067647733 0.011079267 -0.083632477 -0.0077393651 0.0022367239 0.039512217 0.00045490963 -0.097128659 -0.085232615 -0.074051395 -0.05715185 0.10745347 0.074643165 0.059418768 0.043867797 -0.079143628 -0.11255167 0.0014258176 -0.061515912 0.098038316 -0.049830437 0.06465517 -0.0044613928 -0.0081158429 0.1108658 -0.037939191 -0.028548837 0.0087048858 -0.055922732 -0.013240606 0.11074592 0.09851487 0.099116087 -0.09158425 0.015012771 -0.044941127 -0.083887205 0.07662484 -0.097415477 0.011097193 -0.10718113 0.034420907 -0.097723797 -0.1248972 0.10273178 -0.031758785 0.027185768 -0.082044438 -0.0059173703 -0.013066262 0.046807364 0.072515011 -0.036642224 0.087591946 0.069189221 0.045162827 0.085597306 -0.0014736056 -0.082431838 -0.085389674 -0.053771228 -0.061672926 -0.1108292 -0.046938583 0.11635596 -0.071673989 -0.093244284 0.11891009 -0.049555659 -0.078325689 -0.037820131 0.11485498 -0.11080822 0.013975143 -0.019408092 -0.030517757 -0.0085244924 -0.084881499 -0.0058102459 -0.025418103 0.076764241 -0.11014917 -0.021107361 -0.019966977 0.10862148 -0.083925568 0.034064412 0.012413219 0.055495992 0.068068504 -0.094344124 -0.033625603 0.093668938 0.10159183 -0.0070910677 -0.089796782 -0.07894364 0.10362083 -0.020859847 0.01801528 -0.017173126 0.00075799227 -0.098792836 -0.075738981 0.083976053 0.088219583 -0.044780578 0.015660837 0.10939451 -0.01085765 -0.08446908 0.097157367 -0.12280352 0.057180099 0.099922419 0.031242084 0.084192619 -0.037513968 -0.0050185598 0.031596307 0.080329418 -0.010469258 0.00099930167 -0.069544666 0.060119361 -0.032919552 -0.0084126787 -0.018587185 0.073639438 -0.0065751961 -0.0083753634 -0.090727985 -0.041697547 0.072796248 -0.017133698 0.12332198 0.073352814 0.11924493 -0.045459308 0.061619088 -0.10480565 -0.024546981 -0.03786223 0.12331162 0.11493021 0.085331872 -0.015412152 -0.10922651 0.015429959 0.10482658 -0.11158918 0.098950431 0.01368013 -0.10156584 0.118095 0.1054965 0.028198481 -0.049463645 0.07108745 -0.077819765 0.10357374 -0.0883798 -0.028756902 -0.082097501 -0.013196498 -0.040332109 0.018129468 0.096922338 -0.011702463 -0.068296462 -0.067300066 -0.097529739 0.038401067 -0.059699267 0.080931202 -0.098545492 -0.056165427 -0.027766243 -0.00853692 0.0084952861 0.11516191 -0.10731775 -0.027380988 -0.1149732 0.053937301 0.014974698 -0.10557193 -0.046555728 -0.0061121732 -0.017825976 0.11169975 -0.084385246 0.033865422 -0.10782282 -0.032108277 0.082710445 0.0080028176 0.024083644 0.038598463 0.04017961 -0.10927866 0.12498094 0.023497403 -0.071771443 0.04683201 0.0011216551 0.098159984 0.011508286 -0.07497254 -0.043617249 -0.00044506788 0.050835446 -0.057580307 0.08858259 0.069977179 0.11100027 -0.059887022 0.074150279 -0.107122 0.042020723 0.046739221 -0.080539882 -0.11880812 0.11021259 0.056971177 -0.048944801 0.10456796 -0.026022106 0.079510227 0.1077244 -0.032930911 -0.12192568 -0.11485209 0.025950179 -0.1213129 -0.0052383095 0.081927612 0.021843001 0.046326622 -0.080706224 0.059650913 -0.055002466 0.062853903 -0.016138643 -0.10122781 0.035653368 -0.078372851 -0.078045696 -0.092090502 -0.038045421 0.031955585 -0.090827525 -0.058033183 -0.071294397 0.10192734 0.072313398 -0.087135628 -0.11714953 0.034495324 0.064180166 0.017495587 -0.031490371 -0.094050243 0.0012262613 -0.060813308 -0.0047947764 -0.094799414 -0.065832019 -0.062571511 -0.0069115013 -0.031051263 0.041106001 0.080499902 -0.07937108 -0.091295376 -0.065081999 -0.0051221848 0.084425822 0.090219781 -0.10105884 0.10169481 -0.0059932619 0.055999801 -0.1023789 -0.098821431 -0.011363968 0.032699972 -0.12125045 -0.020616844 -0.024713531 -0.12155567 0.099649638 -0.047414109 -0.12123033 0.064157739 -0.00090922415 0.027851075 -0.11071222 0.030358404 0.11991321 -0.040612519 0.01005125 -0.03744401 0.068123147 -0.048197344 -0.056313008 0.077922896 0.066789389 0.10770516 -0.038199574 -0.074942484 -0.047205254 -0.1064541 0.050707564 -0.083374068 -0.095078811 -0.11987875 0.045665622 -0.091972575 -0.030220747 -0.0013160408 0.049851015 -0.12417111 -0.067845032 -0.031214848 -0.11461449 -0.053614736 0.032195881 -0.0025954247 -0.10039568 0.057113528 -0.12152641 0.078049913 0.0048540086 -0.026133373 -0.047284946 -0.087271973 -0.10519606 -0.07172747 0.10929357 0.083534628 0.12098624 -0.060646072 0.04865323 -0.044133812 0.060805801 0.050210446 -0.0074999928 -0.095530465 -0.026872098 0.078877367 -0.090099394 0.0098803854 0.092662171 0.10186527 -0.013379395 -0.079235926 -0.090992168 -0.094650842 -0.096593529 0.077269904 -0.016393682 -0.018508818 -0.093781739 0.047228098 -0.10576745 0.064938605 0.091399901 -0.10887957 0.13138685 0.018714624 0.068034925 -0.055273812 0.027789641 0.11730167 0.090548441 0.1137713 0.12145431 -0.026312992 0.10494713 0.06100975 -0.03926447 0.1153628 0.037904263 -0.011415958 0.041875493 -0.0063767899 0.05274649 0.10746555 -0.010128415 0.065348618 0.12374397 0.0042924793 0.10574742 0.022235028 0.10884502 -0.11705036 -0.097980082 -0.026254665 0.12215145 -0.044141918 -0.058087379 0.090225235 -0.012697445 0.05009678 0.039427359 -0.0044096857 -0.011619508 0.050580785 0.083816543 0.12344524 0.059578061 -0.11601143 -0.029835314 0.051868625 -0.10314471 0.051157206 0.10026197 -0.12095458 -0.081107438 -0.01253897 -0.083892509 0.021667462 0.089904241 -0.064487703 0.037014 0.10930301 0.073643714 -0.0086504668 -0.06081304 0.0074954033 -0.10707474 0.042801823 -0.026695456 -0.024317563 0.0039878078 0.018230047 0.088706017 -0.0078334138 -0.0079953149 0.10149771 0.044828758 -0.12193389 -0.07160987 -0.09584184 -0.096095271 0.062672034 -0.074821241 -0.031897269 0.067604944 -0.020032462 0.07635802 0.050927624 -0.022153869 -0.043251745 -0.041461676 0.047362879 -0.037385777 0.064536527 0.079243131 0.079800516 -0.023991019 -0.074585527 -0.057367146 -0.12148423 0.095812753 0.11154038 0.10532516 0.079343557 0.042326357 -0.012361422 -0.11140262 -0.05972372 0.12794693 0.062066734 0.030303597 0.019258738 0.11143678 -0.10075501 0.10790125 0.021615561 0.1226747 0.021240436 0.091175616 -0.11705773 -0.10746469 0.12574323 0.06179107 0.073268645 -0.022709878 -0.036911756 0.025333449 0.03193818 -0.01884607 0.018543348 0.036361314 -0.075585961 0.10470933 -0.090440646 -0.068999849 0.010644453 -0.074354909 0.015222554 0.017317787 0.10572608 0.092188612 -0.12169263 -0.056174595 0.076056048 0.072321497 -0.056477182 0.096964449 -0.0010542051 -0.055731941 0.092314638 -0.018307716 0.063101843 -0.011030799 0.091496244 -0.025192037 0.056015868 -0.065774947 0.017689498 0.036242802 -0.0077852309 -0.0086091608 0.033557843 -0.11144485 0.034503073 0.11885981 -0.10491006 0.090699434 -0.093280882 0.036330834 -0.052240431 0.11844848 -0.047234878 -0.046100855 0.1249848 0.0019874722 -0.033754781 -0.05945088 -0.10538796 0.01925604 0.006215468 -0.075169161 -0.032756731 -0.014080495 0.11157118 0.00093919039 0.036119044 -0.052047163 0.092980534 -0.098149762 -0.036813185 0.02269648 0.060816988 0.011518151 0.10659903 0.10775448 -0.076851815 0.078949854 -0.029659808 0.11597531 -0.11230908 -0.046636268 -0.055130869 -0.11385019 0.051559269 -0.033987954 0.0066045523 0.11312202 -0.061344326 0.051978633 -0.10829255 0.0024443418 0.093701407 -0.080900937 -0.083387762 0.10446571 -0.01130183 -0.0068393052 -0.10864583 0.063079372 -0.032625541 -0.10861127 -0.035530925 -0.042235702 -0.016640589 0.10496131 -0.04693979 -0.12257132 0.098325193 0.06895569 0.11875041 -0.074353769 -0.12092154 0.11144457 -0.04574658 0.050048307 0.0066851526 -0.04366732 -0.065886334 -0.056040064 -0.12239592 -0.11014977 -0.052770283 -0.090364382 -0.038714673 0.035769671 -0.036955036 0.10930856 -0.034221306 0.065214142 -0.025757894 -0.087860495 0.090657294 -0.020351412 0.020324698 0.08505033 -0.11082309 -0.055788066 0.027079225 0.02043956 -0.079921275 -0.096696407 -0.074316934 -0.11915658 0.098011307 0.056925565 -0.035740715 0.060064506 -0.0052120835 -0.040966615 -0.11319506 -0.054611046 0.058195233 0.085084371 -0.042235598 0.09586627 -0.080202132 -0.097519338 0.084824607 -0.024242103 -0.018692702 -0.039742984 0.072712965 -0.052474469 -0.011911572 -0.063631535 -0.12670539 0.075671174 0.10443124 -0.1152631 -0.0069563333 -0.10927056 -0.010223195 -0.039224908 -0.082249537 -0.06127362 -0.092631266 -0.016803369 0.02525188 -0.11866345 0.056500256 0.080857769 -0.062882185 0.12144132 -0.010310262 -0.01635538 0.005145207 -0.0068646371 -0.038848728 0.11647798 -0.082755536 -0.016970053 -0.019161806 -0.010377079 -0.095155463 0.049999774 -0.081803873 -0.10682558 0.0030065328 0.045315534 0.11113502 -0.034292832 0.050616443 0.042711034 -0.026722357 -0.032934994 -0.049577951 -0.0030308962 -0.10291781 0.11967555 -0.011519924 0.084183529 -0.089501798 -0.068904936 -0.11402072 -0.091406554 0.06275633 -0.060537264 0.028471634 -0.067454651 0.082584664 0.070879042 0.065869451 0.017572373 -0.067586914 -0.038426042 -0.062280834 -0.074737012 0.12432471 0.025481611 0.0833444 -0.037626609 0.088813871 0.024435565 -0.095883638 0.057273045 0.08998999 -0.091184393 0.06312415 -0.10517353 0.056941256 0.057791844 0.016962513 -0.019041076 -0.020030782 -0.0012422353 0.091155767 0.011921838 -0.093822539 0.12066318 0.095609501 -0.11185078 0.028456494 -0.065060541 -0.020831659 -0.07751441 0.086521968 0.075729638 0.11717063 0.061343431 -0.0041840225 0.10629712 -0.070625097 -0.0016447157 0.011442497 0.042895749 -0.10175025 0.054899767 -0.08296375 -0.1133429 0.053546876 0.0058658421 0.0092669725 -0.045104161 -0.11300616 -0.068847343 0.014170066 -0.059280306 -0.056245506 -0.035095513 -0.023106828 0.03589201 -0.0091553777 0.0061860085 -0.086806849 -0.11177288 0.0095383078 0.094799861 0.0026607215 0.0065950453 0.10067692 -0.10406002 -0.06479311 0.051382259 0.013927937 -0.0092807561 0.061945841 -0.074937031 0.036270961 0.00792934 0.018009335 0.081066743 -0.050884068 0.092106834 0.052580342 -0.0075621381 0.060874388 0.0029028356 0.082949236 -0.12958688 0.029673696 0.11488138 -0.12823981 0.085334048 -0.1309298 -0.10141082 -0.011401363 0.056306511 0.025823217 -0.10716417 -0.12111509 -0.12481549 0.079234101 0.08767914 -0.084197037 -0.078956544 -0.00028124545 0.089321047 -0.079516932 0.099203221 -0.0099640638 -0.045917697 0.10608517 0.084860794 -0.044581428 -0.045312278 -0.11729894 0.072356269 -0.10348532 0.034374066 -0.060659662 -0.058085769 0.039069101 0.075354829 0.019477129 0.059512995 0.11356486 0.078617528 -0.11276332 0.017899981 0.092725106 -0.1115959 -0.085873887 0.0065541798 0.096465454 0.044741124 0.10327975 0.11947358 -0.060614076 0.079934791 0.020638138 -0.018365592 -0.062703729 -0.037371323 0.078026071 0.053765059 -0.052459955 -0.046034966 -0.053051487 -0.027069416 0.11370453 0.11901253 -0.11848895 -0.025536291 -0.043423504 0.0010256916 0.0082970997 0.089097232 0.028843418 -0.095456034 0.04569529 -0.010797247 0.12254799 -0.0025459081 0.11684577 -0.0067849159 -0.080184296 0.050079308 0.1294407 0.10505204 0.092514232 -0.070466697 -0.01486361 -0.085350841 0.032671407 -0.10529291 0.080867998 0.028813992 0.050094903 -0.082427144 -0.070198685 0.063795336 0.061679743 0.0314284 0.034225211 0.057682276 -0.057762429 -0.041783735 0.0076117963 0.054267719 -0.039661676 -0.07694982 0.019478144 -0.048312221 0.071071513 0.039067641 0.015133753 -0.0038621512 0.066541106 0.0053244978 -0.02130164 0.090667695 -0.057128396 -0.061385754 0.013251662 -0.064802364 -0.079355367 -0.044008479 -0.071776897 0.038670361 -0.07072334 0.019681066 -0.071860313 0.021148533 -0.028706878 -0.024557963 0.0051930994 -0.11873159 -0.092793509 -0.081089213 -0.1135031 0.019051686 0.057459906 0.067680225 -0.12209646 -0.11173218 -0.020653263 0.052501068 -0.014306262 0.02403681 0.074995503 -0.030054167 -0.057943955 0.023643389 -0.061666876 0.088003546 -0.1203814 0.080033317 -0.050367817 -0.00061786175 -0.010712788 -0.0075608045 -0.027499884 -0.065157518 0.12266625 -0.10537961 0.079449102 0.10777348 -0.050199881 0.042316824 0.10180217 -0.049936935 0.071036324 0.026943326 0.068021804 -0.087963104 -0.046409637 -0.080491886 -0.08164309 -0.092481583 0.028509602 -0.12049058 -0.11487444 -0.076378644 0.018558964 0.062657356 -0.012443259 -0.072498068 0.068640143 0.1152128 -0.007119149 0.04980959 -0.090794936 -0.00042229891 -0.11435616 -0.08085981 -0.048020914 -0.095258906 -0.022969693 -0.0049598068 -0.074898273 0.127257 0.058319211 0.066007912 0.0570434 -0.094081149 0.00038407207 -0.020356491 0.10510781 -0.043641031 -0.094641916 -0.0020512938 -0.080130547 0.035578564 -0.072581917 0.049928833 0.04777018 -0.049560886 0.099203877 -0.0088160336 0.064529017 0.0057701156 -0.064701557 0.11525533 0.038667645 -0.035923846 -0.00083803176 0.073246993 -0.064324118 0.099892214 0.10460934 0.11213823 -0.084984258 0.001799345 0.075155169 -0.012179641 -0.026370585 -0.044758886 0.0093458919 -0.024276808 -0.10330037 -0.096985005 -0.10677879 0.092608869 -0.033036143 0.038913403 0.050965831 -0.11018795 -0.1177595 0.019195601 0.082147852 0.055812847 -0.023099303 -0.078136221 -0.023042494 -0.042764723 -0.045629069 -0.074694887 -0.086141601 0.10560127 -0.083484873 -0.060518716 -0.016986519 0.07024239 0.048599854 0.11818271 0.11847843 0.093483999 0.052958257 -0.037484542 -0.050086997 0.11384873 0.051066745 0.0029014051 0.12024727 -0.067355379 -0.015642658 0.032216921 0.088576071 -0.055924926 0.10148732 -0.089357533 0.022770338 0.088086084 0.0029845536 0.089958921 0.080343232 -0.091796406 -0.055246521 0.016127549 0.09895876 -0.048807181 0.024706511 -0.077117853 -0.094582774 -0.09610305 0.07391873 0.043294519 -0.0029722899 -0.069940343 -0.11437966 -0.0024407299 0.039840359 -0.068530597 -0.064803481 0.097979948 0.09028285 0.088785067 -0.12164757 0.060917057 -0.062969871 0.10853207 -0.042674601 -0.066290721 0.034774948 0.01691976 -0.1094849 -0.039953604 0.12583447 -0.030396208 -0.082172588 0.027505457 0.034658611 -0.1051456 -0.013774022 0.019159975 0.029798314 -0.046637401 0.022872508 0.11424799 -0.033485457 0.021216094 -0.051936347 -0.015732437 0.014598038 0.015865192 0.048650555 0.040806115 0.0926456 -0.060125247 -0.04862754 -0.03127265 0.024975641 0.064414978 -0.028978448 -0.034896143 0.11420394 0.0071978271 0.10446553 0.020221367 0.0073075742 -0.073199563 0.01222846 0.0034019891 0.12789939 0.12545881 0.061782084 -0.082331896 0.10418797 -0.10915554 0.052642912 0.044583172 -0.10024197 -0.08074832 -0.07892938 -0.082380675 0.069482788 0.045859326 -0.026993386 0.021816505 0.11708771 -0.010759339 -0.059613973 0.045710243 -0.047205571 0.030752122 0.052867591 0.093152612 -0.066037476 0.079770185 -0.051585987 0.012972966 -0.0088393539 0.10312834 -0.094682321 0.03204909 -0.072914898 0.054550286 0.053770572 -0.10243344 0.0049473792 -0.085296229 0.080986917 -0.087375984 0.081770152 0.04315576 -0.016044315 -0.027051851 0.058949023 -0.087152809 -0.12652858 -0.050903171 0.013859647 0.013595298 -0.086304501 0.0912361 0.052360434 0.071815334 0.038129482 0.081789702 0.014605999 -0.06957759 0.11340623 -0.10632573 0.078067258 -0.11219235 0.10835014 0.077512994 0.11436912 0.080093309 0.057012413 0.069474623 -0.055073913 0.0046465895 0.038964212 -0.1120296 0.06013535 0.053823665 0.055057615 -0.060604941 -0.10816501 0.054565575 0.015104372 0.099083006 -0.029461801 -0.00078798831 0.059235796 0.084800683 -0.10545075 0.077257141 -0.095746301 -0.097056463 -0.068934098 0.072955169 -0.060275689 0.12426262 0.096344985 0.089287311 0.09432286 -0.074456304 -0.016270995 0.050124351 -0.0087035298 -0.10873537 0.0035433322 -0.11876331 -0.013210088 0.012520841 -0.045963287 -0.034653947 -0.02847309 -0.044534296 0.00046094132 0.12206906 -0.07403703 0.037443489 -0.0028352933 0.10450779 0.096259654 0.04187502 -0.031300601 0.090354621 0.017125681 -0.04915012 0.057529617 -0.11176558 -0.11703299 0.010959079 0.1005923 0.09346512 -0.050772917 -0.071106307 -0.058442399 -0.018859932 0.035647474 -0.0461381 -0.017360682 -0.072142586 -0.073992029 0.067037538 -0.015137553 -0.033748839 -0.064565048 -0.018834518 0.078776106 -0.11486723 0.06600108 0.1014949 0.1035856 -0.10311896 -0.031153589 0.076795973 0.057015833 -0.03035748 -0.021513117 -0.11488523 -0.01078245 -0.094250508 0.10624333 -0.023164526 0.10400692 -0.085531622 0.055583328 -0.060542494 0.0098564029 -0.066310719 0.081656367 0.058590785 -0.085977569 -0.10868545 -0.090414613 -0.030927196 0.098759487 0.011479571 -0.10159253 0.038567826 0.0091093332 0.030979931 -0.027587935 0.067977518 -0.030756399 0.072225451 -0.076152146 0.034008801 0.019751117 -0.11731845 -0.0037800968 0.034499213 0.0053928792 -0.0119019 0.056736499 -0.017437637 -0.12190802 0.018636882 -0.034889251 -0.066914037 0.082310453 -0.071008608 0.1140554 -0.067948461 0.035477623 -0.093212038 -0.0343692 0.095659271 -0.12120959 -0.0017880499 -0.10680085 -0.032328606 0.027452767 0.034381345 -0.11146669 0.03908141 0.033545658 0.098941296 -0.067474693 0.10180829 0.11028028 0.016698837 0.084334269 -0.10682562 -0.11841497 -0.11374941 0.08067371 -0.096785963 -0.012287781 0.05175291 -0.001255095 -0.12261292 0.030937076 0.10794596 0.049056336 0.014525566 0.10303372 0.026177436 -0.023222223 -0.06415078 -0.0038817078 0.0072267205 -0.067697816 -0.10325421 0.032511774 0.11344717 0.057772622 -0.12342104 0.013561622 0.10284193 -0.0039517134 -0.063815176 -0.058765482 0.12362082 0.12517762 0.11083388 0.083164036 0.057524607 0.057276517 -0.098966405 0.03295894 -0.094588093 -0.035556264 0.11955947 0.072877266 0.03048938 0.023548078 0.046066102 -0.076344401 -0.037356526 0.069695532 0.049298301 -0.061599225 0.043845426 0.0078330189 -0.017862586 -0.093947254 -0.033951495 -0.098753601 -0.12186632 0.045282934 0.058960423 0.096233368 0.12918448 0.021721983 0.064361006 -0.047965758 0.037705779 -0.017283164 -0.08471518 -0.036457807 0.087692365 0.031218745 0.085995421 0.088607565 0.1152015 0.09419544 0.082207903 -0.079728976 0.11201425 -0.036920816 -0.095444784 0.054033846 0.12292562 -0.025510296 0.11946549 -0.0077130347 -0.01158908 0.083335787 0.09316282 -0.12109104 0.074238539 0.0073249042 0.045383394 0.12407506 -0.035034746 0.094519064 -0.0065960735 -0.072100118 -0.052468881 -0.10426629 0.098562881 0.028459445 -0.12222615 0.090566665 -0.086317241 -0.11562866 -0.10145916 0.12039907 0.046586692 0.10033877 0.097653106 -0.015380174 0.017842531 -0.096264198 -0.04968296 -0.072784021 -0.058391854 -0.12313741 -0.01476045 -0.11690579 -0.057728499 -0.095036879 0.066654906 0.027968213 -0.11098649 -0.013521671 0.013365462 -0.0036971271 0.097131833 0.10834664 0.045722961 -0.070559442 -0.047357962 0.052350432 -0.019136548 -0.067752391 0.079108551 -0.10992071 0.039590418 0.11680758 0.10211711 0.10501571 -0.0081717661 -0.039286822 0.10211739 -0.015352726 -0.041995566 -0.11383569 0.04156594 0.022943785 -0.086278811 -0.052738085 0.097939581 0.0095353797 -0.10566583 0.022606136 0.074647263 -0.01127404 -0.027031392 -0.071397744 0.065404423 -0.031594787 0.062428609 -0.026060075 -0.039623514 0.0041859448 0.020298425 -0.071567088 0.06200612 -0.098823316 0.032902095 0.031436127 0.032025859 0.025748543 0.034059227 -0.026761679 0.0072363676 0.07776165 0.006900683 0.011004955 0.048775818 0.06867601 0.032995932 -0.099385902 0.10245589 -0.060683317 -0.10588463 0.029587004 -0.017409071 0.07364291 -0.072594807 -0.11927013 -0.08817932 0.09732791 -0.082521588 0.021033607 0.0058761174 0.11567844 -0.11624765 0.089474097 -0.11162871 0.030775115 -0.08101365 -0.11754149 -0.10199745 0.10906889 -0.074850112 -0.02567625 -0.0856307 -0.11827873 0.10820578 0.10264222 0.071818486 0.029436648 -0.0039271563 0.034261987 -0.062807173 0.097377732 0.085903689 0.12242138 0.013258085 -0.011551633 -0.1132876 -0.031759337 -0.12312272 -0.066149071 0.070128113 -0.0018597841 -0.095080316 -0.1209088 0.033514649 -0.075144589 -0.072802007 -0.021371007 0.059931323 -0.029702932 0.027055025 -0.038182467 -0.067078292 -0.045447364 -0.12297137 -0.057282403 0.042140409 0.014864102 0.11816832 0.12293358 0.10870178 0.06834583 -0.062406898 0.083553761 -0.033323109 -0.0049605221 0.02191861 -0.099082261 -0.066077366 -0.10990722 0.053101763 0.094255611 -0.090963691 -0.090406999 0.081517607 -0.11146796 -0.10691673 -0.084954157 -0.10362427 -0.12454748 0.084615931 0.0815835 0.10314242 -0.10857169 0.040471893 0.045600146 -0.083813205 0.031036377 0.073499285 0.033389568 -0.074873641 0.084790558 -0.11441734 0.094655201 -0.061269313 0.01885204 0.11134632 -0.0087065352 0.068553329 0.059565648 0.0072142929 0.10994497 0.11837654 0.016680354 -0.038798049 0.10289647 0.09696649 -0.083497584 0.066194013 -0.071680307 0.087878928 -0.0072709168 0.072218902 0.075368255 0.086554386 0.0044736546 0.10344824 0.056401841 0.11176782 0.10125735 0.032141089 -0.098758042 0.12207086 -0.0031557679 -0.018013801 0.11918215 0.085175171 0.012452466 -0.095982373 -0.067584023 0.10881115 -0.032272711 0.068148009 0.022708688 0.012220711 0.10384504 -0.045623839 0.0031244121 0.024705982 0.12221868 -0.050218776 0.0040306184 -0.071743712 -0.11242822 0.051986247 -0.059764937 -0.10309766 -0.017346829 0.10781357 0.040953174 0.12456396 0.023266241 0.021946231 -0.079086393 0.050108075 -0.014054773 -0.087751955 -0.012400801 -0.11675596 -0.039540954 -0.026382983 -0.068239436 -0.10783461 -0.015379325 -0.10256484 0.01252757 -0.084637642 0.0004377247 0.064138897 0.017984908 -0.013115689 0.12356818 0.062898859 -0.094527394 -0.026480915 0.096870154 -0.037190463 0.10008909 -0.046695013 0.13051748 -0.043294638 0.10600299 -0.026010495 -0.026738659 -0.088811964 0.018815577 -0.059759982 0.046012849 0.077175036 -0.095307067 -0.089563079 0.046317317 0.045413554 0.036931038 -0.11504641 0.0031546801 -0.023693057 -0.017643739 -0.093690276 0.069312125 0.025106356 0.061625786 -0.048511397 -0.0344363 -0.12207994 -0.0079992376 -0.063393205 0.042225882 0.075045645 -0.080199391 -0.053749293 -0.01467827 -0.033498675 0.10909516 0.0090616941 -0.039275721 0.022939116 0.057352364 0.0033675134 0.032468364 -0.11194451 -0.065335497 0.098926663 0.082423508 0.023989737 0.02962999 0.053582236 0.10587479 -0.01542826 0.041910365 0.071858779 0.066377446 0.0023992509 0.11081122 -0.015370712 0.092757046 0.0042518377 0.12038977 -0.10295664 0.0066219866 -0.10582817 0.046107695 0.082322463 0.026477665 -0.049546137 -0.095365703 -0.012188792 0.12402743 0.0052341223 0.10047936 0.024176404 -0.0077645928 -0.1125519 -0.081007242 0.12045376 0.08585988 0.045170203 0.095631212 0.096865088 0.10043944 0.053670824 0.0081459135 -0.08688356 0.065909237 0.067556992 -0.045605823 -0.075961605 -0.057490155 0.094287917 0.062904045 0.05473581 -0.076299638 -0.096638992 0.036271781 -0.097397968 0.11321193 0.087537602 -0.03186734 0.018001899 -0.042130992 0.12763608 -0.083990157 0.093458459 -0.094727792 0.005926922 0.082104273 0.070976302 -0.033446852 0.095875382 -0.098183505 0.078551382 0.11163919 -0.0099811703 0.068456784 -0.0017386035 0.080708012 0.00014028873 -0.046184469 0.022151977 0.048343912 0.031415381 -0.06910266 -0.066048205 -0.058930915 0.040106192 0.053340934 0.00051304593 -0.014172515 -0.084476724 0.055412438 0.02180996 0.040737092 -0.10326925 -0.013342902 0.10614158 0.027279854 -0.017959176 0.10012402 0.043126617 -0.0072211358 0.024283342 0.069257975 -0.10487069 0.04793635 0.017284989 -0.014019893 -0.043187305 0.066620871 -0.040495664 -0.057253718 -0.012786164 -0.070518807 -0.057264253 -0.016399931 0.087793946 -0.094350308 0.0059720427 0.034376144 -0.093854338 -0.075242072 0.064690083 0.047895059 0.05418165 -0.11410016 -0.023292705 0.072887629 0.029579937 0.001626581 -0.086428493 -0.0036868155 0.11302973 0.0651858 -0.11433198 0.079242393 0.010661185 0.054004386 -0.083445564 -0.12049864 -0.082975835 0.1008334 -0.071830541 -0.032937735 -0.08778128 -0.039356202 0.052822575 0.083464369 -0.11494496 0.060062721 0.030733392 -0.079949826 -0.06085822 -0.076847672 0.0065117478 -0.085327283 0.019371167 -0.02804631 0.0024464428 -0.0292366 -0.081211835 -0.084100157 -0.055104718 -0.072090164 0.04897894 0.1091074 0.11304745 -0.094643012 0.067263499 -0.040805891 -0.0076992661 -0.0085120648 0.015354887 -0.033428445 -0.015714943 -0.092550412 -0.0080459416 0.023863226 -0.069798559 -0.018690914 -0.0015459955 -0.070572838 -0.099126682 0.078766748 0.080747388 0.018670991 0.09402144 0.07059139 -0.048047766 -0.028086945 0.12864858 -0.04650344 -0.094430715 0.10842776 -0.013009652 0.074659877 0.037781253 -0.037938271 -0.050993964 0.034653381 0.12246703 -0.05328013 0.040948898 -0.0024713513 -0.072681315 0.040670805 0.010345563 0.032220565 -0.023760587 0.1034705 0.015945984 0.021618739 0.07119824 0.068471074 0.1115888 0.052404247 -0.10018194 0.025272928 0.11001112 -0.1139269 -0.086606316 0.0063536912 -0.1102308 -0.078095004 0.013454561 0.10028169 -0.059190415 0.012713737 -0.032600313 -0.015243878 -0.069113806 0.088741988 -0.036658168 0.04776381 0.042611659 -0.042115379 0.096320644 0.097949907 0.0071509928 0.058434729 0.01678611 0.087281287 0.084496439 -0.023704397 0.0066909939 0.098263577 0.0015096217 0.020799249 0.1239942 -0.0164565 -0.078351989 0.068363756 0.10975261 0.030158803 0.017554255 -0.066787958 -0.11029723 -0.08310248 0.058050826 -0.11357155 -0.1149811 -0.10566843 0.034999743 0.071553946 0.1011277 -0.0057994723 0.01552631 -0.05172969 0.059282552 0.12075984 0.12096506 -0.069696359 -0.012722224 0.076601446 0.13232172 -0.058347493 0.042583045 0.12803334 0.037996393 -0.013484551 0.13039352 -0.0013094972 0.12903671 -0.104093 0.099756032 -0.062771574 -0.037923008 0.11379214 0.096052013 0.047695935 0.011075659 0.038775392 0.055760857 0.04506303 0.042124875 -0.049053896 -0.062236786 -0.090541244 0.017931836 -0.10508844 -0.0096825659 0.026341919 -0.091059223 0.12881425 0.12772228 -0.11483774 0.06474559 -0.039293941 0.10618825 0.0039068609 -0.080066979 -0.083726689 0.058686554 -0.074013546 -0.066163927 -0.12272444 -0.092965901 -0.015988022 -0.12342295 0.057074711 -0.083697036 0.10756581 -0.073721424 -0.03015849 0.10528812 -0.032446325 -0.02548492 0.024252534 -0.11305639 0.091902211 0.069412872 0.083028376 -0.12376915 0.11214299 0.051844388 -0.057883054 0.11128487 0.035256922 0.084764615 0.016230166 -0.07094118 0.093678072 -0.072379827 -0.023425415 -0.11844511 -0.11131041 -0.072039083 0.0535945 -0.072999522 0.086907446 -0.11191456 -0.0081064999 -0.12381643 -0.08187072 -0.025390565 -0.016854882 -0.096035719 -0.099242657 0.02841945 -0.029006854 0.076177374 0.11819007 0.014024347 -0.01347892 0.01328069 0.027548552 0.074917063 0.11571456 0.08353433 0.12361805 0.10597362 -0.063771337 0.10799262 0.073953763 -0.11295664 -0.10859486 -0.099517092 0.077058122 -0.097473651 0.018023908 0.015633479 -0.11122689 -0.025977775 -0.060751304 -0.033882588 -0.072735414 0.060016438 -0.096192941 -0.042625174 0.0093535036 -0.051016524 0.07303758 0.10692495 0.085235268 -0.11891948 -0.12234391 0.076170504 -0.083637744 -0.11217055 -0.11624618 0.0070749521 -0.013882473 -0.11567429 0.00048035383 0.0027943552 -0.028631538 -0.01655522 0.05595848 0.033994943 0.035807669 -0.058199629 -0.12155224 -0.062007532 -0.040441304 -0.11353987 -0.06712006 0.052177221 0.0050038695 -0.022848904 -0.034341738 0.05494453 -0.019589156 0.067015082 -0.023445025 0.098998308 0.027269736 -0.12261571 0.00575535 -0.058425128 0.10975359 -0.092117026 -0.097102597 0.036243066 -0.0090789795 -0.11234924 0.094299257 -0.084580451 -0.11392689 0.0099708438 -0.037764221 0.087918706 -0.020893782 -0.1129244 -0.054195315 0.020750567 0.077065885 0.1185215 -0.044646621 -0.091881245 0.050979022 -0.11878882 -0.064687975 0.034692258 0.12581576 -0.053820342 0.13191655 -0.026741818 0.066699699 -0.07783699 -0.10598999 0.12533399 0.13128304 -0.028431034 -0.10541912 0.073322773 0.057045192 0.013974505 0.04050152 0.12899491 0.012012026 -0.073667333 0.00013014866 0.074120693 -0.11216857 -0.082506634 -0.011115194 -0.010036226 0.1159544 -0.0017555803 -0.018310487 0.089159101 0.05002135 -0.056409463 -0.083529249 -0.07057561 0.022255303 0.095564924 -0.10125416 -0.10368933 -0.050549716 0.087018967 0.11717004 0.065549374 -0.042931013 -0.072220892 0.075603269 -0.025373552 -0.056708544 0.096724376 0.011254353 -0.051574096 -0.070771664 -0.095812321 -0.055008277 -0.10822329 -0.091821641 0.030191416 -0.063457221 -0.079151481 -0.0083037615 -0.1179985 -0.034171373 -0.021133065 -0.056840833 0.12439764 0.060164366 0.071314335 -0.12786745 -0.015916333 0.053445678 -0.11209254 -0.11776514 0.01251182 0.0027374956 0.023968505 0.067926064 0.069278523 0.057647053 0.11184028 0.047440499 -0.056486763 0.037292838 -0.12596162 0.088738441 0.10623404 -0.022380292 0.032617893 -0.040608708 0.076120913 -0.051948264 -0.06179741 -0.084678203 -0.028753221 0.07724528 0.11267025 -0.10890402 -0.13088393 -0.11136611 -0.053631026 -0.091356598 -0.063975401 -0.0096847182 0.12287068 0.10783882 0.031574685 0.079022117 -0.022874132 0.10455013 -0.034448653 0.093852334 -0.05827295 0.10971418 0.10792896 -0.1080136 -0.031046122 -0.048910424 0.077696249 -0.018048272 0.047596965 -0.020650953 0.027741801 -0.11614095 0.0074719042 0.1113933 0.016890712 -0.0802432 0.12211727 0.032654639 0.10771966 -0.01899788 -0.094969451 0.02992548 -0.051520795 1.6474805e-06 -0.039823189 0.039357662 -0.041638792 -0.091659449 -0.11534098 0.067415372 0.036983348 0.043558091 -0.053390414 -0.027288437 0.084124409 -0.077885196 -0.035261009 -0.022136165 -0.10777477 -0.063343056 -0.066420242 -0.0212688 -0.10781687 0.017863082 0.084697746 0.083941966 0.088968024 0.11535427 -0.12745546 0.041098043 0.018295856 -0.029132305 -0.019210065 0.006593057 -0.11384614 0.087786809 0.080112711 -0.049981311 0.066086978 -0.042506576 0.01553385 -0.069659576 -0.11530221 0.10639216 -0.12335652 -0.074195966 0.077047884 0.11341043 -0.092167154 -0.1149551 0.069963664 0.014877245 0.085113317 0.041000739 0.016484169 0.0607934 0.0028129369 0.092490062 -0.00097112323 -0.010143071 -0.037315667 -0.040905505 0.05940111 0.012490774 -0.089710459 -0.025459507 0.039664879 0.036831118 -0.091607928 0.08083576 -0.12381867 0.10311048 -0.098241784 -0.031994879 0.088411264 0.035957649 0.068132684 0.025324896 0.062006991 0.07449612 0.057250887 0.015775172 -0.026267221 0.029759308 -0.025232419 -0.067355774 0.025259418 -0.10053682 -0.018218627 0.10050447 0.12288359 0.08808364 0.057242386 -0.020177275 0.078157425 -0.012828351 -0.071812868 0.01004051 0.024345923 -0.071283557 0.059923217 -0.063658506 0.087752856 0.11354738 0.10789923 0.061782122 -0.055604577 0.03987259 0.031417493 0.055762485 0.10432582 0.041738577 -0.024470001 0.091925442 -0.020407781 0.070312247 0.017804548 0.11644432 -0.03551808 0.05441536 0.044268548 -0.091963559 -0.0096575022 -0.035728931 0.034508869 -0.082767412 0.087721303 0.11320701 -0.080499902 -0.024495184 -0.041020572 -0.11176379 0.066150472 0.088285327 -0.037545115 -0.022594959 -0.036654636 -0.076195851 0.1125329 -0.067046523 0.071516857 0.066661447 0.015840143 -0.1038368 -0.062891379 -0.12428482 -0.083104149 -0.11836264 -0.11149099 -0.043550357 0.073425829 0.036020994 -0.079260439 -0.016054884 -0.087247491 0.0048839003 -0.075703338 -0.080660671 0.010078669 -0.019435897 0.10865432 0.019297093 -0.11049134 0.11823542 0.10004775 0.11711812 0.011907175 -0.022142753 0.10192075 0.10324299 -0.051406533 -0.12301497 -0.046739861 -0.11590406 -0.050148249 -0.078556865 -0.019165277 -0.01764892 -0.10589036 -0.095012546 -0.12428972 -0.049323946 0.10028365 0.049529672 0.068988681 0.041968659 0.070407778 -0.072622076 -0.021205723 0.11831955 0.099906161 -0.0069839982 -0.063267589 0.11014488 -0.07157506 0.0049238647 0.022637174 -0.04682146 0.1099077 -0.11882419 0.070741929 -0.0011604009 0.06691993 -0.045810036 0.090923965 0.067366257 0.031568963 0.028366581 0.050138384 0.10209226 0.011362279 -0.092327878 0.026835199 -0.037798531 0.10096271 -0.12146465 0.10481162 0.065296873 0.089338705 -0.057083979 0.03783343 0.045356646 -0.095991343 0.11419591 0.042343594 -0.077002212 0.095826194 -0.11881988 0.090435877 -0.10279635 -0.078620389 -0.119477 -0.11278124 -0.12431182 -0.051192209 0.050656479 -0.1059282 0.042931095 -0.0027517974 0.024811829
bias 0.099375635 0.046079874 0.051948011 -0.070455745 0.059637107 0.0014763041 -0.097558826 0.097223558 -0.018852562 0.11198688 0.13492465 -0.10651113 -0.051164523 -0.081854835 -0.12260012 0.021377809 0.0693518 0.047827717 -0.02726703 0.040562283 0.084998555 0.029164808 -0.11203406 0.11037088 0.033859521 -0.077896208 -0.060732096 0.075546399 0.00086885691 0.0017054072 -0.063019037 0.13022116 -0.098978773 -0.029662257 -0.0646815 -0.043388426 0.031406719 -0.038784005 -0.096491084 0.039363313 -0.095360406 0.070658907 -0.094370589 0.10673881 -0.03297022 -4.262873e-05 -0.060679615 0.006384613 -0.089174673 -0.0089368839 0.039742496 -0.078759432 0.083308786 -0.098458722 -0.062313378 0.10417172 0.0072380602 0.080122903 -0.079230271 0.012205734 -0.051657952 -0.034545265 -0.071469545 -0.099676169
layer 1 64
weights 0.1231491 -0.090742216 -0.11563344 0.033299133 -0.0091583803 0.009545113 -0.023682332 -0.027094081 -0.012653768 0.077091806 0.096596852 -0.099509329 0.1010627 0.12670378 -0.09893252 -0.092531115 -0.086087242 -0.090768412 0.001661584 -0.039019346 -0.11315024 -0.02154625 0.060815196 0.045069601 0.037909046 -0.040247869 -0.070703298 0.053679094 -0.12455225 0.11367742 -0.056558859 0.084484659 -0.098603949 -0.019598994 0.019562304 0.075579599 -0.0055382396 0.083153889 0.087872952 0.13238242 0.10289452 0.046925094 -0.047347933 0.0027742293 -0.077612549 0.12408019 -0.030471802 -0.054890845 -0.0030966252 0.031243157 0.011437574 0.0098464787 0.04106041 -0.027449653 0.12125783 0.11422959 -0.00473167 0.0030818731 0.051870417 0.0048821578 -0.032394681 -0.10276014 0.095830113 -0.1171677
bias -0.075380847
norm 8
mean 0.89254951 0.20438126 0.63722998 1 0.76931328 0.8926754 0.017920455 1
std 0.078241572 0.27637941 0.16621357 1e-06 0.16654819 0.075820439 0.021172818 1e-06
