layers 3
layer 64 8
weights -0.046498466 0.024826221 0.23349282 -0.26596862 -0.33282027 0.034928314 -0.083091334 0.032710548 -0.022430636 -0.34142458 -0.33843431 -0.094450451 -0.2083489 -0.21760805 -0.10299716 -0.1994402 -0.35347861 -0.25415894 0.070910931 0.046510901 -0.28645247 -0.28499758 -0.090907589 -0.33457184 -0.21582398 0.20094383 0.061076093 -0.23236623 -0.27889845 0.22462554 -0.34000039 0.22111185 -0.16558824 -0.0084028654 0.33783364 0.15879147 0.21197988 0.1754684 -0.026616041 -0.13720798 -0.19955732 -0.159988 0.17414589 -0.13021193 -0.079093404 0.27792427 0.2880629 -0.19592708 -0.28435895 0.026806712 0.2149706 0.30785558 0.068838336 -0.18383382 -0.27796304 -0.016635869 0.22452179 -0.24734122 0.23563911 -0.22054102 0.2730225 -0.21350536 0.2327542 -0.22359969 -0.066661142 -0.29296201 -0.29770851 -0.19263276 0.013883931 -0.2173239 0.13678174 0.097104654 -0.17594922 -0.31308937 -0.1209864 -0.27615103 0.29627228 0.12359972 -0.12480259 -0.33860061 -0.2586776 0.28284055 -0.048609171 0.18491885 0.3484346 -0.06391082 0.20270628 0.24666172 -0.34883264 0.18905963 -0.10206866 0.022162329 -0.16934735 0.037667524 -0.14842792 -0.048544232 0.28672639 -0.21618606 0.018261513 0.096203133 -0.1399924 -0.1911982 -0.025320688 -0.34130579 0.30509111 0.200647 0.30292737 0.19564517 -0.15804854 -0.034059513 -0.23466665 -0.3072845 -0.077855892 -0.2020984 -0.35200787 0.16835061 0.22612931 -0.15872827 -0.14373854 -0.32921669 0.14766042 0.1495581 -0.11568687 -0.18242007 0.052189194 0.20488799 -0.10045683 -0.28281447 -0.16317165 -0.2467666 -0.34066615 -0.23470719 0.12178412 -0.31938532 0.11084107 0.039427955 -0.2018692 0.1741754 -0.006094222 0.072332367 -0.3077257 -0.11826088 -0.012052109 0.07817544 -0.0048936284 0.16107079 -0.20882659 -0.16853783 -0.22607203 -0.0032413877 0.30018714 0.18599875 0.19455092 -0.3001641 -0.092715159 -0.18463187 0.33352852 0.21557635 -0.050329693 -0.0035717417 -0.092511065 -0.31719992 0.22297318 0.30246571 -0.19968313 0.16921222 -0.058895878 -0.32355809 -0.24268588 -0.28667131 0.24423243 0.031296436 -0.30832902 -0.10644338 -0.22682077 -0.32870525 0.24334629 -0.26275852 0.24644358 -0.017406268 -0.34349242 -0.32108745 0.26531476 -0.013766635 0.27781257 -0.082450897 -0.22917691 -0.17838041 -0.0092533408 0.16161507 -0.014429653 0.22377189 0.36825904 -0.13094406 0.054994777 0.083151318 -0.034715831 0.31423268 0.26560411 0.13882641 0.17611696 -0.3374179 0.19370905 0.35837233 0.20978662 0.080918573 0.17376271 0.29136503 0.23430875 -0.064651631 -0.03687942 -0.092181101 0.016700549 0.18711108 -0.12271421 0.2178503 0.32888442 0.34871897 0.1659161 0.08970347 -0.1657688 0.01108675 -0.22858596 0.18617713 -0.020044282 -0.33678105 -0.035661206 -0.16370527 0.11900036 -0.34581098 -0.15284601 -0.26424301 -0.18042348 -0.26531243 0.29378262 -0.27518338 -0.29109883 0.19311289 -0.030179208 -0.052788675 0.10120025 -0.15858346 -0.029653993 -0.3019695 -0.29022762 -0.10821275 0.36061329 0.35962042 -0.025384709 -0.33750442 -0.090746887 -0.06948182 -0.15729144 -0.10261122 -0.21276437 -0.10095489 0.2225216 -0.18650992 -0.1920044 0.016531268 0.21444348 0.13488367 -0.31372079 0.043662339 -0.074887924 0.18669537 0.27806261 0.27004761 -0.16961162 0.32481217 -0.34755594 -0.26003841 0.28624412 0.15503103 -0.14655435 0.26335618 -0.15830635 0.36512539 0.27642727 0.025195915 -0.21410979 0.23697111 0.18129988 0.1790328 -0.10973962 0.051645193 -0.16979508 0.17043602 0.30091411 -0.026248619 0.31333408 0.29485682 -0.050981179 -0.095771901 0.14530411 -0.11844931 -0.24343786 0.24826953 -0.26737195 0.11894809 -0.11276586 -0.18524596 0.029914161 0.35803422 -0.029327529 -0.24970694 0.28210604 -0.025972703 0.29988721 0.078796774 -0.028547121 0.31171882 0.16612442 -0.069516003 0.22496855 0.11071634 0.26980054 0.010658978 0.26956826 0.32775804 -0.12861618 -0.24960744 0.05120432 0.36594322 -0.18033937 0.27454165 0.18295684 -0.071061522 -0.32841891 -0.0077772313 0.20095819 -0.33932 0.087311365 -0.15765998 -0.12658253 0.055933293 0.14121108 0.29358682 -0.080871627 -0.1070068 -0.1023913 -0.28653345 -0.23685002 0.25062734 -0.035794724 0.22015566 -0.12339866 -0.17419845 -0.067395933 -0.27146354 0.24208829 0.10152417 0.24742405 0.074908324 0.17082112 -0.20930643 -0.31281507 0.13902186 0.34536853 -0.17339955 -0.030160874 -0.26016289 0.022791835 -0.27244297 0.089484543 -0.19162899 0.0079749003 -0.055509381 0.15444882 0.26430467 -0.3610535 0.32736868 -0.36763036 -0.21724223 0.058665771 0.26913926 -0.013269406 0.041594215 0.043481678 0.020674903 0.1824422 0.12151635 -0.31932828 -0.074375674 0.20019092 0.073125623 0.25462756 0.16915676 -0.3547076 -0.059779849 0.30887356 -0.15325983 0.074762285 -0.24847728 -0.17617911 0.1408821 0.058358133 0.13241899 -0.25887352 -0.35473725 -0.14070159 -0.28944623 0.29062814 -0.081850991 -0.25354671 0.091538332 0.045610435 -0.18771257 0.20791878 -0.0700313 0.13133398 0.23573869 -0.07520514 0.016238224 0.31752691 0.10504947 -0.16283919 0.25550878 -0.11135045 -0.22768734 0.040249314 -0.058365081 0.17846856 0.19263841 0.21701062 -0.0027078928 -0.27241206 -0.25437844 -0.031296268 -0.31581241 -0.24319363 -0.11522198 -0.30665714 -0.0532718 0.088414378 0.022896571 0.26204753 -0.05557796 0.12076925 -0.072993495 0.36190933 0.030381488 -0.068006299 0.24922094 0.2714524 0.30980799 0.12298165 -0.092975549 0.23296683 -0.12787324 -0.3470661 -0.35110176 0.1937207 -0.043232974 -0.10485642 -0.16454281 0.066572882 -0.056812361 -0.345036 0.11054121 0.16554815 -0.2726126 -0.27624196 0.2692892 -0.18483724 -0.081566915 0.28393403 -0.15099064 0.014910515 -0.044817254 0.27221486 0.20242931 0.023824634 0.32674155 0.32901415 0.26534411 -0.32293606 0.24919298 -0.06622082 -0.260795 0.02357718 -0.27630368 0.31033754 0.26557785 -0.080436379 0.060004946 -0.091352701 -0.16987163 0.032535974 -0.3309249 -0.34012324 -0.17447804 -0.25277525 0.0035914592 -0.071054272 -0.29735044 0.17171228 0.25008324 0.15459165 -0.023750296 -0.137701 -0.24759987 0.2340232 -0.11744847 -0.27761909 -0.062903367 0.24006233 0.29648489 0.28096384 -0.30373824 0.050034318 0.21453667
bias -0.29523289 -0.26210985 -0.34202179 -0.33005521 -0.25565478 -0.34547973 -0.032210089 -0.32694367 -0.11579033 -0.080624811 -0.067800164 -0.29056472 -0.30302265 -0.070519134 -0.089833811 0.26582766 -0.0076336372 0.29937309 -0.20750757 0.33420527 -0.31341812 -0.34109744 -0.34577304 -0.1303259 -0.072699577 -0.042646077 -0.090846479 0.14302669 0.28642616 0.11367258 0.32113451 -0.14959779 0.10794241 -0.36752626 0.15842979 -0.080104403 -0.20711391 0.34454527 0.023182739 -0.192735 0.33201873 0.036188211 -0.31860551 0.080055654 0.29586032 0.12638542 -0.1119393 0.10780328 -0.076206207 0.29297602 0.10206057 0.014751767 -0.16473614 -0.036392622 0.044958465 -0.072556034 -0.10433153 -0.30321407 -0.07182917 0.082777239 0.20929229 -0.21298976 -0.18853524 0.10342927
layer 64 64
weights 0.091508895 -0.056364596 -0.00082923472 -0.0089387596 0.0715186 0.093367651 -0.045854185 -0.0096230656 -0.021262497 0.066597551 0.083862036 0.12264635 -0.077406228 -0.011246028 0.023456767 0.095417313 0.096374407 -0.090975456 0.090869442 -0.053707078 -0.062822521 -0.083860785 -0.084704995 0.016479868 0.058313336 0.10425864 -0.093833372 0.10750134 0.056096599 -0.00835751 0.10570545 0.089231521 0.062224898 0.0077259331 0.12408473 0.10756247 -0.023306141 0.14667018 0.13636349 -0.099592865 -0.0025500383 0.0071311593 -0.027680948 -0.1187461 0.11336947 0.009078458 0.029614381 -0.099846557 -0.08847294 0.06028872 0.01193157 0.052617267 0.0094652623 0.076828167 -0.031284161 0.013557932 0.1028377 -0.10290002 0.011197346 0.0033512351 -0.028653875 -0.095656618 -0.054313779 -0.081205718 0.064848259 0.12107392 0.102098 0.11675981 -0.025259787 0.096269995 0.075683035 0.12061529 -0.12017557 -0.027816191 -0.049859181 -0.11918937 -0.088924065 0.04413316 -0.05552347 -0.053865742 0.090348795 0.042208102 0.02233775 0.012820757 -0.0073367506 0.014360726 0.056448132 -0.12421535 0.012143416 -0.13903666 -0.082746074 0.044253811 -0.042775586 0.077367425 -0.047647722 -0.074629501 0.10182397 0.028713979 0.0435265 -0.020459393 -0.060707171 0.02957892 0.0010063096 0.042695958 -0.089500181 0.074320763 -0.080354661 0.034903154 0.0015838362 -0.081586108 -0.0074119279 0.075204901 0.023983175 -0.024145721 -0.030979373 -0.095592901 -0.077208042 0.047023028 -0.0015589611 -0.034715243 0.037240028 0.08362551 0.048117846 0.019669989 -0.036363844 0.00020575523 0.06016396 -0.062201526 -0.10906909 0.1100321 -0.0055604577 0.013918489 -0.054941192 0.10289076 0.050900731 0.062279671 0.11305781 -0.11165963 0.089029014 -0.11784761 -0.10078965 0.017573301 0.024806783 -0.058131702 -0.0055996329 -0.043940336 -0.065376699 -0.038378656 -0.059131503 0.075880826 0.11788841 0.05051874 -0.00014703757 -0.08214999 -0.07230442 -0.028025977 0.023251086 0.010527536 0.044189259 -0.080995336 -0.029653579 0.10865018 0.020443499 -0.053549588 -0.032744922 -0.1205402 -0.12008055 0.011539329 -0.089923456 0.05362694 0.11073141 0.1208577 -0.085100204 0.079946503 -0.059597798 0.017685913 0.1129586 -0.092164971 0.0046461225 -0.1173055 0.10705584 0.072752327 -0.10892792 0.060057014 0.073970884 0.018323094 0.10160024 0.0028545938 0.10589255 -0.066550732 -0.079066157 -0.0094379773 0.057760164 -0.066602632 0.12239453 0.059366763 -0.016995922 -0.041849911 -0.11036193 -0.051130146 -0.099499002 -0.12255478 -0.04452002 0.036235899 0.012740463 0.010198638 -0.11081955 -0.058642402 0.0057387501 0.061731339 0.019937381 -0.057162806 0.072259232 0.050313324 -0.092494741 -0.11497755 0.085960642 -0.10196024 -0.0072944313 0.00081674755 0.11735398 -0.012854129 -0.027998626 0.10336401 0.0775166 0.038526535 0.06486623 -0.0076834112 0.058772236 -0.079448491 0.026515901 -0.11759581 -0.051774397 -0.048965976 0.050222114 0.089369357 -0.00012473762 0.098522827 -0.076264858 0.12419239 0.022568375 0.12127805 0.10186283 0.058725312 0.068075955 0.11369991 -0.078553587 0.038031861 0.10702504 0.0085105002 0.0068342984 0.033198193 0.043803081 -0.12227617 0.079410791 -0.065701962 0.0085635781 0.088255316 0.020057991 0.080313116 -0.0648285 0.066637307 -0.14260541 -0.094231725 0.099172458 -0.061780408 0.10373365 -0.0010667294 -0.071557224 0.025421845 0.021212891 -0.026841655 0.083484009 -0.076310821 -0.1186848 0.077750228 0.059488729 0.11483127 -0.11372195 -0.096868902 -0.067492716 -0.039385717 0.052655086 -0.028821198 0.027306348 -0.010442972 -0.052590542 0.11159271 -0.13725349 -0.038507052 -0.071646228 -0.10420288 0.0012299314 -0.031187769 0.030766251 0.096569702 -0.086555995 0.032712489 0.042000398 -0.041220427 -0.010214651 0.12281175 0.0036089197 -0.020258773 0.0072757155 0.066706188 -0.020368241 -0.10144845 -0.082406059 -0.11015862 0.10089827 -0.035798497 0.096480578 -0.076829694 -0.041950867 0.068048455 0.022310812 0.012008741 0.056912407 0.038715184 0.052633375 0.061367631 -0.11129662 -0.062262982 -0.014174246 -0.10836449 0.095590711 0.0079118162 0.10010752 0.10809951 0.12473923 -0.072646961 0.078068793 -0.05199486 -0.039467022 -0.10098598 -0.10937208 -0.060516201 0.06536527 0.090800799 -0.02054204 0.0047638565 -0.12497552 0.042039249 -0.078763194 0.10363992 -0.047131237 0.077083111 -0.089949444 0.11911932 0.12689131 -0.11942714 -0.0070313374 0.085670926 0.058509741 -0.11618349 -0.090453193 0.097330607 0.052413709 0.018701551 0.021508876 0.10732162 -0.040256813 0.0048191003 0.0044233673 0.084978044 -0.075985201 0.0089728795 0.037244827 -0.019464344 -0.0086344853 -0.10243253 -0.039493442 0.041159019 0.030389847 0.11725797 0.0021960735 0.10366046 0.0090606166 -0.018403079 0.093331292 -0.032135919 0.050671875 0.06298282 0.12007828 -0.041029975 0.065494567 0.12119882 0.038360756 -0.070048839 -0.086398348 0.002810508 -0.071402773 0.0098443478 0.10208955 0.089825004 -0.031703547 -0.1021057 -0.07446225 0.11214563 -0.096092761 0.094269879 -0.045861214 0.067562833 0.089596465 -0.11375625 -9.201467e-05 -0.10119507 -0.01262401 -0.0017784442 -0.004226747 -0.10293385 -0.064114749 0.048034951 0.099013753 0.093884766 0.025060242 0.037495855 -0.01837223 0.038961478 -0.046952683 -0.12383496 -0.00015144217 -0.12150076 -0.024798812 0.010862485 -0.040670335 0.045727998 -0.064671643 -0.08236894 -0.024674427 0.11384059 0.036675289 0.021408327 -0.12256739 0.041503403 -0.0091306418 -0.083521485 0.019822497 0.084083594 -0.0043270439 -0.082670517 -0.008125633 -0.041972104 0.099476755 -0.03359288 -0.10922755 0.013215363 -0.051956192 -0.086379185 0.10098375 0.058591932 0.039679009 -0.026838899 -0.055691317 -0.025399745 0.10893381 -0.093991771 0.040852737 0.025799721 -0.011019498 -0.030400937 -0.095807225 0.076624967 -0.10911559 -0.08971145 0.045291692 0.063714214 -0.093599737 -0.012873009 0.071471646 -0.082744859 0.055442665 -0.033330429 0.020292647 -0.091570638 0.11361909 -0.05324924 0.098323688 0.10878229 0.016959362 -0.070768222 -0.10066469 -0.12677902 -0.086618699 -0.0020973468 -0.13867211 0.061435115 -0.086982377 -0.04671663 -0.082829043 -0.047449309 -0.084705792 0.02506268 -0.13669385 -0.099677451 -0.056405567 -0.1357923 -0.069520175 0.06947387 0.0060370266 0.11250427 -0.050454799 0.066673368 0.038203657 -0.094437234 0.041319724 0.027011774 -0.11979996 0.059505165 -0.036497831 0.098159708 0.036780536 -0.085466668 -0.044772595 -0.035013542 -0.03403607 -0.062927768 0.036381677 -0.057620585 -0.10341091 -0.041664556 -0.071673155 -0.054251522 0.011587158 0.07829015 -0.034753695 -0.10273358 -0.0050129592 -0.051843256 -0.08907643 -0.060780987 -0.11919865 0.0091578066 0.11440679 -0.0045332164 0.073553622 -0.097067177 0.025014654 -0.084101692 0.12169857 -0.11236285 0.01484181 -0.026627108 0.015681759 -0.042273551 -0.019023553 -0.013891459 -0.11338048 -0.073885724 0.059201777 0.088522077 -0.039527059 -0.11842482 0.091334447 0.002630651 0.023210138 -0.033120155 0.0915135 -0.037458271 -0.022096112 -0.004588291 0.034503326 0.028567895 0.018617988 0.026751101 -0.069253951 -0.014014229 -0.013867781 -0.070286289 -0.067585096 0.044997752 0.10507607 0.064891785 0.080009475 -0.023716986 -0.047565281 -0.10560773 0.027171433 0.037207797 0.080126569 0.0040707141 -0.076692961 -0.12165877 -0.077085212 -0.085043654 0.03576313 -0.039363369 0.11723843 0.10210424 0.028096095 -0.10832055 -0.0049210489 0.10154981 0.0017194152 -0.024390366 0.0520491 0.099621505 -0.055829212 0.058232184 0.10630147 -0.00077475846 0.048741907 -0.073307298 0.10296057 0.093698829 0.11653728 -0.049430564 -0.0033330237 0.029592134 0.029071977 0.10079768 -0.0046116137 0.039407253 -0.064243086 -0.069854066 -0.046246361 -0.031800956 0.12231362 0.041120037 -0.098570265 0.11811188 0.029535739 -0.040905226 -0.087994263 0.042321868 0.038393825 0.11122911 -0.033996046 0.019135147 -0.067580707 0.00049651688 -0.11841889 -0.012567766 -0.10387202 -0.0065864073 0.14654772 -0.096696675 0.088150546 0.12744278 0.030935019 -0.014846355 0.096724972 0.063594609 -0.10035367 0.040306404 0.1064288 -0.073387071 0.087911472 0.0070455968 -0.027762877 -0.075971887 -0.12489086 -0.076655626 0.09972468 -0.089243218 -0.11627147 -0.070728898 -0.0762306 0.11773407 0.10011485 0.050474823 -0.012035251 -0.088225044 0.10043336 0.12710233 -0.09926144 -0.070289291 0.010635614 -0.10024311 -0.028159237 0.10311356 -0.066055268 -0.044842709 0.11678308 -0.067697719 0.0054295859 0.045120209 0.096903734 -0.016018732 0.14524497 -0.072482884 0.087133244 0.035788618 0.13865307 -0.073855698 -0.096226536 -0.080525212 -0.038978197 0.077877581 -0.0027853968 -0.007547325 0.030028149 0.066417381 0.035857357 0.01447089 0.025353059 0.12407678 -0.036382835 -0.080757432 -0.075416841 -0.014958456 0.088217676 0.012518079 0.12102774 0.055517912 0.079380348 -0.09755601 -0.041562214 -0.0055769086 -0.046572328 0.010994002 0.071869701 0.090450644 0.12306713 0.10254498 0.10534011 -0.10853614 0.025456086 -0.12191214 0.057865381 -0.034748942 -0.038377717 -0.08261928 0.068688944 -0.1231962 -0.076688483 0.063105896 -0.10005035 0.084778026 0.11819138 -0.025499523 -0.057998538 -0.096313894 0.082209408 -0.049222097 -0.016110823 0.032828644 -0.064235374 0.034526139 0.05494535 0.0091403574 -0.10817 0.0017892718 0.061802655 0.04479906 0.11301215 -0.0077779442 0.024696708 0.066420853 0.052195758 -0.11237487 -0.11658177 -0.10470109 0.11474539 -0.056574151 0.043232068 0.117744 -0.080381468 -0.049021825 0.066611722 0.049252763 0.064936996 0.007605806 0.024965391 0.11506046 -0.0095663369 0.10752589 0.10523079 -0.019498035 -0.083408937 0.0081143677 0.10625115 0.077569827 -0.092193678 0.03858602 -0.073922187 0.02508989 0.057757318 -0.02841188 0.072685048 -0.11029913 -0.075342253 -0.099787831 0.039330497 0.045835122 0.0086654276 -0.028141662 0.11374459 -0.083828494 0.078048989 -0.061519116 0.014737755 -0.08665742 0.035355151 -0.043754339 -0.088740051 -0.030844852 0.11648799 0.10192387 -0.11537991 -0.06573987 0.074657142 -0.008797273 0.085849553 -0.03442052 0.10982396 0.015070722 -0.097705305 0.057277828 -0.016188726 -0.065973327 -0.037280753 -0.024649188 0.021912709 -0.096627712 -0.11600582 -0.0081504285 -0.082126528 0.12039067 0.086056292 -0.014276326 -0.0038052499 -0.062584355 0.11464801 0.1138048 -0.073986724 0.0058407933 -0.098195642 -0.066097409 0.098561123 -0.10579298 0.081300288 -0.044205695 -0.043740347 -0.11571921 0.06855347 0.11897105 -0.0035159308 -0.0087493509 0.011438876 -0.10539789 0.026409274 -0.090500101 0.0096318573 0.10942636 0.059689581 0.12724462 -0.11821055 -0.10579532 0.017862171 0.1435453 0.0055553466 -0.080762178 -0.070932925 0.021343673 0.12011433 -0.0092540579 0.12935469 0.10356885 0.11994836 0.028912291 0.062282767 0.093651608 -0.079653464 -0.062618516 0.12311216 0.12211233 0.047814254 0.11146987 0.096612997 0.07909926 0.013304898 -0.016743377 0.073606789 -0.090378575 -0.062229354 0.059796005 -6.4738975e-05 0.050088119 0.13252041 -0.068060897 0.050064903 0.084268957 0.053195074 0.037041262 -0.071759157 0.11060573 -0.041208565 -0.029583734 0.081441723 0.017646983 0.016676407 0.082870141 -0.0462486 -0.00026558049 0.070599511 0.056764454 -0.035294265 0.029316783 0.015967607 0.036901802 0.10309045 -0.022721872 -0.097227633 0.059806183 0.069604628 -0.079587713 -0.098017335 0.065727763 -0.026515424 0.050102916 -0.011482611 -0.098584905 -0.051164776 -0.020109672 0.088293165 -0.066053182 0.067858517 -0.023405705 0.08988867 -0.03799497 -0.054263234 0.023654601 0.08409594 0.022156179 -0.0096754581 0.083153903 0.011984088 0.0666757 0.045681734 -0.06500943 0.094978251 0.10834602 0.079071686 -0.062871024 -0.031803366 0.085433245 0.034563407 -0.073791116 -0.025818091 0.055472836 -0.11907595 -0.050941341 -0.10164504 -0.11772479 -0.03972061 -0.083020791 0.028099641 -0.0025178939 0.018903017 -0.0089993458 0.079022929 -0.060373887 -0.061134949 -0.11301941 -0.06532371 -0.01476486 -0.12355393 0.11668304 -0.077424183 -0.097228765 0.079859152 0.075871512 0.088421106 -0.040804952 0.098326266 0.055306986 0.035129353 -0.080513105 0.049367808 -0.049903169 0.099909633 -0.1305691 -0.025311187 0.020771291 0.081023097 0.077431634 0.063110635 0.090713769 -0.062698975 -0.009762913 -0.061405882 0.034074984 0.063803077 -0.032477301 -0.021364179 -0.11650337 0.12108527 -0.10848683 -0.061753862 0.065336511 0.041536398 0.032094039 0.077553049 0.072615802 -0.10552824 -0.060987402 -0.026653983 -0.091738917 0.049385667 0.050519496 0.1028987 -0.082565941 -0.10525807 0.11080973 0.0830632 0.077824607 -0.021119729 0.030015135 -0.055866707 0.030600794 -0.067357019 -0.042325869 -0.012006498 0.044420563 -0.055456549 0.095704906 -0.12647073 0.012257623 -0.040217534 -0.014566734 -0.025990516 -0.087295212 -0.043736041 0.024004236 0.0045093149 0.0055155456 -0.13442259 0.034488693 0.10237154 0.037152588 0.047999844 -0.02761741 -0.10206014 0.10666151 0.0073207915 0.024150448 -0.030627415 -0.033824392 -0.10273322 0.053764436 -0.073143646 0.05484271 0.072352707 0.070601895 -0.0057032555 -0.0059324559 -0.06975843 -0.046528131 -0.046356492 0.019916801 0.075245515 -0.039547145 -0.13974841 -0.0014121234 0.099730253 -0.084147356 0.018112099 -0.032300632 -0.12215345 -0.061052416 -0.049589362 0.078392208 -0.077728413 0.059885964 0.036730558 0.071654454 -0.047605749 0.064160421 -0.041755226 -0.12789951 -0.081065081 -0.054263677 0.049402099 0.010448315 0.046977609 -0.01790075 -0.03820686 -0.11832577 0.022418201 -0.034305256 -0.064412445 0.030380979 -0.0095505435 0.098070174 0.11758186 0.089562185 0.059608057 -0.040775344 0.083282843 0.033744842 0.074583694 -0.05746989 -0.0041092443 -0.051200122 0.10780346 -0.050455034 0.092870064 0.0080619901 0.027663261 0.091700904 -0.080919743 -0.049601089 -0.11280254 -0.040117469 -0.022484839 0.068299949 0.035358861 -0.08619009 -0.10261251 -0.14027491 -0.020573143 -0.050812285 0.097451702 0.071009263 0.091423705 0.090111136 -0.048153095 -0.06815134 -0.031719647 0.012035353 0.077369228 -0.03409278 -0.10135513 -0.05526128 -0.072790347 0.097820759 -0.095363788 -0.089603722 -0.022226363 -0.06672927 -0.01077448 -0.075252861 0.080567621 -0.029623047 -0.021563435 -0.10343633 -0.064076319 -0.072103202 -0.03675729 -0.10765453 -0.030094458 -0.09021239 -0.0039781928 -0.031727806 0.10681506 0.067016803 0.059317719 -0.0082397163 0.078958496 0.04901867 0.019767061 -0.065237433 0.087537155 0.12026875 -0.142922 -0.1086359 0.023451176 -0.04738611 -0.10171583 0.097288713 0.0612735 0.10451338 -0.084877282 -0.014837887 -0.10236669 -0.086764477 0.096285284 0.033965144 0.12422478 0.078167081 0.061976433 -0.024669722 0.023060665 -0.12803198 0.094994374 0.066684566 -0.1191806 0.059129775 0.036921054 -0.10131586 0.021407168 0.06878455 0.0056854258 -0.10211269 -0.12959009 0.085570157 -0.10167517 -0.047042008 -0.045454659 -0.045234162 0.061955526 -0.092240855 -0.073695645 -0.11896879 0.033051182 0.059440821 -0.030939469 -0.0011192623 -0.078865848 0.057852536 -0.038516443 -0.027385486 -0.10779642 0.06186904 -0.014730607 0.080570929 -0.12082185 0.050672356 0.050942834 -0.013126045 0.051322579 -0.063324958 0.025320023 0.056339171 -0.11920908 -0.10490046 0.10516006 0.034926683 -0.094173767 0.11940922 0.0076393359 0.037044242 0.081555486 0.017807677 0.052550685 0.037120447 0.12137224 0.067993164 -0.10015497 0.019260816 0.014962539 -0.022251444 0.11985235 0.092209339 0.078972101 -0.12047204 -0.10779302 0.033988018 0.03507565 -0.078463294 0.091003612 -0.062734202 0.043556347 -0.091229364 0.074883997 0.11311233 -0.033825949 0.032857329 0.091010027 0.02948406 -0.10897543 -0.14539851 -0.037299018 0.061065607 -0.094763808 -0.088045269 0.066738039 -0.039780494 -0.022386219 0.1086342 -0.078130446 -0.068010494 0.10083205 -0.067197703 -0.027767813 0.049563687 0.10867211 0.12461641 0.082380302 -0.11882234 0.071342453 0.021904517 -0.10988881 -0.07753019 0.084039189 0.064480424 0.07402432 0.066283576 -0.03874518 -0.0090038627 0.010868967 0.1109345 0.035553616 -0.064759001 -0.066844843 0.11404316 0.069669828 -0.0026402771 -0.090813331 0.085616127 0.0053724796 -0.079573087 0.047136992 -0.14845629 0.03152819 0.055217091 -0.089561343 0.085284643 0.030006617 -0.065954283 0.12383793 0.005943025 -0.039315637 -0.053591814 0.069456361 -0.094702303 -0.020389542 0.08611317 -0.13148114 0.081798807 0.031525165 0.065381557 0.0024322257 -0.086726807 -0.032666083 -0.12110821 0.026764013 -0.10048153 0.071494214 0.070077896 -0.078864142 0.049112197 -0.004718347 0.11073215 0.02869017 -0.04779892 0.057471797 0.042597007 -0.045958195 -0.074810073 -0.12332198 -0.056494832 -0.12773474 0.078749798 -0.11467807 0.10202647 -0.12604536 -0.068476833 -0.019404368 -0.057606593 0.0014038831 -0.066965513 -0.050530612 -0.033685401 -0.079773232 -0.071310788 -0.026101977 0.010582179 0.041946791 0.01723364 0.056784332 -0.050839558 -0.045540284 -0.08437863 0.077515334 0.03965538 -0.12053469 0.079866379 0.11189909 -0.096361637 -0.038575917 -0.099022977 0.082755566 -0.11017352 -0.07118617 0.036677964 -0.060327169 -0.089388095 -0.085293755 0.065933026 -0.08561106 -0.049212173 -0.034870937 0.10597166 0.070829876 -0.10858262 0.052383516 0.065530859 -0.037730854 0.044933021 -0.10563615 -0.028785113 0.049413174 0.11372773 0.02258639 -0.048149571 0.027739903 -0.081724405 -0.03289986 -0.04275018 -0.073367715 -0.02231165 -0.0091470815 -0.093358897 0.10662401 -0.089947134 -0.0047995527 0.055293016 -0.10284603 -0.11518327 -0.040852308 0.001191876 0.067647256 -0.013919547 -0.086717471 0.031162068 -0.009692356 -0.060959846 0.10806169 -0.091054589 0.075620942 -0.046979994 -0.043966688 -0.017232284 0.056398332 -0.079568475 0.11513869 0.12312172 -0.12003453 0.13203233 -0.062355548 0.085549347 -0.016044542 0.13655116 0.024883941 0.086769447 -0.027761713 -0.11544302 0.042893335 0.092538156 -0.0019935588 0.011151833 0.063634858 0.06749627 -0.11785756 -0.058003709 0.10459317 0.030690059 0.13674475 0.02376602 -0.010358091 0.024501894 -0.10295897 0.0021353792 0.040431973 0.080273814 0.10179583 -0.038761348 0.065245107 -0.014474895 0.049757313 -0.073972613 -0.07087449 0.0052450965 0.080320835 0.14959985 0.024313534 -0.018229045 0.048201591 0.0060458779 -0.038246278 0.055715993 -0.019496888 -0.025138684 -0.10704733 0.058170948 0.071098894 0.10279776 -0.091682523 0.074069232 0.11183769 -0.057807982 -0.049991325 -0.11074232 -0.11176077 0.065667927 -0.10514035 -0.057345748 -0.077819914 -0.042614251 -0.038440309 -0.043216273 -0.032614633 -0.092874266 -0.0029422343 -0.055429798 -0.049681723 0.13038714 -0.018120453 -0.046718497 0.0012941658 -0.031575575 -0.030419916 0.070341483 0.08526352 0.13003777 -0.034876343 -0.10105704 -0.017932162 0.065605313 0.14871602 -0.018867359 -0.041266724 -0.057112176 0.0217674 0.030107701 -0.049290277 0.086279191 -0.077757403 0.010292488 0.063105747 -0.10773833 -0.059257984 0.11944366 -0.070286281 -0.080340117 0.064921372 -0.0714937 0.053199474 -0.046321839 0.011079267 -0.06947159 -0.0077393651 0.0022367239 0.038077906 0.014105006 -0.097128659 -0.078648098 -0.072482549 -0.048646688 0.12254381 0.074643165 0.059418768 0.057466652 -0.079143628 -0.11255167 0.0014258176 -0.061515912 0.098038316 -0.049830437 0.06465517 -0.0044613928 -0.0081158429 0.1108658 -0.037939191 -0.028548837 0.0087048858 -0.055922732 -0.013240606 0.11074592 0.09851487 0.099116087 -0.09158425 0.015012771 -0.044941127 -0.083887205 0.07662484 -0.097415477 0.011097193 -0.10718113 0.034420907 -0.097723797 -0.1248972 0.10273178 -0.031758785 0.027185768 -0.082044438 -0.0059173703 -0.013066262 0.046807364 0.072515011 -0.036642224 0.087591946 0.069189221 0.045162827 0.085597306 -0.0014736056 -0.082431838 -0.085389674 -0.053771228 -0.061672926 -0.1108292 -0.046938583 0.11635596 -0.071673989 -0.093244284 0.11891009 -0.049555659 -0.078325689 -0.037820131 0.11485498 -0.11080822 0.013975143 -0.019408092 -0.030517757 -0.0085244924 -0.084881499 -0.0058102459 -0.025418103 0.076764241 -0.11014917 -0.021107361 -0.034964822 0.10862148 -0.095777065 0.034064412 0.012413219 0.055495992 0.053680453 -0.094344124 -0.033625603 0.081412807 0.10159183 -0.023420636 -0.089796782 -0.089670181 0.10362083 -0.034555089 0.01801528 -0.017173126 0.00075799227 -0.111944 -0.089853652 0.069911122 0.074852347 -0.058686972 0.015660837 0.10939451 -0.027030149 -0.08446908 0.08360415 -0.13285215 0.043205131 0.085100196 0.016616248 0.069486305 -0.051727466 -0.018646663 0.017386591 0.080329418 -0.010469258 0.00099930167 -0.084849782 0.060119361 -0.04488067 -0.021685746 -0.029753653 0.060331184 -0.013038605 -0.022568431 -0.090727985 -0.041697547 0.05655938 -0.031187698 0.12332198 0.067850672 0.11924493 -0.058536142 0.048024658 -0.10480565 -0.024546981 -0.05124202 0.12331162 0.11493021 0.085331872 -0.015412152 -0.10922651 0.015429959 0.10482658 -0.11158918 0.098950431 0.01368013 -0.10156584 0.118095 0.1054965 0.028198481 -0.049463645 0.07108745 -0.077819765 0.10357374 -0.0883798 -0.028756902 -0.082097501 -0.013196498 -0.040332109 0.018129468 0.096922338 -0.011702463 -0.068296462 -0.067300066 -0.097529739 0.038401067 -0.059699267 0.080931202 -0.098545492 -0.056165427 -0.027766243 -0.00853692 0.0084952861 0.11516191 -0.10731775 -0.027380988 -0.1149732 0.053937301 0.014974698 -0.10557193 -0.046555728 -0.0061121732 -0.017825976 0.11169975 -0.084385246 0.033865422 -0.10782282 -0.032108277 0.082710445 0.0080028176 0.024083644 0.038598463 0.04017961 -0.10927866 0.12498094 0.023497403 -0.071771443 0.04683201 0.0011216551 0.098159984 0.011508286 -0.07497254 -0.043617249 -0.00044506788 0.050835446 -0.057580307 0.08858259 0.069977179 0.11100027 -0.059887022 0.074150279 -0.107122 0.042020723 0.046739221 -0.080539882 -0.11880812 0.11021259 0.056971177 -0.048944801 0.10456796 -0.026022106 0.079510227 0.1077244 -0.032930911 -0.12192568 -0.11485209 0.025950179 -0.1213129 -0.0052383095 0.081927612 0.021843001 0.046326622 -0.080706224 0.059650913 -0.055002466 0.062853903 -0.016138643 -0.10122781 0.035653368 -0.078372851 -0.078045696 -0.092090502 -0.038045421 0.031955585 -0.090827525 -0.058033183 -0.071294397 0.10192734 0.072313398 -0.087135628 -0.11714953 0.034495324 0.064180166 0.017495587 -0.031490371 -0.094050243 0.0012262613 -0.060813308 -0.0047947764 -0.094799414 -0.065832019 -0.062571511 -0.0069115013 -0.031051263 0.041106001 0.080499902 -0.07937108 -0.091295376 -0.065081999 -0.0051221848 0.084425822 0.090219781 -0.10105884 0.10169481 -0.0059932619 0.055999801 -0.1023789 -0.098821431 -0.011363968 0.032699972 -0.12125045 -0.020616844 -0.024713531 -0.12155567 0.099649638 -0.047414109 -0.12123033 0.064157739 -0.00090922415 0.027851075 -0.11071222 0.030358404 0.11991321 -0.040612519 0.01005125 -0.03744401 0.068123147 -0.048197344 -0.056313008 0.077922896 0.066789389 0.10770516 -0.038199574 -0.074942484 -0.047205254 -0.1064541 0.050707564 -0.083374068 -0.095078811 -0.11987875 0.045665622 -0.091972575 -0.030220747 -0.0013160408 0.049851015 -0.12417111 -0.067845032 -0.031214848 -0.11461449 -0.053614736 0.032195881 -0.0025954247 -0.10039568 0.057113528 -0.12152641 0.078049913 0.0048540086 -0.026133373 -0.047284946 -0.087271973 -0.10519606 -0.07172747 0.11298857 0.083534628 0.132678 -0.060646072 0.04865323 -0.044133812 0.07118988 0.050210446 -0.0074999928 -0.089710228 -0.026872098 0.085232839 -0.090099394 0.018992621 0.092662171 0.11696111 -0.013379395 -0.079235926 -0.090992168 -0.078093447 -0.081772864 0.092380591 -0.0015015472 -0.0056719184 -0.093781739 0.047228098 -0.085594885 0.064938605 0.10706852 -0.10159277 0.14570953 0.025635 0.080287553 -0.042284738 0.04217606 0.13143739 0.10645258 0.1137713 0.12145431 -0.021739252 0.11414739 0.06100975 -0.023119945 0.12930749 0.05061274 0.0066624433 0.048475105 0.0080480911 0.05274649 0.10746555 -0.011999528 0.079330206 0.12374397 0.009786305 0.10760783 0.031958193 0.12355645 -0.11705036 -0.097980082 -0.012654669 0.12215145 -0.044141918 -0.058087379 0.090225235 -0.015617346 0.05009678 0.03675212 -0.0044096857 -0.011619508 0.050580785 0.08114057 0.12344524 0.059578061 -0.11869265 -0.029835314 0.049413159 -0.10314471 0.04861287 0.10026197 -0.12357587 -0.081107438 -0.01253897 -0.083892509 0.019163407 0.087261289 -0.0671492 0.034400877 0.10666469 0.073643714 -0.0086504668 -0.06081304 0.0074954033 -0.10966022 0.04012493 -0.02929887 -0.026984021 0.001174233 0.015736068 0.085994914 -0.010514867 -0.010572083 0.10149771 0.044828758 -0.12193389 -0.074403785 -0.09584184 -0.098518938 0.060031474 -0.077500679 -0.034296107 0.067604944 -0.0226945 0.07635802 0.050927624 -0.02786459 -0.045900267 -0.041461676 0.047362879 -0.037385777 0.061890915 0.076586396 0.079800516 -0.023991019 -0.077258959 -0.057367146 -0.12148423 0.095812753 0.11154038 0.10875729 0.079343557 0.053952783 -0.012361422 -0.11140262 -0.05972372 0.13811345 0.062066734 0.030303597 0.024807403 0.11143678 -0.094649315 0.10790125 0.030570466 0.1226747 0.036280643 0.091175616 -0.11705773 -0.10746469 0.14235726 0.07651405 0.088296078 -0.0078548659 -0.024223974 0.025333449 0.03193818 0.0011999605 0.018543348 0.052009881 -0.068521656 0.11892495 -0.083785847 -0.056935415 0.02345637 -0.060080815 0.029274935 0.033149451 0.10572608 0.092188612 -0.11728573 -0.047212392 0.076056048 0.088580504 -0.042597178 0.10967947 0.017145682 -0.04916741 0.10662422 -0.018307716 0.063101843 -0.013024141 0.10536101 -0.025192037 0.061537016 -0.063967623 0.027208306 0.050883103 -0.0077852309 -0.0086091608 0.047070835 -0.11144485 0.034503073 0.11885981 -0.10491006 0.090699434 -0.093280882 0.036330834 -0.052240431 0.11844848 -0.047234878 -0.046100855 0.1249848 0.0019874722 -0.033754781 -0.05945088 -0.10538796 0.01925604 0.006215468 -0.075169161 -0.032756731 -0.014080495 0.11157118 0.00093919039 0.036119044 -0.052047163 0.092980534 -0.098149762 -0.036813185 0.02269648 0.060816988 0.011518151 0.10659903 0.10775448 -0.076851815 0.078949854 -0.029659808 0.11597531 -0.11230908 -0.046636268 -0.055130869 -0.11385019 0.051559269 -0.033987954 0.0066045523 0.11312202 -0.061344326 0.051978633 -0.10829255 0.0024443418 0.093701407 -0.080900937 -0.083387762 0.10446571 -0.01130183 -0.0068393052 -0.10864583 0.063079372 -0.032625541 -0.10861127 -0.035530925 -0.042235702 -0.016640589 0.10496131 -0.04693979 -0.12257132 0.098325193 0.06895569 0.11875041 -0.081683412 -0.12092154 0.10454239 -0.04574658 0.050048307 0.0066851526 -0.051384024 -0.065886334 -0.056040064 -0.12865773 -0.11014977 -0.060666673 -0.090364382 -0.044822324 0.035769671 -0.044390559 0.10930856 -0.034221306 0.065214142 -0.03297231 -0.09539219 0.083072044 -0.027631138 0.012939662 0.08505033 -0.11082309 -0.064370021 0.027079225 0.013049633 -0.085005522 -0.10414562 -0.082035713 -0.12686792 0.090129055 0.049271502 -0.043156091 0.052434687 -0.0052120835 -0.040966615 -0.11319506 -0.061767194 0.058195233 0.07843712 -0.04948967 0.089526914 -0.087571137 -0.10537017 0.077236012 -0.024242103 -0.018692702 -0.050491191 0.065203018 -0.052474469 -0.017478177 -0.063631535 -0.1334651 0.068310067 0.10443124 -0.1152631 -0.01435052 -0.10927056 -0.010223195 -0.039224908 -0.082249537 -0.06127362 -0.092631266 -0.016803369 0.02525188 -0.11866345 0.056500256 0.080857769 -0.062882185 0.12144132 -0.010310262 -0.01635538 0.005145207 -0.0068646371 -0.038848728 0.11647798 -0.082755536 -0.016970053 -0.019161806 -0.010377079 -0.095155463 0.049999774 -0.081803873 -0.10682558 0.0030065328 0.045315534 0.11113502 -0.034292832 0.050616443 0.042711034 -0.026722357 -0.032934994 -0.049577951 -0.0030308962 -0.10291781 0.11967555 -0.011519924 0.084183529 -0.089501798 -0.068904936 -0.11402072 -0.091406554 0.06275633 -0.060537264 0.028471634 -0.067454651 0.082584664 0.070879042 0.065869451 0.017572373 -0.067586914 -0.038426042 -0.062280834 -0.074737012 0.12432471 0.025481611 0.0833444 -0.037626609 0.088813871 0.024435565 -0.095883638 0.057273045 0.08998999 -0.091184393 0.06312415 -0.10517353 0.056941256 0.057791844 0.016962513 -0.019041076 -0.020030782 -0.0012422353 0.091155767 0.011921838 -0.093822539 0.12066318 0.095609501 -0.11185078 0.028456494 -0.065060541 -0.020831659 -0.07751441 0.086521968 0.075729638 0.11717063 0.061343431 -0.0041840225 0.10629712 -0.070625097 -0.0016447157 0.011442497 0.042895749 -0.10175025 0.054899767 -0.08296375 -0.1133429 0.053546876 0.0058658421 0.0092669725 -0.045104161 -0.11300616 -0.068847343 0.014170066 -0.059280306 -0.056245506 -0.035095513 -0.023106828 0.03589201 -0.0091553777 0.0061860085 -0.086806849 -0.11177288 0.0095383078 0.094799861 0.0026607215 0.0065950453 0.10067692 -0.10406002 -0.06479311 0.051382259 0.013927937 -0.0092807561 0.061945841 -0.074937031 0.036270961 0.00792934 0.018009335 0.081066743 -0.050884068 0.079430729 0.052580342 -0.016905269 0.060874388 0.0029028356 0.082949236 -0.14033452 0.029673696 0.11488138 -0.13765784 0.085334048 -0.14272408 -0.10141082 -0.020098092 0.056306511 0.01605715 -0.10716417 -0.12111509 -0.12481549 0.06973052 0.077712238 -0.094196722 -0.088724442 -0.010285271 0.089321047 -0.079516932 0.091369368 -0.0099640638 -0.055676822 0.097277746 0.074978426 -0.055825885 -0.055852685 -0.12729327 0.062138986 -0.11355754 0.02446718 -0.060659662 -0.058085769 0.03722379 0.065408461 0.019477129 0.05084933 0.1036268 0.069502383 -0.12236871 0.011815586 0.08268936 -0.1115959 -0.085873887 -0.0089690108 0.086379945 0.044741124 0.097595714 0.12857635 -0.070172958 0.070304699 0.020638138 -0.018365592 -0.072647437 -0.037371323 0.078026071 0.053765059 -0.052459955 -0.042647712 -0.053051487 -0.015459158 0.11370453 0.11901253 -0.11848895 -0.015432552 -0.043423504 0.0010256916 0.013798263 0.089097232 0.03488319 -0.095456034 0.054619823 -0.010797247 0.13753109 -0.0025459081 0.11684577 -0.0067849159 -0.063605778 0.064739406 0.14440694 0.11986304 0.10514174 -0.070466697 -0.01486361 -0.065424487 0.032671407 -0.089692891 0.087912358 0.042968251 0.056689538 -0.070431732 -0.057463761 0.078005962 0.075684018 0.04719438 0.034225211 0.057682276 -0.053365886 -0.032895159 0.0076117963 0.070511863 -0.025821405 -0.06424313 0.037648063 -0.041750088 0.085315973 0.039067641 0.015133753 -0.0058837347 0.080345087 0.0053244978 -0.015778584 0.092446722 -0.047665384 -0.046805747 0.013251662 -0.064802364 -0.065890886 -0.044008479 -0.071776897 0.038670361 -0.07072334 0.019681066 -0.071860313 0.021148533 -0.028706878 -0.024557963 0.0051930994 -0.11873159 -0.092793509 -0.081089213 -0.1135031 0.019051686 0.057459906 0.067680225 -0.12209646 -0.11173218 -0.020653263 0.052501068 -0.014306262 0.02403681 0.074995503 -0.030054167 -0.057943955 0.023643389 -0.061666876 0.088003546 -0.1203814 0.080033317 -0.050367817 -0.00061786175 -0.010712788 -0.0075608045 -0.027499884 -0.065157518 0.12266625 -0.10537961 0.079449102 0.10777348 -0.050199881 0.042316824 0.10180217 -0.049936935 0.071036324 0.026943326 0.068021804 -0.087963104 -0.046409637 -0.080491886 -0.08164309 -0.092481583 0.028509602 -0.12049058 -0.11487444 -0.076378644 0.018558964 0.062657356 -0.012443259 -0.072498068 0.068640143 0.1152128 -0.007119149 0.04980959 -0.090794936 -0.00042229891 -0.11435616 -0.077062756 -0.048020914 -0.083544552 -0.022969693 -0.0049598068 -0.074898273 0.13771112 0.058319211 0.066007912 0.062967464 -0.094081149 0.0068237148 -0.020356491 0.11427728 -0.043641031 -0.079548493 -0.0020512938 -0.080130547 0.035578564 -0.056067124 0.064763352 0.062888898 -0.034672994 0.11208001 -0.0088160336 0.064529017 0.025939226 -0.064701557 0.13090955 0.046045672 -0.021582015 0.006176881 0.085552685 -0.051291492 0.11429903 0.11875994 0.12804307 -0.084984258 0.001799345 0.079800278 -0.0029050284 -0.026370585 -0.028672557 0.023301274 -0.011574366 -0.085291326 -0.090371691 -0.092332967 0.092608869 -0.033036143 0.037085466 0.06497132 -0.11018795 -0.11227669 0.021066166 0.091938667 0.070527487 -0.023099303 -0.078136221 -0.0094259996 -0.042764723 -0.045629069 -0.074694887 -0.086141601 0.1146059 -0.083484873 -0.041629218 -0.016986519 0.07024239 0.048599854 0.13415197 0.11847843 0.093483999 0.064245313 -0.037484542 -0.038302049 0.11384873 0.06664104 0.0029014051 0.14126156 -0.067355379 -0.015642658 0.032216921 0.11251899 -0.03571523 0.12216287 -0.068062037 0.041171789 0.088086084 0.0029845536 0.10825263 0.080343232 -0.069704823 -0.042856157 0.036086995 0.11150318 -0.031837974 0.043366585 -0.057392694 -0.074446984 -0.074891202 0.07391873 0.043294519 -0.0029722899 -0.058502994 -0.11437966 0.02333199 0.060199924 -0.047937106 -0.039120797 0.097979948 0.11003449 0.088785067 -0.12164757 0.059606798 -0.043442722 0.10853207 -0.042674601 -0.071278222 0.050089013 0.037163585 -0.1094849 -0.039953604 0.14565392 -0.030396208 -0.082172588 0.027505457 0.034658611 -0.10243428 -0.013774022 0.030564371 0.029798314 -0.046637401 0.022872508 0.12369453 -0.033485457 0.021216094 -0.047166269 -0.015732437 0.019925119 0.015865192 0.057086524 0.040806115 0.10735868 -0.060125247 -0.04862754 -0.03127265 0.041618835 0.078687839 -0.014360927 -0.020280408 0.12633027 0.0071978271 0.10446553 0.039542448 0.0073075742 -0.057763107 0.018623851 0.017149823 0.13375033 0.13684897 0.073912621 -0.068543255 0.11787323 -0.093725897 0.052642912 0.044583172 -0.096293956 -0.072575219 -0.07892938 -0.065864034 0.083069272 0.05857088 -0.0085755475 0.028254876 0.13089819 -0.010759339 -0.059613973 0.043338951 -0.033828612 0.030752122 0.058477394 0.094733007 -0.057184003 0.094036572 -0.051585987 0.012972966 0.0042978367 0.10312834 -0.094682321 0.03204909 -0.072914898 0.044657949 0.053770572 -0.11031236 0.0049473792 -0.085296229 0.080986917 -0.095671624 0.081770152 0.04315576 -0.024631828 -0.027051851 0.048977897 -0.087152809 -0.13382414 -0.050903171 0.0054237335 0.013595298 -0.086304501 0.0912361 0.044192657 0.062970944 0.029362429 0.073373765 0.0058590365 -0.06957759 0.11340623 -0.11728455 0.078067258 -0.12054582 0.10010586 0.068843797 0.10424921 0.070463672 0.04883166 0.060602043 -0.063620158 -0.0042772996 0.038964212 -0.1120296 0.056114353 0.042407095 0.055057615 -0.067825682 -0.11647142 0.045950204 0.0068279658 0.092595883 -0.038379613 -0.00078798831 0.059235796 0.078329556 -0.11410158 0.077257141 -0.10090121 -0.10207272 -0.077580363 0.064200908 -0.060275689 0.12426262 0.088005677 0.089287311 0.09432286 -0.074456304 -0.016270995 0.041112185 -0.0087035298 -0.11456389 0.0035433322 -0.11876331 -0.013210088 0.008204083 -0.045963287 -0.034653947 -0.03946314 -0.044534296 -0.0032812832 0.12206906 -0.083601981 0.037443489 -0.0019889579 0.10450779 0.096259654 0.04187502 -0.028042106 0.091128707 0.018205384 -0.048843946 0.055528056 -0.11176558 -0.11703299 0.020915415 0.1005923 0.095077373 -0.064413309 -0.071105763 -0.064682409 -0.020562906 0.035335612 -0.045925442 -0.018107371 -0.069757484 -0.073992029 0.067037538 -0.014819451 -0.036171786 -0.064565048 -0.015745923 0.077417299 -0.11843306 0.072262399 0.095477536 0.1039484 -0.10311896 -0.031153589 0.069845319 0.056547694 -0.03035748 -0.027507273 -0.11672319 -0.016964881 -0.093867145 0.10624333 -0.023164526 0.10232562 -0.085531622 0.055583328 -0.060542494 0.0098564029 -0.066310719 0.081656367 0.058590785 -0.085977569 -0.10868545 -0.090414613 -0.030927196 0.098759487 0.011479571 -0.10159253 0.038567826 0.0091093332 0.030979931 -0.027587935 0.067977518 -0.030756399 0.072225451 -0.076152146 0.034008801 0.019751117 -0.11731845 -0.0037800968 0.034499213 0.0053928792 -0.0119019 0.056736499 -0.017437637 -0.12190802 0.018636882 -0.034889251 -0.066914037 0.082310453 -0.071008608 0.1140554 -0.067948461 0.035477623 -0.093212038 -0.0343692 0.095659271 -0.12120959 -0.0017880499 -0.10680085 -0.032328606 0.027452767 0.034381345 -0.11146669 0.03908141 0.033545658 0.098941296 -0.067474693 0.10180829 0.11028028 0.016698837 0.084334269 -0.10682562 -0.11841497 -0.11374941 0.08067371 -0.096785963 -0.012287781 0.05175291 -0.001255095 -0.12261292 0.030937076 0.11168483 0.049056336 0.026223777 0.10303372 0.026177436 -0.023222223 -0.053767934 -0.0038817078 0.0072267205 -0.061833244 -0.10325421 0.038873117 0.11344717 0.066907905 -0.12342104 0.028599303 0.10284193 -0.0039517134 -0.063815176 -0.0422794 0.13839135 0.14023487 0.12567997 0.095975824 0.057524607 0.057276517 -0.078920752 0.03295894 -0.07897941 -0.02820557 0.13383834 0.079819463 0.042719267 0.036497664 0.060407493 -0.062242232 -0.02151702 0.069695532 0.049298301 -0.056983445 0.053035423 0.0078330189 -0.0017821072 -0.080031 -0.02125421 -0.080764808 -0.11525855 0.059661545 0.058960423 0.096233368 0.12732255 0.035664521 0.064361006 -0.042478573 0.039546326 -0.0075554885 -0.070060335 -0.036457807 0.087692365 0.044786334 0.085995421 0.088607565 0.1152015 0.09419544 0.082207903 -0.079728976 0.11201425 -0.036920816 -0.095444784 0.054033846 0.12292562 -0.025510296 0.11946549 -0.0077130347 -0.01158908 0.083335787 0.09316282 -0.12109104 0.074238539 0.0073249042 0.045383394 0.12407506 -0.035034746 0.094519064 -0.0065960735 -0.072100118 -0.052468881 -0.10426629 0.098562881 0.028459445 -0.12222615 0.090566665 -0.086317241 -0.11562866 -0.10145916 0.12039907 0.046586692 0.10033877 0.097653106 -0.015380174 0.017842531 -0.096264198 -0.04968296 -0.072784021 -0.058391854 -0.12313741 -0.01476045 -0.11690579 -0.057728499 -0.095036879 0.066654906 0.027968213 -0.11098649 -0.013521671 0.013365462 -0.0036971271 0.097131833 0.10834664 0.045722961 -0.070559442 -0.047357962 0.052350432 -0.019136548 -0.067752391 0.079108551 -0.10992071 0.039590418 0.11680758 0.088027224 0.10501571 -0.0195593 -0.039286822 0.10211739 -0.015352726 -0.054822177 -0.11383569 0.04156594 0.010707715 -0.086278811 -0.066814661 0.097939581 -0.0016159139 -0.10566583 0.010201472 0.074647263 -0.01127404 -0.027031392 -0.083337329 0.052422196 -0.044488523 0.050133672 -0.038977232 -0.039623514 0.0041859448 0.0042969813 -0.071567088 0.049716219 -0.1097734 0.020054646 0.017089119 0.018195825 0.012465782 0.021048326 -0.039287791 -0.0059036147 0.07776165 0.006900683 0.006861689 0.033025075 0.06867601 0.021630595 -0.11155918 0.090588771 -0.072726689 -0.11239602 0.01645972 -0.017409071 0.07364291 -0.087728672 -0.1320564 -0.08817932 0.091910519 -0.087552719 0.00838234 -0.006838873 0.11567844 -0.11624765 0.077164456 -0.11162871 0.030775115 -0.08101365 -0.11754149 -0.10199745 0.10906889 -0.074850112 -0.02567625 -0.0856307 -0.11827873 0.10820578 0.10264222 0.071818486 0.029436648 -0.0039271563 0.034261987 -0.062807173 0.097377732 0.085903689 0.12242138 0.013258085 -0.011551633 -0.1132876 -0.031759337 -0.12312272 -0.066149071 0.070128113 -0.0018597841 -0.095080316 -0.1209088 0.033514649 -0.075144589 -0.072802007 -0.021371007 0.059931323 -0.029702932 0.027055025 -0.038182467 -0.067078292 -0.045447364 -0.12297137 -0.057282403 0.042140409 0.014864102 0.11816832 0.12293358 0.10870178 0.06834583 -0.062406898 0.083553761 -0.033323109 -0.0049605221 0.02191861 -0.099082261 -0.066077366 -0.10990722 0.053101763 0.094255611 -0.090963691 -0.090406999 0.081517607 -0.11146796 -0.10691673 -0.084954157 -0.10362427 -0.12454748 0.084615931 0.0815835 0.10521296 -0.10857169 0.051626079 0.045600146 -0.083813205 0.031036377 0.082378745 0.033389568 -0.074873641 0.088866606 -0.11441734 0.099385738 -0.061269313 0.026765378 0.11134632 0.0058654048 0.068553329 0.059565648 0.0072142929 0.12677656 0.1323908 0.031077227 -0.024288552 0.11461955 0.09696649 -0.083497584 0.085260421 -0.071680307 0.10326738 -0.0017000122 0.085679099 0.080555908 0.097460531 0.016163033 0.11693936 0.069845192 0.12701224 0.10125735 0.032141089 -0.095237292 0.12967022 -0.0031557679 -0.001110576 0.13256875 0.097886525 0.031271055 -0.089722268 -0.054077026 0.10881115 -0.032272711 0.065482959 0.035770766 0.012220711 0.10955847 -0.044165269 0.011439341 0.038794316 0.12221868 -0.050218776 0.016918955 -0.071743712 -0.11242822 0.051986247 -0.059764937 -0.10443695 -0.017346829 0.11574334 0.040953174 0.12456396 0.023266241 0.026910581 -0.079086393 0.050108075 -0.013028466 -0.087751955 -0.010541563 -0.11675596 -0.034276742 -0.026382983 -0.058419641 -0.10783461 -0.015379325 -0.10256484 0.025862604 -0.07555268 0.0099138357 0.074464686 0.025286535 -0.013115689 0.12356818 0.077367552 -0.094527394 -0.015431061 0.098297887 -0.028349577 0.10221203 -0.040889822 0.13808531 -0.034838751 0.11506592 -0.015881253 -0.026738659 -0.088811964 0.018815577 -0.056626987 0.046012849 0.093217254 -0.085926294 -0.079198726 0.062019825 0.045413554 0.045517087 -0.11504641 0.0031546801 -0.030663641 -0.0092768874 -0.093690276 0.069312125 0.020282332 0.066128276 -0.039477691 -0.0344363 -0.12207994 0.00061300147 -0.063393205 0.042225882 0.075045645 -0.080199391 -0.059521902 -0.01467827 -0.033266556 0.10909516 0.0090616941 -0.039275721 0.020919438 0.057352364 0.0033675134 0.028543813 -0.11194451 -0.070951425 0.098926663 0.080911152 0.023989737 0.031690277 0.053582236 0.10587479 -0.01542826 0.046527177 0.073695078 0.068418197 0.0050295261 0.11115491 -0.015370712 0.092757046 0.0089682871 0.12038977 -0.10016396 0.0025340414 -0.10443488 0.041955288 0.082574002 0.025934992 -0.048203602 -0.093502797 -0.0096090017 0.12402743 0.0052341223 0.10267596 0.023426032 -0.0077645928 -0.10672902 -0.079243749 0.12572354 0.091483749 0.045170203 0.097164452 0.096865088 0.10043944 0.044172995 0.0091890851 -0.08688356 0.065909237 0.076200701 -0.046771806 -0.07383009 -0.057490155 0.094287917 0.064147629 0.05473581 -0.076299638 -0.096638992 0.036271781 -0.09483169 0.11321193 0.098948255 -0.03186734 0.018001899 -0.042130992 0.13684048 -0.083990157 0.093458459 -0.090141311 0.005926922 0.087172672 0.070976302 -0.025161415 0.095875382 -0.08355432 0.078551382 0.11163919 -0.0099811703 0.085154079 0.012400219 0.09520486 0.014710735 -0.034234241 0.022151977 0.048343912 0.050434303 -0.06910266 -0.050656468 -0.052675787 0.053704839 0.058889806 0.011703813 -0.0023010504 -0.070831478 0.069002695 0.037115872 0.040737092 -0.10326925 -0.0095221568 0.11406069 0.027279854 -0.0013551255 0.1136472 0.055979189 0.011333758 0.027980911 0.082914226 -0.10487069 0.04793635 0.014812578 -0.0007931469 -0.043187305 0.072255217 -0.038990296 -0.048586491 0.0013983867 -0.070518807 -0.057264253 -0.0033616982 0.087793946 -0.094350308 0.0059720427 0.034376144 -0.093854338 -0.075242072 0.064690083 0.047895059 0.05418165 -0.11410016 -0.023292705 0.072887629 0.029579937 0.001626581 -0.086428493 -0.0036868155 0.11302973 0.0651858 -0.11433198 0.079242393 0.010661185 0.054004386 -0.083445564 -0.12049864 -0.082975835 0.1008334 -0.071830541 -0.032937735 -0.08778128 -0.039356202 0.052822575 0.083464369 -0.11494496 0.060062721 0.030733392 -0.079949826 -0.06085822 -0.076847672 0.0065117478 -0.085327283 0.019371167 -0.02804631 0.0024464428 -0.0292366 -0.081211835 -0.084100157 -0.055104718 -0.072090164 0.04897894 0.1091074 0.11304745 -0.094643012 0.067263499 -0.040805891 -0.0076992661 -0.0085120648 0.015354887 -0.033428445 -0.015714943 -0.092550412 -0.0080459416 0.023863226 -0.069798559 -0.018690914 -0.0015459955 -0.070572838 -0.099126682 0.078766748 0.08447206 0.018670991 0.10663844 0.07059139 -0.048047766 -0.028086945 0.13903761 -0.04650344 -0.094430715 0.11448915 -0.013009652 0.080857098 0.037781253 -0.028143169 -0.050993964 0.050234921 0.12246703 -0.05328013 0.040948898 0.015187655 -0.057687528 0.056022525 0.025880275 0.04520525 -0.023760587 0.1034705 0.037231848 0.021618739 0.087512448 0.07615006 0.12612441 0.059204422 -0.088110007 0.038171556 0.12452539 -0.099374376 -0.070528649 0.0063536912 -0.1102308 -0.078095004 0.022052733 0.10028169 -0.041217413 0.027255939 -0.018522281 0.0041388995 -0.067635082 0.10327587 -0.036658168 0.04776381 0.040842272 -0.027949572 0.096320644 0.10290787 0.0021705672 0.068405099 0.031942651 0.087281287 0.084496439 -0.0095998114 0.0066909939 0.098263577 0.0015096217 0.020799249 0.12767023 -0.0164565 -0.0666674 0.068363756 0.10975261 0.030158803 0.027922254 -0.066787958 -0.11029723 -0.07729885 0.058050826 -0.10723346 -0.1149811 -0.096562892 0.034999743 0.086638086 0.1011277 -0.0057994723 0.01552631 -0.035179462 0.074090391 0.13585801 0.1358472 -0.056873437 -0.012722224 0.076601446 0.15248354 -0.058347493 0.058241546 0.13531168 0.052306298 -0.0065814727 0.14263016 0.011665692 0.14340965 -0.089968815 0.11564834 -0.062771574 -0.037923008 0.11836826 0.10523562 0.047695935 0.027217524 0.05270971 0.068464786 0.063135751 0.048724964 -0.034642287 -0.062236786 -0.090541244 0.016056571 -0.091120094 -0.0096825659 0.031835377 -0.089199238 0.13852209 0.14242153 -0.11483774 0.06474559 -0.025705609 0.10618825 0.0039068609 -0.080066979 -0.083726689 0.058686554 -0.074013546 -0.066163927 -0.12272444 -0.092965901 -0.015988022 -0.12342295 0.057074711 -0.083697036 0.10756581 -0.073721424 -0.03015849 0.10528812 -0.032446325 -0.02548492 0.024252534 -0.11305639 0.091902211 0.069412872 0.083028376 -0.12376915 0.11214299 0.051844388 -0.057883054 0.11128487 0.035256922 0.084764615 0.016230166 -0.07094118 0.093678072 -0.072379827 -0.023425415 -0.11844511 -0.11131041 -0.072039083 0.0535945 -0.072999522 0.086907446 -0.11191456 -0.0081064999 -0.12381643 -0.08187072 -0.025390565 -0.016854882 -0.096035719 -0.099242657 0.02841945 -0.029006854 0.076177374 0.11819007 0.014024347 -0.01347892 0.01328069 0.027548552 0.074917063 0.11571456 0.08353433 0.12361805 0.10597362 -0.063771337 0.10799262 0.073953763 -0.11295664 -0.10859486 -0.099517092 0.077058122 -0.097473651 0.018023908 0.015633479 -0.11122689 -0.025977775 -0.060751304 -0.033882588 -0.072735414 0.060016438 -0.096192941 -0.042625174 0.0093535036 -0.051016524 0.07303758 0.10692495 0.085235268 -0.11891948 -0.12234391 0.076170504 -0.083637744 -0.11217055 -0.11624618 0.0070749521 -0.013882473 -0.11567429 0.00048035383 0.0027943552 -0.028631538 -0.01655522 0.05595848 0.033994943 0.035807669 -0.058199629 -0.12155224 -0.062007532 -0.040441304 -0.11353987 -0.06712006 0.052177221 0.0050038695 -0.022848904 -0.034341738 0.05494453 -0.019589156 0.067015082 -0.023445025 0.098998308 0.027269736 -0.12261571 0.00575535 -0.058425128 0.10975359 -0.092117026 -0.097102597 0.036243066 -0.0090789795 -0.11234924 0.094299257 -0.084580451 -0.11392689 0.0099708438 -0.037764221 0.090696745 -0.020893782 -0.10080722 -0.054195315 0.020750567 0.077065885 0.12779267 -0.044646621 -0.091881245 0.055819739 -0.11878882 -0.059847217 0.034692258 0.13407791 -0.053820342 0.14690955 -0.026741818 0.066699699 -0.07783699 -0.088656887 0.1396635 0.14600582 -0.013424127 -0.093312524 0.073322773 0.057045192 0.033912495 0.04050152 0.14481162 0.018061539 -0.05986689 0.0051174983 0.085354656 -0.10033755 -0.068667643 0.0028058016 0.0054323343 0.1159544 -0.0017555803 -0.014270427 0.096719779 0.05002135 -0.038314667 -0.069563575 -0.056853071 0.041420117 0.093942627 -0.087443188 -0.10368933 -0.050549716 0.084893808 0.13061315 0.065549374 -0.038656764 -0.070663489 0.084464848 -0.010852945 -0.056708544 0.096724376 0.024696182 -0.051574096 -0.070771664 -0.095812321 -0.055008277 -0.11246794 -0.091821641 0.030858759 -0.063457221 -0.079151481 -0.0083037615 -0.11766142 -0.034171373 -0.021133065 -0.061577499 0.12439764 0.058777709 0.071314335 -0.13143845 -0.015916333 0.058845777 -0.11209254 -0.11776514 0.01251182 0.011008685 0.029045774 0.073339745 0.074711978 0.060389392 0.11184028 0.047440499 -0.046034634 0.037292838 -0.11960056 0.081335969 0.11068056 -0.02436672 0.035179578 -0.037578098 0.080687933 -0.047582433 -0.055460058 -0.084678203 -0.028753221 0.078229427 0.11341735 -0.10890402 -0.12203826 -0.10721088 -0.050422944 -0.080276936 -0.070400022 -0.0050745928 0.12287068 0.10783882 0.025297148 0.083095931 -0.022874132 0.098218016 -0.03528779 0.093081705 -0.053384703 0.10971418 0.10792896 -0.10448325 -0.031046122 -0.048910424 0.077696249 -0.018048272 0.044528496 -0.020650953 0.025076553 -0.11614095 0.0074719042 0.1113933 0.014327584 -0.0802432 0.12211727 0.030279826 0.10771966 -0.020742897 -0.094969451 0.027700838 -0.051520795 -0.0026981086 -0.039823189 0.039357662 -0.041638792 -0.094122536 -0.11792431 0.064711608 0.034435816 0.041107289 -0.053390414 -0.027288437 0.083163224 -0.077885196 -0.037875514 -0.024420725 -0.11023659 -0.065741226 -0.069122367 -0.023522284 -0.11061729 0.015221912 0.08207006 0.083941966 0.088968024 0.11535427 -0.12929124 0.041098043 0.016271181 -0.031706195 -0.021557923 0.0039496385 -0.11384614 0.085185453 0.080112711 -0.049981311 0.062923945 -0.04508613 0.01553385 -0.069659576 -0.11530221 0.1040214 -0.12605993 -0.074195966 0.077047884 0.11071532 -0.092167154 -0.1149551 0.069963664 0.014877245 0.073392905 0.041000739 0.0062377532 0.0607934 0.0028129369 0.092490062 -0.012787936 -0.010143071 -0.037315667 -0.051548518 0.05940111 -0.00057878584 -0.089710459 -0.035562333 0.039664879 0.025596969 -0.091607928 0.08083576 -0.12381867 0.09205538 -0.10976586 -0.043445084 0.077257335 0.024441764 0.068132684 0.025324896 0.04966709 0.07449612 0.046035841 0.006017962 -0.037789535 0.017608965 -0.036975842 -0.079423256 0.013756686 -0.11180939 -0.029738158 0.10050447 0.12288359 0.08808364 0.045000643 -0.020177275 0.067333385 -0.023953686 -0.081922948 -0.00097853551 0.017761294 -0.082836226 0.059923217 -0.063658506 0.076857693 0.10201516 0.10789923 0.0563264 -0.055604577 0.028784294 0.020340731 0.055762485 0.10432582 0.030652972 -0.024470001 0.091925442 -0.020407781 0.070312247 0.017804548 0.11644432 -0.03551808 0.05441536 0.044268548 -0.091963559 -0.0096575022 -0.035728931 0.034508869 -0.082767412 0.087721303 0.11320701 -0.080499902 -0.024495184 -0.041020572 -0.11176379 0.066150472 0.088285327 -0.037545115 -0.022594959 -0.036654636 -0.076195851 0.1125329 -0.067046523 0.071516857 0.066661447 0.015840143 -0.1038368 -0.062891379 -0.12428482 -0.083104149 -0.11836264 -0.11149099 -0.043550357 0.073425829 0.036020994 -0.079260439 -0.016054884 -0.087247491 0.0048839003 -0.075703338 -0.080660671 0.010078669 -0.019435897 0.10865432 0.019297093 -0.11049134 0.11823542 0.10004775 0.11711812 0.011907175 -0.022142753 0.10192075 0.10324299 -0.051406533 -0.12301497 -0.046739861 -0.11590406 -0.050148249 -0.078556865 -0.019165277 -0.01764892 -0.10589036 -0.095012546 -0.12752526 -0.049323946 0.097109891 0.049529672 0.068988681 0.041968659 0.067203298 -0.072622076 -0.021205723 0.11518338 0.099906161 -0.0099438494 -0.063267589 0.10704167 -0.07157506 0.0017988869 0.022637174 -0.04682146 0.1099077 -0.1218726 0.067602366 -0.0043196846 0.063801147 -0.048957013 0.090923965 0.067366257 0.028159555 0.028366581 0.047027063 0.098958872 0.0082331458 -0.09552779 0.023636434 -0.040923581 0.097775757 -0.1246318 0.10167362 0.065296873 0.089338705 -0.057083979 0.034680337 0.045356646 -0.099012062 0.11105561 0.039214835 -0.08003822 0.089920267 -0.12197686 0.090435877 -0.10279635 -0.084472679 -0.1226247 -0.11278124 -0.12431182 -0.051192209 0.047521248 -0.10906751 0.042931095 -0.0027517974 0.021640047
bias 0.11468733 0.03567265 0.04639218 -0.070455745 0.04981431 0.013108281 -0.099627383 0.084428802 -0.018852562 0.12714785 0.15011726 -0.10651113 -0.051164523 -0.066889532 -0.12969476 0.0049593421 0.062409785 0.03389512 -0.030322239 0.023253869 0.06915132 0.019094128 -0.097311929 0.12562922 0.033859521 -0.091643654 -0.060732096 0.075546399 0.00086885691 0.016667305 -0.065635391 0.14511348 -0.098978773 -0.03711012 -0.0646815 -0.043388426 0.021582332 -0.023946956 -0.096491084 0.054330017 -0.074353859 0.085193805 -0.10291424 0.10736309 -0.03297022 0.014869316 -0.060679615 -0.0062595713 -0.089174673 0.0054076808 0.049601037 -0.076684482 0.097736456 -0.098458722 -0.046949431 0.11912191 0.0072380602 0.080122903 -0.064499594 0.017447978 -0.054225303 -0.045892995 -0.071469545 -0.10281716
layer 1 64
weights 0.13521698 -0.083060689 -0.11010184 0.033299133 -0.0015681826 0.022184718 -0.021859283 -0.017556846 -0.012653768 0.087418079 0.1116185 -0.099509329 0.1010627 0.13942854 -0.091862172 -0.076140694 -0.080888532 -0.077220738 0.010424923 -0.024275824 -0.10211902 -0.013681049 0.073414922 0.058400251 0.037909046 -0.030440731 -0.070703298 0.053679094 -0.12455225 0.12722059 -0.05426693 0.098545507 -0.098603949 -0.013796987 0.019562304 0.075579599 0.0078605236 0.096678637 0.087872952 0.14504749 0.11302375 0.059094679 -0.040959381 0.014498016 -0.077612549 0.13587096 -0.030471802 -0.046186522 -0.0030966252 0.044426493 0.014537375 0.003443284 0.053157639 -0.027449653 0.12896506 0.12851983 -0.00473167 0.0030818731 0.061395463 0.011642797 -0.030201497 -0.094976269 0.095830113 -0.11488882
bias -0.060198113
norm 8
mean 0.88971078 0.22705469 0.56085253 1 0.73664671 0.89206493 0.022523373 1
std 0.076022483 0.28870705 0.16884097 1e-06 0.17322361 0.072791308 0.027854549 1e-06
