layers 3
layer 64 7
weights -0.30855733 -0.015586795 0.2347547 -0.36654454 -0.36639649 0.078289472 -0.2027435 0.31312278 0.40621802 -0.19103315 -0.28163332 -0.017785808 0.35038489 0.022095663 0.0014198356 -0.19881752 -0.21054056 -0.146005 0.22973563 -0.305498 0.32898104 -0.030177444 -0.066824026 0.24817124 0.3703208 -0.12527631 -0.059787236 0.18673861 -0.044162653 -0.20839886 -0.35375255 -0.20024996 0.074544936 0.24057969 0.35660061 -0.19809885 -0.093612008 -0.17555101 0.15188812 -0.28327543 0.3286185 -0.36049473 0.25399834 -0.035403211 0.24033666 0.27988154 0.38064983 -0.072059855 -0.21777378 0.29967314 0.15820576 0.093673997 -0.17051378 0.35251009 0.17762458 0.049785249 -0.20317349 0.10853188 -0.28440157 0.087708302 -0.31194091 -0.083989128 -0.087939754 -0.096601672 -0.33822796 -0.35576102 -0.097421482 0.061799966 0.26468742 0.35093492 0.095988579 -0.33506238 -0.37563488 -0.15183473 -0.20670977 0.038363677 -0.1273251 -0.25955155 -0.31815922 0.073220633 0.29149055 -0.21843915 -0.37244934 0.32409203 -0.24651872 0.21401581 0.087841816 0.28681546 -0.15323734 0.18465075 0.20410655 0.21189307 -0.28864741 0.10683118 0.19548739 -0.30474818 0.1817987 0.10275894 -0.098556347 -0.026031384 0.091107063 -0.32908988 -0.12296868 -0.28914228 -0.14576355 -0.20371473 -0.14631134 0.3046267 0.29120284 0.27105525 0.28452656 -0.24491446 -0.33033773 0.0054501947 -0.29463044 0.33691052 0.26481771 0.087080203 0.10521658 -0.16992927 0.015037328 0.035250559 0.10175125 0.092820533 0.36366045 -0.15364221 0.2377301 0.082946315 -0.27352419 0.21853884 0.32371905 0.4063189 0.11704513 -0.060146026 -0.14232931 0.28913 -0.25228193 -0.21919756 0.34991264 -0.0016139169 0.21735023 0.069184363 -0.10049332 0.061553415 0.23820293 0.00036792073 -0.037723456 -0.10577471 -0.37305281 0.094456241 -0.11901607 -0.3054592 0.308222 0.18076561 0.049691077 -0.16648853 -0.023680383 0.26161939 -0.063163869 0.22259034 0.025750071 0.34884393 -0.33500606 0.13229986 -0.3537485 0.36819932 0.17380528 0.31032938 0.083464429 0.36574784 0.36114225 -0.052231222 0.29805693 0.08499974 -0.30489579 0.20312487 0.11358394 0.2302231 0.11055513 0.043102983 -0.1945471 0.16451088 -0.063733317 0.16449815 0.39934459 0.37263238 0.10639222 0.00093249691 -0.029401761 0.32736123 0.21211737 0.013752986 0.38002533 0.069907606 0.37643412 -0.22802216 -0.060424812 0.35559592 0.34877223 0.079099886 -0.11470789 -0.17468441 0.029802836 0.047159087 -0.33145213 0.14999211 0.20684314 0.30506063 -0.031494185 -0.37886611 -0.076808363 0.0078362469 -0.10581954 0.3050938 -0.15524739 -0.024168598 -0.28640366 0.020046221 -0.14141147 -0.2313523 0.2847988 0.16101713 -0.29535037 -0.34926677 0.23523942 0.08611621 0.038036011 0.17018443 0.031923898 0.22871959 0.12013023 0.27853218 -0.24431007 -0.29917303 -0.17325327 0.29596725 0.066455975 0.40011874 0.30976975 0.11242006 0.14021556 0.25518256 0.068276316 0.26745412 0.15134431 -0.31584582 0.21216381 0.29319403 -0.058221843 0.19403718 -0.10928677 0.19360617 -0.3479155 0.085362099 -0.069280624 0.20399812 0.33931836 -0.048452675 0.050006598 0.0045049214 -0.056671549 -0.14381447 0.033448558 -0.29380277 -0.28667906 -0.1521965 -0.18141989 0.23900795 -0.040403884 0.37618196 0.23963 0.10912417 -0.031847853 0.17748089 -0.013972891 0.139753 -0.14490411 -0.064038627 -0.25944719 -0.071536154 -0.23069508 -0.30000418 -0.23251267 0.0060854717 0.002110464 -0.10734373 0.15345751 0.0028219202 -0.26146665 0.078461759 -0.16503219 -0.0057543935 0.1118989 0.10151018 0.40787169 0.055910382 0.41779134 -0.1801593 0.32535255 -0.083195053 0.21186307 -0.33624995 0.025510797 0.12378606 0.26321784 -0.31595895 -0.37010142 -0.2462192 0.16059591 0.039351221 -0.32539204 -0.019760145 0.18153782 -0.32076108 -0.26241401 0.30841124 -0.13849334 -0.22271028 -0.037770007 -0.33327779 -0.24942045 -0.28173795 -0.036751494 0.093440339 -0.03363505 0.22047837 -0.264157 0.29691651 0.40838537 -0.23009491 -0.057702191 0.1752688 0.25815144 0.37471208 -0.0077212309 -0.12510207 0.24622604 0.34528711 0.36483693 -0.092839047 -0.0067722355 -0.15161031 -0.15435398 -0.050818812 0.01658983 0.37559253 0.015425643 0.27320004 0.29808491 0.059231158 -0.12479661 -0.22828783 0.073570915 -0.15390098 -0.2626819 -0.072203644 0.38787422 -0.035412587 -0.13052219 -0.35311761 0.21672006 -0.02013763 -0.30572671 -0.31809631 0.041605495 0.060185127 0.3673645 -0.18005444 0.12289913 -0.29153225 -0.045868564 -0.3047418 0.26005143 0.21138912 0.33588412 0.3076717 0.27158409 0.14045772 -0.052457333 0.12386126 -0.083855622 -0.1817088 -0.092511185 0.051700421 0.32809064 -0.16671897 0.15620215 -0.036801402 0.2308705 0.26853803 -0.00085309555 0.19522302 -0.05205502 0.012866847 0.029594572 -0.18783544 0.17269129 -0.37132809 0.020158671 0.26873577 -0.21373937 0.15058994 -0.19143307 -0.047462776 -0.053963743 0.052897688 -0.17272855 0.19759756 0.33473423 -0.25394392 0.25650293 0.1789403 -0.30116227 -0.020767976 -0.21484835 0.21165764 -0.34521213 -0.27433085 -0.19701664 -0.25069019 0.21698388 -0.077225983 0.39901337 0.31480828 -0.21508168 -0.2573666 0.19806118 -0.13713187 -0.21797197 -0.046753764 -0.29957289 0.071808092 -0.34603423 0.36488634 0.34129104 0.36987966 -0.12274358 -0.29908571 0.042951174 0.12837806 0.40519622 -0.17892361 -0.032583397 -0.1746605 -0.36836448 0.27454162 0.24629481 0.11050606
bias 0.2438301 0.27164182 0.13580041 -0.30395535 -0.30019769 0.21486399 -0.31663865 -0.006463049 -0.034178481 -0.31217727 0.046584439 0.35689887 0.32996225 0.033507932 0.26246604 -0.22037138 -0.1093989 -0.022019738 -0.12516041 0.33795467 -0.14931953 -0.21810655 0.23134458 0.18967852 0.039863765 -0.28394833 0.036347285 0.24619359 -0.11201616 -0.095883176 -0.37772828 0.22016628 -0.0750506 0.32579228 0.32821888 0.26273113 -0.37107623 0.18376325 -0.17846026 0.022206133 -0.039241657 -0.087785184 0.15784809 0.17219242 0.0086742649 -0.046395831 0.21635947 0.13056365 0.2315601 0.042311963 0.22634989 0.13126428 0.16925541 -0.25395098 -0.24797317 -0.20893076 -0.17884056 0.13208483 0.34559703 -0.093915202 0.21485919 0.099142067 -0.022641322 -0.030204168
layer 64 64
weights -0.020818993 0.030758254 -0.075759642 0.0093375538 0.0066789649 0.063066676 -0.10226995 0.084840871 0.077850282 0.070328236 -0.015195146 -0.12827344 -0.028434213 0.078610815 0.064190261 0.023634586 -0.13828157 -0.12290443 -0.057744309 -0.065073766 0.030606277 -0.0060721934 -0.027207859 -0.04142854 -0.063504063 -0.12032516 -0.060113367 -0.010806456 -0.12034591 -0.038237549 -0.053812489 0.00026895406 0.093056925 -0.11934628 -0.022428872 -0.064701959 -0.069015339 -0.080598816 -0.036662549 0.12866002 0.011173233 0.013586679 -0.0062359804 0.12003216 0.044831224 0.098769963 -0.053245008 0.014875967 0.055971503 0.057705797 -0.10916527 0.077991754 -0.12280895 0.062640257 -0.024730474 -0.028041376 0.00072577596 -0.034974631 -0.090865403 -0.045311943 -0.049421698 0.11041717 0.070955671 -0.11645019 0.10053128 0.036740735 0.095892474 0.080269977 -0.034932405 -0.03383974 0.026204616 0.086832002 -0.063898683 -0.079713374 -0.050303623 0.087785915 0.060339984 -0.062223002 -0.01332 -0.008030423 0.012508188 0.089019567 0.085568428 -0.12602279 0.090882912 -0.026765928 0.02182186 -0.04734591 0.020633565 0.089492932 -0.14776489 -0.0099258348 0.057510711 0.049009759 0.10876091 -0.11961097 -0.094858959 -0.10551284 0.055070043 -0.09319599 -0.089899451 0.0071604103 0.073656879 0.013806969 0.092792869 0.057995725 0.035638262 -0.087150902 -0.037003603 0.0087740421 -0.093928762 0.09308473 -0.061560392 0.036046159 0.053967077 0.080806613 0.047258373 -0.0082033882 -0.0053227693 -0.039736751 0.11232793 0.063344419 -0.15223184 -0.046971351 -0.025437474 0.051997051 0.08590278 0.089610405 0.10982113 0.13930032 -0.063864008 -0.064282008 0.086982228 -0.098355524 0.043209303 -0.04157884 -0.06979683 0.018017128 0.017476127 0.088729449 -0.055674855 -0.021131039 0.071021117 0.060487811 0.0024671122 -0.044423338 0.094227739 0.087864406 0.081456304 -0.015903741 0.14953101 0.13358065 -0.043605272 0.076873295 0.13230418 -0.01157146 -0.097167514 -0.071741737 0.10336873 0.032587785 -0.037385531 0.10607355 0.0060849451 -0.067502968 -0.054165915 0.047880143 0.028276509 -0.053771384 -0.0055489391 -0.056109514 -0.0083775418 -0.093878016 -0.0031928313 -0.029907048 0.099080376 0.10756257 0.13051665 0.1325167 0.048203424 0.056581765 0.029479934 0.10486047 -0.076134637 0.045604069 -0.089654893 0.040488981 0.028291827 -0.074073046 -0.065220818 0.0054848641 0.064545333 0.021306535 -0.062411472 -0.094928853 0.025728233 0.043023277 -0.11031186 -0.070745163 0.060123198 0.0026929223 -0.082619444 0.098929733 -0.072365299 0.082983337 -0.10867351 -0.072657928 0.001791944 -0.10747862 -0.066803515 0.0095821694 -0.053557519 -0.0066322195 0.065520816 -0.11396341 0.019432228 -2.690668e-05 -0.14984857 -0.039903492 0.020935016 0.030514985 0.050078649 -0.011603541 0.10635976 -0.076109134 0.016329309 0.035002895 0.084121376 -0.079240806 0.024401471 -0.022602439 -0.10442579 0.034967009 -0.075856268 0.042767692 0.033299182 0.01167655 0.10601802 -0.095059901 -0.016419422 -0.13097411 -0.10917361 0.040885083 -0.054229956 -0.038798168 -0.094103359 -0.054309681 -0.013739288 0.057224877 -0.078734025 0.098087713 -0.091917314 -0.10433075 -0.016387198 -0.019669026 0.021882679 -0.027019382 -0.017418444 -0.11193888 0.036834165 0.019742414 -0.00056956708 -0.097843274 -0.0023009479 -0.10330935 0.10771555 0.039870828 -0.054265767 0.0041234195 -0.030843243 0.1159168 0.089664564 0.032888249 -0.042462572 -0.01136075 0.072531953 0.079829723 0.075802252 0.054060355 -0.082352385 0.10158624 -0.017466322 0.023539633 0.082604453 -0.079034939 -0.050811633 0.09647502 0.075500458 0.10514553 -0.092909336 -0.062681258 0.061857507 -0.015323848 -0.063948631 0.060844809 -0.071171522 -0.089047179 -0.12180351 -0.042408928 -0.058583513 0.055708617 0.036078185 -0.08479248 0.050871298 0.072284639 -0.12482616 -0.10406774 -0.096639901 0.071879804 0.055925772 -0.065559804 -0.061273351 -0.06122157 0.045573801 0.12170409 0.026301175 -0.022796437 -0.09184733 -0.10491119 0.017873734 -0.0091380626 -0.12272996 -0.030233905 -0.055935495 -0.053563572 0.076541588 0.076168433 0.1528402 0.0050656004 -0.051055804 -0.11122794 -0.10137881 -0.018206542 0.024075331 0.0068609379 -0.11239422 -0.0088185668 -0.023948653 0.11092707 0.16157588 -0.021698704 0.094410762 0.040777847 0.0066843131 -0.059290882 0.12220222 0.053724669 -0.062789559 0.013887127 -0.0079211984 -0.022021392 -0.031433523 -0.05488782 0.054484759 0.12406601 0.032748386 -0.040645119 -0.00090518594 0.040063679 0.010707814 0.035845734 0.095360905 -0.055976532 0.15742028 0.093845844 -0.098556653 -0.088409528 0.052595027 0.10028922 0.0686092 0.0018994543 0.048048165 -0.058621556 -0.012734116 0.10617157 -0.10343502 -0.0055777687 0.055745319 0.090847187 0.15314414 -0.10557497 0.093229063 -0.037246272 0.15077238 0.16128969 -0.004145667 0.098216698 0.12062266 0.12265509 0.023568515 -0.077118769 0.045662232 0.096067734 -0.056024477 -0.099438235 -0.031842038 -0.066218019 -0.058065657 0.094803959 -0.028904496 0.063064232 0.077459134 0.038153701 -0.0053592212 -0.058127277 0.021528265 0.11016858 0.029263971 0.011447815 5.7071506e-05 0.098673679 -0.0080256872 0.14333132 -0.076613352 0.090620987 0.044082284 -0.029877737 0.050668836 0.028111205 0.06918709 0.09528099 0.11653011 -0.051368296 0.1483732 -0.1280933 0.045750022 -0.019862382 0.089835115 0.099571243 0.016017217 -0.056424826 0.086342767 -0.02346644 0.10938239 0.092198044 0.10339511 0.06308037 -0.01881209 0.13962485 -0.040824011 -0.0096325185 0.054405585 -0.031546932 0.054767765 -0.0056873262 0.08881297 0.094564408 0.11402939 0.15551895 -0.064163119 0.15685771 0.028244473 0.091230229 -0.080974057 0.0018527909 0.051524311 -0.039907459 0.025426105 -0.071113333 0.073790073 -0.039663017 0.0047951769 0.13601668 0.085368194 0.10837724 0.086006202 0.12003116 -0.028309077 0.16060117 0.090968862 -0.050115123 -0.018415095 0.1502104 0.1133915 0.022350779 0.10736638 0.016000116 0.11228355 0.038034223 0.12159571 0.0032139446 0.11546661 -0.03325139 0.11635368 0.16607943 -0.04470697 -0.046810865 0.13832499 -0.10730471 -0.0055340976 0.05681961 -0.021499207 -0.10239649 -0.10531934 0.034054309 0.13222013 0.15620454 0.064773068 0.045088053 0.084172145 -0.038824201 0.14766498 0.053694241 0.016072974 0.020203486 -0.018157497 0.14702001 0.0077130217 0.11575039 0.044999532 0.058019981 0.032671247 -0.030192941 -0.045437932 -0.0001354249 0.090421684 -0.05334096 0.05903808 -0.0015329898 0.037462402 -0.042343345 -0.036772847 0.0016390085 0.10222416 0.050641146 -0.036544308 0.051271901 -0.10284035 0.083306395 -0.014949035 -0.080738291 -0.013473403 -0.032677773 0.021127092 0.020948932 0.036916371 -0.047732066 -0.075894915 0.081666604 0.14514971 0.039724413 -0.062383506 0.022525541 -0.045117676 0.12013754 0.15739422 0.1009347 0.10531784 0.067252986 -0.0051093698 -0.0047506243 0.15398094 0.11208642 -0.10606804 -0.082401 0.092161871 0.049986005 0.10562385 0.1047077 0.13506681 -0.0043464564 0.091392696 -0.036782827 -0.063099742 -0.023567915 0.064180158 0.12228339 -0.069435835 -0.042333197 -0.11390558 0.038489208 0.080685869 -0.078057423 -0.035413258 0.025396436 0.14950189 0.020645637 -0.0041563362 0.024477642 -0.14000201 0.032762799 -0.11436576 0.067135587 -0.12397619 0.056926753 -0.04403545 -0.016317546 -0.0093606114 0.09271466 -0.11717324 -0.0055648843 0.0070258984 0.005953934 0.10582808 0.021735407 -0.12557411 0.041650675 -0.046620797 -0.1182995 0.074482717 0.055326961 -0.1453813 -0.088889197 0.089820176 -0.077448927 0.079472132 0.10118415 0.12061083 0.081920937 0.097510748 0.024237994 0.034621242 -0.021967208 -0.0013144016 -0.086681291 -0.088153362 0.10623918 -0.047213107 0.033829048 0.07615035 0.042268872 -0.047676221 0.12065275 -0.13797161 -0.057432286 0.070647061 0.032790884 -0.077863209 -0.1201248 0.062209215 0.0029641371 0.11918412 -0.081980854 -0.022683993 -0.12255757 -0.14555681 0.1039073 -0.037849233 0.056804702 -0.12972388 0.0051691127 -0.002277106 0.1293205 -0.029246742 -0.013045649 -0.04391868 0.014303101 -0.067309 -0.051429156 0.062484697 0.09119755 -0.035892993 0.087311812 0.024839723 0.12065769 -0.082661062 0.036446568 0.099949867 -0.026514163 -0.055605605 0.025850492 0.14275372 -0.056130677 -0.073015735 0.083610296 -0.061979525 0.0037990671 -0.08446826 0.11357152 -0.038111132 -0.087156005 0.084477901 0.058291163 0.01605856 0.0038590536 -0.041329131 0.00085629662 0.073690102 -0.1086451 -0.071018614 0.03612107 0.076759905 0.090762779 0.16314667 -0.027461439 0.026496887 0.020985559 0.013924797 0.048322245 0.1478076 -0.066798925 -0.00067118742 0.0037888736 0.09595301 -0.085280105 -0.08358568 0.0086084288 -0.042144015 -0.049540568 0.095781699 -0.046442926 0.1537099 -0.060291871 0.11054932 0.11586943 0.11573604 0.0022354613 -0.038048215 0.077591561 0.030336572 0.00018981738 0.00037487777 0.13875824 0.0025025606 0.10071152 0.046195611 -0.0721066 0.084469706 0.10810676 0.070374765 0.042430889 0.019076824 -0.06518954 0.049970862 0.032071818 0.039711993 0.054188639 0.013077147 0.0063077998 0.032256689 -0.066331826 0.061061963 0.15604514 -0.029560233 0.12863132 0.030368656 -0.0088285115 0.098188892 0.041080281 -0.024798118 0.10251703 -0.081546128 -0.076127455 0.055560339 0.089180954 0.047800124 -0.060387459 0.076786637 -0.04920812 -0.10517073 0.11592862 -0.033674534 0.094544187 -0.060795266 -0.022481207 0.14578533 0.019193739 0.022330521 0.11604459 0.015383705 0.0096153924 0.10179812 -0.048684113 -0.060808539 -0.10022958 0.10428303 -0.047960863 -0.072919585 -0.091501355 0.084842756 -0.020668883 0.065193236 -0.10427428 0.05881333 0.07641989 0.065829247 -0.13694063 0.073606759 0.12470961 0.08117418 -0.073974364 0.095302567 0.044737298 0.033364642 -0.012413801 -0.083872892 -0.095253758 0.053101819 -0.012533842 -0.14401339 0.069007516 0.098121718 0.061115842 -0.062670432 -0.058635309 0.072864167 -0.088725336 0.019027947 0.011063499 -0.082821459 -0.14176558 0.097204693 0.02861584 -0.01023221 0.049452636 0.029017076 -0.0029065162 -0.14005135 0.11381908 0.05252102 0.080309831 -0.0044339951 0.070545286 0.10839597 0.046147615 0.029371496 -0.12267901 0.078052081 0.067090005 0.044401515 -0.08506836 -0.027654348 0.086693093 -0.10310271 -0.042745396 0.0069504976 -0.011684415 -0.073653527 -0.0045810938 -0.13875802 0.080467924 -0.10131831 -0.10114641 0.027256623 0.017848741 0.14574771 0.036500916 -0.041804738 0.13684458 -0.033492625 0.13468672 0.1110882 0.10475796 -0.063072085 -0.074981764 0.030110063 0.047772184 0.022995511 -0.073202588 0.059989724 0.091897726 -0.078759372 0.05206712 0.12827425 0.087452635 -0.023101639 0.11110754 0.057046518 -0.051086947 0.10185999 0.020688513 -0.071349651 -0.020175852 0.014674827 -0.055664111 -0.064364448 0.13869195 -0.054512538 -0.0054249242 -0.040092573 -0.10070913 -0.061211258 -0.072665118 -0.11853634 0.010439955 0.1628948 -0.029841751 -0.028129125 -0.099805668 0.1217249 -0.066364653 0.052771032 -0.03720317 -0.087831244 0.049604431 0.089417621 -0.078343943 -0.10627732 0.021504506 -0.12080024 0.061778627 0.097633816 -0.1128813 -0.086203232 0.065919429 0.051037453 0.14604466 -0.092620343 0.10990477 -0.045099303 -0.042656451 -0.11765905 -0.031382091 0.14532574 -0.024266891 0.10048857 -0.10312119 0.0379311 0.083693698 0.0083212387 -0.082364067 -0.021958325 -0.088279031 0.016999304 -0.058717169 0.13260113 -0.04430614 -0.012354737 0.1013469 -0.04240343 0.056086935 0.061142027 0.011218356 -0.029600598 0.12943348 0.11930053 -0.071135402 0.066439718 0.062718049 0.10730484 0.10870361 0.099350028 0.043019135 0.02054359 -0.0037360042 -0.022088891 0.066654228 -0.086352989 0.070987426 -0.02981445 -0.050013229 0.10945936 -0.095991865 0.1453138 0.086233191 -0.011188821 0.14931378 -0.0404297 0.087233663 -0.056381095 0.036587711 0.020285785 -0.04392346 0.03693901 0.10941976 0.070947595 0.07962127 0.070577875 0.083597824 0.12273685 0.15374416 0.052211374 0.037106466 0.042311292 0.0082144933 -0.061759911 0.026414581 0.0047302297 -0.11668543 0.056153536 -0.046386883 -0.034706309 -0.10005698 -0.060534898 0.09612637 0.10468385 0.03179168 0.037329279 0.080706842 -0.13959959 -0.11139145 -0.042313531 -0.0027434677 0.011683355 0.10002793 0.096754208 0.060964588 -0.089297824 -0.073788442 0.030437227 0.031581894 0.032067418 0.0054552229 0.034030966 0.08782018 -0.039681476 0.028079635 -0.013901189 0.068472102 0.023310209 0.096906051 -0.11874452 -0.077589333 0.032568727 0.12127779 -0.11831237 -0.037101433 -0.05179416 -0.00020110435 -0.12358947 -0.044352889 0.091645762 0.123817 0.076083899 0.081602834 -0.11108938 -0.10100983 -0.1246305 -0.10355176 -0.11703748 0.057107747 0.1031035 0.051601678 0.01255341 0.049402006 -0.062647372 0.14614409 -0.073810533 0.14893629 0.080086701 -0.0085205603 0.1303656 0.10395934 0.029571339 0.039975718 0.099149153 0.042233754 -0.028748501 0.07264258 -0.067400202 -0.078450583 0.092465691 0.077296913 0.11658173 0.027970534 0.099739499 0.041317523 0.15817034 0.12259458 -0.012635572 0.064670421 0.051596377 -0.0016531134 0.14938483 -0.016921723 0.025185108 -0.062961489 0.1235661 0.09139768 0.15380497 0.089426123 -0.073602274 0.040378392 0.10687894 0.017061017 0.10019629 0.14953031 0.15723523 0.012936071 -0.040303402 0.057596594 -0.03608527 0.029901573 -0.020046519 -0.047253188 0.10765031 0.10520385 -0.015928622 0.12731944 -0.054359719 0.10757145 0.12244904 -0.00056976971 0.0067053507 -0.044367895 -0.060169321 -0.014816195 -0.022106377 -0.026194239 0.049324661 -0.081774235 -0.0034417531 0.060158178 0.10987816 -0.063531235 -0.12199934 -0.092960976 0.00045014918 0.11825836 0.031832933 -0.07308919 0.028143581 -0.13157313 -0.048074462 -0.08394938 0.0090569714 0.040272795 -0.036225975 0.089656726 0.018542774 0.022448942 -0.09073998 0.082818143 0.046994548 0.050298005 -0.062011603 -0.053157132 0.049704961 -0.073974334 0.044404194 -0.032248028 0.046661656 0.054225836 -0.016380053 0.072551444 0.11400774 0.046604335 -0.12198788 -0.084312543 0.092240781 -0.060670827 -0.10704516 -0.11334136 0.13048014 0.073125646 0.034978084 -0.059173767 0.053471394 0.09041094 0.038300045 0.048721313 0.034318466 -0.10472856 -0.039220944 -0.069468826 0.032034025 0.070178293 0.012076171 -0.01789397 -0.1347985 0.076600254 -0.0020976751 -0.054387052 0.034490168 -0.096145645 -0.0074559301 0.11487631 0.12220319 0.068981275 -0.088276863 -0.09082298 0.032041937 0.058778301 -0.079921648 0.0751542 -0.0791976 0.04780063 -0.043830171 -0.12129329 0.11087362 -0.071943685 0.032174453 0.0092906505 -0.024431959 -0.030296922 -0.011134237 -0.014688581 0.029673308 0.021944851 0.11183256 -0.12362617 0.025712609 0.017039672 -0.029750824 -0.029769182 0.035689458 0.044169962 0.082300276 -0.056069866 -0.060853601 -0.061334848 0.030114502 -0.031915173 -0.032860294 -0.0047219396 -0.047020093 -0.039093927 0.05750069 -0.0049478859 0.10447064 -0.085446492 0.071035102 -0.10552534 -0.11466296 0.1013256 -0.060687929 0.013422251 -0.028872102 0.020138964 -0.081720427 0.036434308 -0.082461879 0.0078489631 -0.11905608 0.034360096 0.052973807 -0.057225481 0.10791166 -0.08045496 -0.089609355 -0.12410663 0.0587174 -0.052389041 -0.02271588 -0.063800067 -0.098991171 0.1174719 0.05661878 0.050798234 -0.070119277 -0.12319827 -0.0092687067 -0.025955709 0.063108951 0.034861237 0.0068916655 0.054501064 0.060452875 0.042156771 0.074354336 0.084231295 -0.076331034 0.08684288 -0.11238769 0.070032507 0.05172202 -0.0084232362 -0.089491099 0.03093374 0.081634685 -0.051652677 -0.043772109 -0.13447638 0.11080746 -0.041335136 -0.082104959 -0.036238745 0.016761184 -0.01388449 0.059660055 0.098371536 -0.036312014 -0.038957208 -0.12863724 0.03500941 0.086149707 -0.13668767 -0.065465935 -0.099715769 -0.094512537 -0.13912028 0.09825854 -0.091873206 -0.096279487 0.10108006 0.040544387 -0.012829468 -0.09097784 0.026766464 0.050419137 0.075682916 0.041572794 0.071011513 0.015344143 0.098661855 0.095557198 0.068166047 0.0098564327 -0.048376769 0.081745774 -0.1113466 -0.010047078 -0.11767903 -0.0089449584 -0.077435389 -0.014153495 -0.088954255 0.04028514 0.10627188 0.034555361 -0.089500248 -0.041084662 0.068388492 0.10356313 -0.112051 -0.046667367 -0.017905444 -0.12136421 -0.062408537 -0.11432485 7.3462725e-05 -0.080752075 -0.10805912 0.10479426 -0.012062028 0.0070123076 0.050558344 0.072897673 -0.014323145 0.0075954497 0.028141215 0.083551347 -0.10751313 -0.09438704 -0.053808406 0.07599771 0.066873282 0.043549463 -0.11285999 -0.10357246 0.091198698 0.086345538 -0.053227454 0.0080796778 -0.071331024 0.059463561 -0.019558311 -0.05254069 -0.015382618 0.073835999 -0.03491208 0.050473109 -0.064791054 -0.043636367 -0.074427202 -0.1144814 0.11613356 0.073378757 -0.047196157 -0.024885498 -0.064393997 0.052929237 0.12056851 -0.019365087 -0.020072162 -0.10511507 -0.095274404 0.036681797 -0.0067721782 0.07938984 0.07399781 0.076462395 0.13308004 -0.052084222 -0.063737877 0.14084175 -0.049084842 -0.035201676 0.0050777737 0.021038944 0.057234619 0.063507274 0.091287456 0.14308341 0.054144967 -0.10842764 -0.029247612 0.11659507 0.043406609 -0.019585952 -0.077830829 0.043790922 0.030516252 0.031804223 -0.040647022 0.096741796 0.049168438 0.083270356 -0.08762069 0.10752601 0.048084304 0.11190825 0.026250336 0.1431821 -0.010862159 0.0012045889 -0.039693937 -0.044946142 0.093761578 -0.082281142 0.057489518 0.078270361 0.0092717279 -0.030177226 -0.010292128 0.10573745 -0.054637581 -0.076496981 0.083675452 0.087728962 0.096709341 -0.071353391 0.066807494 -0.062491611 -0.072946474 0.11325289 -0.12442125 0.053083763 -0.10928422 0.11709668 -0.029415146 0.010253295 -0.058808967 -0.10365197 0.031554669 0.082220629 0.034883782 -0.012628078 -0.10531339 0.02756761 0.080602467 0.073042288 0.12111315 -0.11507469 0.10629082 -0.0079839677 -0.1032463 0.08897166 0.085821405 0.0048683882 0.07148993 -0.11113042 -0.09335053 0.074566886 0.078072831 0.062390894 0.076583058 -0.008005932 0.085453093 -0.043314412 0.039843768 0.058428496 0.080464885 -0.053909212 -0.0012708753 0.020177886 -0.056673706 0.033289924 -0.11134833 -0.06373243 -0.044883236 -0.022826687 0.11988179 0.10560532 -0.031986848 0.0197016 0.0048003793 0.040512055 0.092562675 -0.081347466 0.0031600744 -0.10105437 0.013564795 0.10325359 0.12730409 0.039431855 -0.039030112 -0.097444281 0.032645915 -0.025871707 -0.02012047 0.082808003 -0.077355802 -0.061810657 -0.012389044 0.014427772 -0.066797651 -0.027003977 -0.059939757 -0.0012084449 0.045700818 0.095571741 0.11630034 0.13614489 -0.10765477 -0.077430017 0.072604887 0.076451965 0.12025452 0.12567715 0.1496737 -0.019384841 0.055758055 -0.12298514 0.15588169 -0.059444144 0.020266086 0.052791674 0.028782833 -0.021720484 -0.055196449 0.10579201 0.062496986 0.11327976 0.00986988 -0.029363833 0.040390581 0.027502533 0.087839454 -0.01179295 0.064271301 0.15644178 -0.047300816 -0.021638906 -0.018708006 -0.073277466 -0.076212473 -0.0086768866 0.14274289 -0.072795168 0.035387468 0.0065732924 0.055623308 0.15319318 -0.088453799 -0.055854287 0.08613617 0.021340489 -0.095910579 -0.089074925 0.027030388 0.091531277 0.10262778 -0.12593721 -0.050467949 0.080326304 0.0024208575 -0.0022144616 0.043575279 -0.1236375 0.040884227 0.040046737 0.042164836 -0.084737755 0.076351762 -0.03121274 0.10657148 -0.10154945 -0.056289688 -0.059325468 -0.083484568 0.088351816 -0.027684283 -0.13202032 -0.027941367 0.09697327 -0.030594455 -0.092272431 -0.037489168 0.0011941493 0.092737824 0.036964901 0.097377613 -0.042150572 -0.044533655 0.075959936 -0.056350727 -0.0011782646 -0.10722204 -0.10717137 -0.07645005 -0.010975554 -0.021259204 -0.10626342 0.050594952 0.076173723 0.076850601 0.065262683 -0.088635191 -0.053281713 0.0054723928 -0.11979012 -0.01726513 0.085625678 0.0090071373 0.077013791 -0.077821329 0.068376631 -0.069911093 0.0729381 -0.13554689 0.060932755 0.023616746 -0.096587718 0.021808004 -0.033051908 0.010093188 -0.023345884 0.061909955 -0.11088647 -0.015558004 0.06962958 0.020705454 0.067938983 -0.056305267 0.10982458 0.10162429 0.0014204762 -0.0058929184 -0.029330453 -0.081335329 0.0059568379 -0.10086986 0.059540354 -0.064942963 0.075251058 -0.092138052 -0.062154081 -0.089474343 0.046541419 0.10528889 0.0082425177 -0.041075148 0.05616555 0.061067879 -0.057069223 0.040206488 0.11955032 0.020182624 -0.040967301 -0.061448764 -0.11344442 0.0088065797 -0.12555867 -0.044611976 0.036406964 -0.063170671 0.0096774707 -0.11548141 0.057663094 0.052768815 -0.03766045 0.047043532 0.08888226 0.086976446 0.11511932 -0.033220224 -0.017659724 -0.040974502 -0.12125424 0.069407418 -0.020435348 -0.042308345 -0.064551011 -0.079368934 -0.070650473 -0.10196768 -0.11616498 -0.025312126 0.048621923 -0.0082727969 0.061848164 -0.0487082 0.028798342 -0.015087828 -0.075995535 0.070034117 -0.046154529 0.032851249 -0.008005023 -0.068411812 0.050049633 -0.070976928 0.086270228 -0.041765824 -0.082204893 -0.11846195 -0.027564406 -0.0061253011 -0.0046209991 0.04060781 0.11267534 0.054876462 0.098323911 -0.12133645 0.1112918 0.0093942285 -0.014733493 0.053602278 -0.038273215 -0.040322781 0.079083607 -0.053103149 0.1229817 -0.066951782 -0.034714475 0.12155178 0.11982207 0.059182152 0.097153008 0.088028058 -0.051082462 0.068570599 -0.1182152 -0.12173112 0.080221176 0.034536645 0.044183433 0.035004079 0.042347759 -0.11892733 -0.087604567 0.11742775 -0.015217155 0.060319692 -0.11561391 0.061938375 -0.10996851 -0.11217831 -0.12278177 0.10754763 -0.061289966 -0.061744042 -0.021425663 -0.046289083 -0.042063825 0.13395077 0.064430401 -0.076136097 0.051435441 -0.0028902956 0.010811266 -0.010476065 0.056724865 0.032761402 0.087099172 -0.027102936 -0.017794419 0.14789277 0.071213335 0.052085802 0.0088670142 -0.0093919924 -0.077953719 0.052270744 0.10273702 0.036624897 0.12239004 -0.089497305 -0.081531614 -0.015728997 0.1163222 0.10774285 -0.00080869033 0.14705934 -0.038201079 -0.055900097 0.076932847 0.077728763 0.084305152 -0.050543819 0.060321569 0.11996666 0.043390229 -0.110526 -0.072530128 0.028770197 0.068087853 0.099078231 -0.035904471 0.040681496 0.022469699 0.02438296 -0.033048034 0.088165194 -0.0090113133 0.047240738 -0.052863784 -0.046736389 -0.022176836 -0.040096998 0.015587224 0.0067821285 -0.06226185 0.0824949 0.15810294 0.14050311 -0.015182356 0.098707467 -0.030726455 0.063114196 -0.039966866 0.047783151 -0.055816084 0.12068897 0.15132073 -0.047463294 -0.12580466 0.027339436 0.11607935 0.077083766 0.12323472 -0.020056417 0.13883112 -0.11141683 0.099340044 0.025851268 -0.0094373403 -0.091218531 0.085368827 -0.054055512 0.12599108 0.053400621 0.026838526 0.10453424 0.12673166 0.13204552 0.087161027 0.14398627 -0.11109476 0.1025933 -0.082904354 -0.058409758 0.064718843 -0.03222787 0.060183603 -0.059746623 -0.05634775 0.051147252 0.15161969 0.0037428536 -0.067592725 0.14571664 0.059864394 0.1203423 0.15720612 0.099419773 0.083957046 -0.046071336 0.12001827 -0.028203584 0.11370895 -0.12339312 0.038336519 -0.079691395 0.015241748 0.14244631 0.036400065 -0.013329527 0.064035527 0.062612489 0.094875418 -0.031467162 -0.10338416 -0.060996171 0.10728717 -0.026542202 0.050970271 -0.080811955 0.058857515 -0.069153547 0.04158321 -0.017874964 0.065772951 -0.095948637 -0.047621645 0.066942312 0.025619164 0.10697843 -0.034281705 0.016971454 -0.1087178 -0.075605899 -0.087093562 0.072937652 0.066186078 -0.01761866 0.018373623 -0.0013920404 0.031259917 0.0366759 0.078818731 -0.14025244 0.016924441 -0.10439244 0.062144969 0.10598315 -0.015040591 0.053239819 0.084824771 0.12129557 0.020929616 0.096411303 -0.079209097 -0.15367201 -0.049573604 0.054609571 0.058002941 0.061630711 -0.12732673 0.013955164 -0.033335745 0.0098981783 0.095735148 0.092662208 0.0018004107 -0.094364107 -0.046004407 -0.066502914 0.015849827 0.014036238 -0.076187313 0.12071572 -0.048744027 0.05945076 -0.072859131 0.020486517 0.08363995 0.062802464 0.088553146 0.041138917 0.11615159 -0.097998366 0.0053323302 0.036724672 0.077561051 0.15675811 0.040472928 -0.0610829 0.080862544 0.082966432 0.0320522 -0.048847288 -0.088080816 0.13349088 -0.085221395 0.098269753 0.083271302 -0.036186624 0.089033999 -0.036238063 -0.11474405 0.11476232 -0.033690214 0.00023354427 0.065464631 0.013262239 -0.00055088103 -0.12036867 0.1412067 0.085410863 -0.017033994 0.11666413 0.012737477 -0.11651668 0.059501 0.028572559 0.095598534 0.099531978 -0.069294102 -0.073119029 -0.031128859 0.089577481 0.15231314 0.069468498 0.068156868 -0.054445192 0.089475021 0.044172887 -0.046847947 -0.013486296 0.036482349 0.00073932111 0.13638486 0.022285074 0.033713609 -0.083853245 -0.070995323 -0.11747351 -0.11600115 -0.033426035 0.095709011 0.0095575238 -0.056383044 0.072789252 0.046903864 0.085568778 0.079333417 -0.11700278 0.11576929 -0.13179766 -0.027103616 -0.094786443 0.073469728 -0.065581143 0.032427821 0.00085043907 -0.10300256 -0.012351566 -0.031143941 -0.046583943 -0.087254725 0.066331699 0.04043477 0.029189248 0.092192352 -0.11933853 0.065679647 0.021300701 -0.06858895 -0.038984399 0.10654098 -0.022504494 -0.075092264 0.12693407 -0.060148537 -0.015442903 0.082441255 0.0092785656 -0.071406223 -0.092101455 -0.1224729 0.018641101 -0.022119012 0.093591459 0.082981966 -0.077801496 -0.023670549 0.021130696 0.057006061 0.094114237 0.041253969 0.0028557351 0.027445385 -0.064967826 0.026655665 0.068229347 -0.14392485 -0.0070450278 0.027692184 -0.10737809 0.033031747 0.032313913 -0.090395868 0.0012138733 -0.075114012 0.10838974 -0.042189553 -0.095209673 -0.070616722 -0.078182712 0.049825594 -0.074309878 0.09192992 -0.12327606 -0.11490481 0.039501242 -0.12993027 -0.035105426 -0.11780346 0.073800191 -0.13494854 0.036287788 -0.11784916 0.023020968 -0.088435538 -0.04222085 0.096556723 0.072021216 -0.12256768 -0.032946225 0.10242653 0.039764006 -0.018492883 -0.12095404 -0.0459214 0.09026745 -0.0037491918 0.03258853 -0.10277171 0.084573194 0.082325503 0.019554645 0.040490203 0.12095043 0.045090724 -0.12896305 -0.10595942 0.067560054 -0.059171461 -0.12484449 0.081405841 -0.049040709 0.049081087 0.04728277 0.068244442 0.087921992 -0.11049055 -0.078243241 -0.13140817 0.064425185 -0.099590778 0.027665874 -0.07309109 -0.047607794 -0.028840594 -0.14016047 0.0083517535 0.066428088 0.057619017 0.043417443 -0.11944342 -0.12073545 -0.11140759 -0.059794456 -0.069452584 -0.022956504 -0.063250437 0.083349414 -0.049045984 -0.021878559 0.027610553 0.08731059 0.085102662 0.021615922 -0.1315206 0.082950555 -0.10906136 0.078383356 0.0698433 0.086568236 0.038833123 0.071751818 0.020291954 -0.12555853 -0.0909613 0.078107513 -0.10601027 -0.073564649 0.084605888 -0.12106992 -0.00053642993 0.098428451 0.063040838 -0.0330435 -0.027477328 0.029955506 -0.025392195 0.097029552 -0.11839782 -0.11961414 -0.033976603 0.035566635 -0.085756183 0.061852843 0.028493937 0.077524379 -0.087333098 -0.043134399 -0.076371744 0.0023201955 0.0056581683 -0.11607133 0.022527121 0.089425445 0.026579285 -0.11106005 -0.056922317 -0.022042796 0.041142315 0.01453431 0.040287316 0.099433824 0.0061792284 -0.022586465 -0.10576743 -0.011446953 0.077423543 -0.061378732 -0.087106317 -0.09774594 -0.0069906414 0.090345636 -0.097773522 -0.040682763 -0.035564557 0.11220257 -0.090935737 -0.093961954 0.10145798 -0.12499072 -0.027657509 0.01387313 0.022702679 -0.045759976 -0.072739795 -0.072141916 0.042957187 0.029003158 -0.10297929 -0.11750397 0.10694858 0.11313368 -0.010871738 0.075624406 0.090692252 0.014390886 -0.048997119 -0.064331025 -0.012744829 0.063164204 -0.050970584 0.079650834 0.10139978 -0.026501894 0.012277246 0.022302389 0.071567982 0.03063482 0.11201246 0.097966716 -0.1235577 0.0048543215 -0.11533564 -0.091121674 -0.087991148 0.11382772 0.020472139 0.070326865 -0.088720322 0.056266055 -0.1052184 -0.014517605 0.089260325 -0.061312869 0.026711524 -0.042939857 0.060140133 0.044760365 -0.052995816 -0.12397423 0.050238922 0.045370162 -0.017114095 0.031436875 0.036388561 -0.067414552 -0.033723727 0.098898917 -0.085758828 -0.021083063 -0.075030759 -0.10806212 0.025831832 0.016809413 -0.11473625 -0.039554551 -0.055562723 -0.067503922 -0.038849756 0.012996271 0.023627758 -0.094077557 -0.080553971 0.033970814 -0.09776853 0.030720498 0.030918121 -0.11695103 -0.025637358 -0.055706531 0.076123849 -0.066000819 0.040874615 -0.070131049 -0.026473045 0.087577552 0.063604765 0.05307094 0.073839866 0.026055466 -0.12336278 0.029230341 -0.05110402 -0.067239806 -0.11383687 0.0070178956 -0.014902368 -0.011572534 -0.094133385 -0.033163413 -0.10097709 0.057463944 0.051640697 -0.020828998 -0.092292696 -0.048563223 -0.057953641 0.11793159 -0.060824383 -0.018899629 0.081819847 0.12939596 0.08474268 0.12244102 -0.071922913 -0.088226505 -0.010190351 -0.01497928 0.030759797 0.038907979 -0.056054235 0.14141119 0.084696375 -0.032612413 0.068257906 -0.077143312 0.086256817 0.10037999 0.079760596 0.13480137 -0.024518939 0.064823031 0.049786039 -0.060195982 0.06042698 -0.037785366 0.072382718 0.10608656 0.043315232 0.069914132 0.010801837 0.090993702 0.13760306 -0.10566516 0.061245069 -0.034009803 -0.033264134 -0.073431894 0.084039249 -0.095870703 -0.042783797 -0.077548914 0.039890669 0.021630954 -0.040532351 0.0041679442 -0.036181353 0.15745328 0.066461891 0.028472368 -0.10523352 -0.084465608 0.030133152 0.058523521 -0.019204631 0.03453356 -0.074784398 0.10222457 0.066174418 -0.12576601 0.0071234442 -0.091627806 0.10193659 0.019000338 0.016360722 -0.028278992 -0.11800326 -0.015219465 0.02978462 0.095500901 -0.070056811 -0.0035782382 0.077039018 0.089660808 0.066958435 -0.10144464 0.080162615 -0.12121694 -0.025250593 -0.099754855 -0.018683422 -0.090426043 -0.061741188 -0.1027372 0.038352765 -0.12879418 -0.09178023 -0.047045764 0.063492522 0.10596534 0.11502703 0.046682093 -0.078323714 -0.080007456 0.028279275 0.10355319 0.11155453 -0.072499126 -0.085838184 -0.052051753 0.016737143 -0.092094064 -0.01996547 -0.025880262 0.11786985 0.11516866 -0.047279865 -0.091586933 -0.032030523 -0.02506116 0.092031553 0.098521158 -0.032792494 -0.099086687 0.077346131 0.0080064898 0.071480796 0.020420864 0.076142535 0.033531666 0.014480785 -0.094914958 -0.00043025613 0.050526667 -0.07250113 0.039593674 -0.077142641 0.0091910232 0.048801739 -0.0647434 -0.095732182 -0.091610059 -0.043516845 0.061282873 -0.0020224953 -0.068290792 0.0042683701 0.10768478 -0.080759637 0.13155848 0.056073155 -0.023883693 -0.06074433 0.088847116 0.15087038 -0.04744111 0.083686642 0.030145066 -0.048442669 -0.069454037 -0.076524071 0.10521061 0.087092817 -0.024045484 -0.033427324 0.054986861 0.12285253 0.11824623 0.037545845 -0.057206899 0.07748203 0.11445466 0.011654884 0.076515295 0.039666925 0.028075859 0.072771683 0.10418727 0.15679088 0.02168127 -0.025814239 0.084029697 0.056596559 0.11750211 0.15876341 0.10723705 -0.050830767 0.080309942 0.086012766 0.033480652 0.028234702 -0.02881749 0.081580326 0.095684528 0.11210983 -0.07923755 0.11458097 -0.075573072 -0.019561708 0.11892346 -0.063097164 0.082528755 -0.014170542 -0.10675457 0.098146498 0.045718655 0.10636938 -0.10123564 0.079295397 -0.058047771 0.050752789 0.07801795 0.070455536 0.081944183 -0.087176353 -0.086790621 0.077626467 -0.12037162 0.11233152 0.061089516 -0.12157725 0.060884997 0.03536725 0.082216129 -0.065565124 -0.055751413 0.10195816 -0.12365256 -0.056330606 0.098040983 -0.092472434 0.093525216 -0.052853853 0.10616532 -0.032461226 -0.0065363348 0.096975952 0.0571879 -0.070434615 0.02227132 -0.076625615 -0.045752525 0.016729772 -0.0088729113 -0.037905857 0.057023779 -0.010230601 0.0097982138 -0.037983701 -0.061113685 -0.096826494 0.0044020563 0.12283227 0.082067102 -0.072841629 -0.1233689 -0.027151972 -0.048752978 -0.039193153 -0.082548678 -0.02841799 0.049377449 0.054536529 0.098554328 0.10094717 -0.056782354 0.0077725193 0.035318818 0.12381932 -0.045987457 -0.081288517 -0.012208992 -0.041529097 -0.035933875 -0.098046906 -0.12827 0.0073786275 -0.024171095 0.06025631 -0.1349069 -0.11475912 0.054368764 -0.052886322 -0.080000788 0.081301324 0.10942111 -0.027967162 0.017337266 0.0032955285 0.083753459 0.10411365 0.079607688 0.067053385 -0.10772016 -0.084525205 0.024053371 -0.10702404 0.021779612 0.090508252 0.061904095 -0.055982038 0.016196717 -0.088675909 0.040757805 0.10840271 -0.024123594 0.094276518 -0.11102818 -0.13914974 0.043028731 0.11196913 -0.0030873865 0.083915964 0.065329649 0.00093059242 0.020047933 -0.084065288 -0.13619672 0.036956672 0.080135241 -0.014514804 -0.0097778887 -0.13591945 -0.049038317 0.077317193 -0.099507138 0.027848497 -0.049716137 0.082221836 0.021954533 -0.0032959438 0.028688967 0.051947236 0.070901856 0.11388023 -0.09372592 -0.011080479 -0.123429 0.12688045 -0.0094497791 -0.076995194 -0.098355375 0.00048986275 0.094966248 -0.068467803 0.067819446 0.013732944 -0.056569852 -0.029924838 -0.078220695 -0.054052778 -0.11115343 -0.11666242 0.062587075 0.088141203 -0.10447203 -0.10298572 0.075511031 -0.045651488 -0.10375802 -0.021868423 0.04250896 0.015830819 0.0074312785 -0.080512285 -0.055034082 0.031853095 0.064917535 0.016483814 -0.00047193468 -0.054463197 0.044059373 -0.0424309 0.021439496 -0.065858208 0.033409849 0.066803053 0.049045861 -0.09490402 -0.032070316 0.072973117 -0.072520107 0.0654791 0.08795917 0.094564192 -0.056931287 -0.063701637 -0.028892046 0.0028884858 -0.039527297 0.045623824 0.027955756 -0.051797718 0.079669669 0.075159281 -0.029043332 0.10822035 0.0078945756 -0.069015741 -0.00023554265 -0.0049917549 0.065435201 0.0035411566 -0.10100083 -0.04747048 0.034833878 0.080834806 0.0090826601 -0.04160209 -7.095933e-05 0.055478096 -0.099409029 0.022106454 -0.025570571 -0.06984365 0.057256773 -0.10638154 -0.10023123 -0.1107311 0.029869825 -0.060373157 -0.12486038 -0.11883582 0.095577076 0.034120277 0.038741246 0.042805225 -0.074968696 0.047141016 -0.10247804 -0.030757934 0.087708279 -0.057651967 0.091803953 -0.069589019 -0.023793861 -0.10527366 -0.057128966 0.033558324 0.060935363 0.087539241 -0.056239456 0.0054201484 0.078160018 -0.080410227 0.068222284 0.058486283 -0.062239751 0.11030114 0.0012056977 -0.060060054 -0.10943539 -0.084128648 0.077198751 -0.030802663 -0.045676921 -0.076836556 -0.056376889 0.09596096 -0.11421197 0.037946388 -0.07511875 0.021184281 0.070861533 0.09342555 -0.08451657 -0.046467423 -0.11302212 -0.077091478 -0.096930176 -0.094643697 -0.10534403 0.10809415 0.042579651 0.10322682 0.080373921 -0.087926134 0.057594996 -0.077118233 -0.088543981 -0.059756245 -0.047001403 0.10399452 0.11563247 -0.010164804 0.028377045 0.082871616 0.11405849 -0.052869558 -0.075397521 -0.089087471 -0.063142687 -0.033327103 0.0023216805 0.071083471 0.0037603825 -0.0062470734 0.020702705 0.0090402644 -0.029562261 -0.11462316 0.077070147 -0.09958683 -0.085186899 -0.018958878 -0.0034190428 -0.035343453 -0.082435161 -0.075300738 -0.084589653 -0.073375665 0.039591104 0.043278873 -0.037902251 -0.091300674 -0.10963434 0.061156183 0.13371697 0.0049240887 0.058859568 0.0035236233 0.055210628 -0.011881497 0.060523979 0.10630611 -0.042402029 -0.10603543 0.067115389 0.12417928 -0.040113378 0.020096723 0.11296693 -0.063833125 0.058025159 0.14918005 0.0055254851 0.12170941 0.037458345 0.12260682 0.15385653 0.119784 0.021802878 0.044384394 -0.03553525 0.12369892 0.15363325 0.06290783 -0.042545889 0.069300264 0.16183512 0.1322819 -0.074742839 0.042001083 0.090688556 -0.043805748 -0.083702989 0.05104439 -0.010163117 0.15987566 -0.07555674 0.091751479 -0.035481885 0.10108007 0.088371433 0.013058129 0.022946507 0.10962833 -0.074161574 0.10656743 0.057484765 -0.016516954 0.029575905 -0.10044391 0.13149725 0.013555871 0.12226188 -0.0044002901 0.11767751 -0.043960065 -0.035242379 0.1082373 -0.10905677 -0.10990302 0.0077304393 -0.094686478 -0.064798191 0.064302728 -0.0097896308 -0.039799511 0.081720829 -0.067731529 0.070727006 -0.042655379 -0.090700552 0.10464071 0.12207486 0.10671183 -0.028802082 -0.096848249 -0.02666156 0.085082218 0.011507988 0.080083519 -0.033372864 -0.0010459572 0.0083210021 -0.10771374 -0.053620547 0.00147295 0.11397129 0.035617858 0.014082611 0.10777564 -0.03542839 -0.06509997 0.020121306 -0.11556031 0.11784723 -0.092693195 0.032587051 0.031866997 -0.05746828 0.046951234 0.028600007 0.051438317 -0.049037561 -0.050469562 -0.11600146 -0.014618948 -0.085830182 -0.054702953 -0.089602873 0.12323914 -0.040416986 -0.027466759 -0.12386787 -0.09128356 -0.02116704 0.046576872 0.018818989 -0.0034108162 0.10253921 0.093486369 0.055315077 0.059782282 0.073465943 0.093736559 -0.13187385 -0.11037034 -0.023933642 0.091885261 -0.1237869 0.034650922 0.047662079 -0.040568054 -0.024872825 0.075198911 0.014013873 -0.042835079 -0.10929422 -0.058170855 -0.01657968 -0.026283896 -0.035587151 0.060988117 0.0045735985 -0.031755801 -0.14558722 0.036636986 -0.071221024 -0.027235327 -0.066298924 0.076144658 -0.0163112 -0.016232476 0.076442756 -0.024269165 0.062154688 0.021483447 -0.028952725 0.03782545 -0.0040925294 -0.1126471 -0.015634133 -0.084311619 -0.12514821 0.10004897 0.09983933 -0.055562504 0.0067957938 0.031563424 0.067360125 0.046858378 0.031371966 -0.019358296 0.0018982291 -0.048322324 -0.12080784 0.11110789 0.031598546 0.10705459 -0.052445296 -0.011274576 -0.052244678 -0.094728954 0.055081025 0.02014018 0.023965947 0.10229915 0.071380004 0.050571594 0.083688371 -0.023250213 0.0012202488 -0.074931636 0.15270877 -0.017344877 -0.039821237 -0.025963441 -0.005773481 0.14566864 0.01242629 0.056840915 0.010010278 0.047416802 -0.058620892 0.096107602 0.10674477 -0.014407801 -0.11615631 0.14014247 -0.067806035 -0.086510114 -0.0075608422 -0.083234236 0.025608622 -0.091202341 -0.031496964 0.100031 0.11145623 -0.036880396 0.14235897 0.15861176 -0.041316874 -0.097904742 -0.098884776 -0.01660924 0.011455127 0.095396742 0.010247783 0.15762967 -0.11200723 -0.081805214 0.002665177 0.0040624021 -0.011850609 0.11052178 0.10179472 0.1165293 0.013057292 -0.060371637 0.081221595 0.12188259 0.00016346038 -0.08475256 -0.037682816 0.067318223 -0.099984571 -0.075136915 0.081825957 0.14425594 -0.061309423 0.060604647 0.10587423 0.060228698 0.077019244 0.1157584 0.0016556004 0.040303733 0.019004026 0.021409959 -0.083110303 -0.10542023 0.10791259 -0.030097548 0.12932873 0.024319971 0.010026236 0.099766001 0.01815496 0.019941103 -0.00017128116 -0.034163121 0.097701579 0.01771115 0.098345868 -0.03580502 -0.080962047 -0.048376709 0.057242744 -0.02203094 -0.057584081 0.061964944 0.094775021 0.047493752 0.14974353 -0.029384615 -0.052536845 0.094044402 -0.0019964874 -0.0048146276 -0.050711505 0.052064523 -0.013885858 -0.077919587 0.057513058 0.050284587 -0.026630536 0.15441979 -0.0053828885 -0.061735213 0.070412509 -0.051501926 -0.087250456 0.10870238 0.0026003628 -0.1115118 -0.028634729 -0.011471093 -0.013955805 0.12879217 0.03843753 -0.064967819 0.04383719 0.028208133 0.14165816 0.055898115 -0.035669997 -0.0081520295 0.084434129 0.065251485 -0.022396181 -0.13461314 -0.10766798 0.04228653 -0.026177824 -0.079260662 0.00037636224 -0.10999738 0.044265095 0.019264415 0.033375796 0.10606587 0.10350844 0.096810065 -0.040881414 0.095817491 -0.10415037 -0.0047612446 0.0676715 0.0055977996 0.11556286 -0.13601646 0.075823307 -0.052667689 0.055022936 -0.08956182 -0.010646423 0.070619501 -0.024916209 -0.03560973 -0.040339101 0.027565241 -0.063985452 -0.053798292 -0.059558418 0.067141533 0.10559675 -0.12151074 -0.050741255 -0.11711498 -0.049569353 -0.075330324 -0.061154068 -0.069279887 -0.0095384344 -0.10253119 -0.025363654 0.041766815 0.069341108 0.066440821 -0.10382254 0.081864282 -0.11057644 0.10899984 -0.097594589 0.0065460033 0.012675852 0.077839769 -0.08923462 -0.016172603 -0.053106926 0.091331571 -0.071152925 0.070722744 -0.05820052 0.13336299 0.01272421 -0.088980287 0.11807589 0.020642385 0.088934295 0.045471758 0.10929221 -0.013873234 -0.016903318 -0.083822735 0.14881922 0.13370353 0.096383736 0.033577073 0.020581201 -0.028757451 0.14865732 -0.047425266 -0.05743023 0.13534939 0.053403493 0.14561613 0.030765975 0.00018016994 0.13662517 -0.065213904 -0.049650494 0.0037319013 0.10969671 0.059818059 -0.10581441 0.0054909345 0.11482017 0.050904006 -0.02311334 -0.034925677 0.013630524 -0.026846167 -0.11660087 -0.025461374 0.14345686 -0.033430327 0.10437757 0.038611088 0.062200502 0.064718515 0.0099382726 0.040881768 0.076545544 -0.012109712 -0.024338013 -0.036753263 0.028554738 0.098264076 0.021460295 -0.0011291684 -0.094766438 0.057096243 -0.11988701 0.035446629 -0.11705409 -0.015846744 -0.060285553 0.030647814 -0.013633505 0.069581062 0.019395545 0.077343047 0.12484705 -0.097340092 0.11677819 -0.00038322806 -0.084948957 0.0048620105 0.058073357 -0.052109316 -0.036135867 -0.055071443 -0.052402884 0.06227836 0.069842681 -0.066278577 -0.033717692 0.093059704 -0.035037071 -0.024509788 -0.10099852 0.02310206 -0.029085353 -0.086313501 0.021722138 0.097900644 0.0074681491 -0.0023782104 -0.064966395 -0.010427788 0.037858531 -0.034222171 0.073439822 0.075802311 0.10770245 0.10210305 -0.0449377 -0.04555431 -0.073536336 0.11343981 -0.045703337 -0.087050632 -0.027727842 -0.074516922 -0.07943061 0.0403402 0.0044133365 0.10263136 0.047228158 -0.055362329 0.10199435 -0.098257646 -0.11109389 0.10781553 0.1050649 0.0013639927 -0.036843084 0.079402477 0.075210571 0.095226854 0.038477961 0.068765819 0.058864176 -0.011821061 0.046170324 -0.008653 -0.076605439 -0.098143891 -0.11702873 0.084993064 0.052866485 0.042478748 -0.10112987 0.02660141 0.086510874 -0.040738147 -0.059704229 0.032548372 0.0075212829 -0.078092881 -0.018565401 0.060603812 0.036584429 -0.072592303 0.047860183 -0.1192445 -0.0031566438 0.049991675 -0.11839723 0.00326762 -0.032752085 0.046297163 -0.049334407 0.052583236 0.0022197366 0.026735485 0.0070796041 -0.1272407 -0.02702713 -0.080015078 -0.0044028759 -0.10279734 0.042979341 -0.066942856 -0.032278121 0.092606738 0.035577133 -0.065309778 0.061073463 0.056798741 -0.057423949 -0.011893556 -0.040225223 0.10506866 -0.052563712 0.0072483555 -0.068252698 0.074797392 0.099717617 0.11155041 0.049873259 -0.0340157 0.043191288 0.069507569 -0.10847205 -0.085998826 0.013476601 -0.047525138 -0.11230612 -0.032999024 -0.027230011 -0.079753868 0.098467007 0.10113698 0.08194264 -0.081122853 0.095712952 -0.018022569 -0.013574519 0.088681951 -0.051938981 0.042963561 0.047014747 -0.016021881 0.073833369 0.018048782 -0.078155138 -0.09946169 0.085697412 -0.099132791 -0.021689679 -0.063360363 0.020984828 0.044561137 -0.0077916724 -0.021796018 -0.038243771 0.062157944 -0.018463433 -0.0035015345 0.013129544 -0.099806309 -0.0026527494 -0.0077089933 -0.055272698 0.021776261 0.067185767 -0.024312511 -0.062532365 0.012090068 0.10177763 -0.067625619 0.085578859 0.014135346 -0.13416162 0.033180639 0.051052861 0.082181118 -0.094403476 -0.071138725 -0.0058070272 -0.11164276 -0.074835651 -0.055222288 -0.021200582 -0.051198065 0.1206328 0.023688287 0.024432525 -0.015079707 -0.047170416 -0.094890431 -0.011153892 -0.085435107 0.0080770701 -0.11976831 0.095802292 0.046343669 -0.045122042 0.11097969 0.022685021 -0.11369376 0.00531964 -0.062694013 0.1043319 0.011597753 -0.11781058 -0.06790933 0.039330766 0.023542911 -0.02587527 0.021253794 -0.056654721 -0.028522477 -0.092462018 -0.073659912 0.10930653 -0.07161653 0.0067817718 -0.1141676 -0.11035658 -0.0073906928 0.095617935 -0.037663445 0.075604677 0.091323957 0.087472424 -0.10921715 -0.090974659 0.10356665 -0.055361107 -0.033389896 0.010272339 -0.031293049 0.0055790991 -0.071432769 -0.02566278 -0.047330692 -0.017713711 -0.10012458 0.059158474 -0.015971899 0.087978244 -0.015338302 0.054607794 0.10324651 0.042121068 -0.10839969 0.12721547 0.018714543 0.064592123 0.018722532 0.0082099754 0.0060913051 -0.01604409 -0.080210075 -0.027338117 0.021247238 0.066338219 0.070584491 0.10324962 -0.050448291 0.0059938547 0.03503998 0.1515028 -0.0743616 0.13147545 0.055025283 0.043293729 0.079961114 -0.071244858 -0.083673291 0.010938123 0.10558979 0.15642107 0.1008829 -0.088826373 -0.018665314 0.14493468 0.076523803 -0.079530455 -0.021018021 0.015829302 0.04570426 0.087339476 0.015249062 -0.062794983 -0.018985361 0.013676126 0.06463787 -0.12233429 -0.031639647 0.1104385 -0.074621134 0.099427804 -0.027434696 0.15593569 0.022752294 -0.081735849 0.086565316 0.02164604 -0.077867702 0.091349304 0.050141037 0.038734961 -0.01472737 0.108529 0.08675658 0.032458618 0.11638629 -0.013574248 -0.075794607 -0.12093727 0.013255904 0.060274582 -0.058022946 -0.12960561 -0.04513032 -0.11919098 -0.095942006 0.038680494 -0.057737455 0.024120361 0.025890786 0.097374819 0.11045189 -0.07422515 0.084875539 -0.032759149 -0.083748057 -0.031663634 -0.025549231 -0.09414655 0.043007288 0.033368126 0.054043088 -0.077458009 0.018249922 -0.047635186 -0.024454365 0.032070849 -0.10432152 -0.091757298 -0.12267797 -0.059002206 0.043749429 0.076060206 -0.058957994 -0.11884908 0.00315532 0.12511086 -0.070638284 -0.10707018 0.0017022766 0.010676309 0.040673882 -0.0039038062 0.05822001 -0.072236426 0.066528521 0.084156118 -0.091407895 0.0030459315 -0.080349416 -0.0094810119 0.12119794 -0.10855996 -0.1230308 -0.08707878 0.11024217 0.085927278 0.08199206 -0.070337191 0.0043833582 -0.12480332 -0.020533934 -0.099010751 -0.048124753 -0.052196212 0.033933491 -0.13004206 -0.024643986 -0.067225233 0.024333581 -0.10778052 -0.072495028 -0.057428073 -0.10651707 0.041464835 -0.086165249 -0.044322714 -0.0255254 0.073346175 0.067687199 0.012310712 0.049697459 -0.066345781 0.091034412 0.086723968 0.094107851 0.0028819854 -0.11999359 -0.00050972146 0.0013567359 0.043223161 -0.03551884 -0.010189475 0.079500265 -0.13329488 0.10350414 0.0042202403 -0.032006443 0.041714162 -0.13063511 -0.054067634 -0.032957628 -0.041013006 -0.10308969 -0.1124932 -0.014594093 0.05745624 -0.11767351 0.038156334 0.091914326 0.019305227 -0.077468336 -0.11112776 -0.11571259 0.063282728 -0.038392767 -0.13202955 0.094199717 -0.082427397 -0.057070866 0.042689368 -0.13803387 -0.0082363784 -0.0023519783 0.072492994 0.047387138 0.019503132 -0.089174926 0.082990929 0.12090452 -0.040966541 -0.11598448 -0.10084023 0.085566685 -0.02323778 -0.096706897 -0.11039126 0.020343632 -0.013996899 0.038830802 -0.036119476 -0.11287723 0.013569534 -0.025073692 -0.10658999 0.053333953 0.018859655 -0.060363799 -0.07394813 -0.089447349 0.094223514 -0.0013080239 0.11775835 0.10737671 -0.10361168 0.034410477 0.0088108927 -0.084959492 -0.060318619 0.037417501 -0.084542066 -0.091253132 -0.029539213 -0.11278704 -0.12454103 -0.12242566 0.064057589 -0.00085175037 -0.050434783 0.10367095 -0.093890131 -0.11560036 0.095148951 -0.025769159 -0.062511131 0.10171749 -0.050309211 0.044053689 -0.093082517 -0.043233797 -0.12087682 0.003691256 0.01754643 0.0049702823 0.04593493 -0.078580797 0.024418086 -0.06929639 0.069077328 -0.10521452 0.088432685 -0.049030259 -0.057872713 -0.047327802 -0.036936358 0.011021838 0.061564133 0.0058318824 -0.10942528 0.044837549 -0.058080137 -0.031341538 -0.07490997 0.051039428 -0.046066135 -0.074229747 -0.0044960976 -0.061231598 -0.062791824 0.020739809 0.10219932 0.060079277 -0.0081436187 -0.019761428 0.032346427 -0.059449375 -0.077482149 0.084163293 0.083910376 0.03676106 -0.085538909 -0.029875949 -0.045598537 0.018539652 -0.081041679 -0.11034976 0.089489579 0.093471751 -0.050479785 0.079510152 0.0072175264 -0.11551088 -0.11660038 -0.039995983 0.019033551 -0.030058473 0.052203298 0.047912255 0.12129019 -0.044494137 -0.088752747 0.1109228 0.059366509 -0.1218303 0.023600847 0.069188893 0.0031491518 -0.076572672 0.084562957 0.066192314 -0.053717047 0.11806592 0.082079008 0.00066830218 -0.077360421 -0.049483389 -0.030588925 0.029222921 -0.11750695 -0.0044809729 0.05816099 -0.064342618 -0.075861111 -0.12310906 0.047365159 0.0019231737 -0.10653597 0.082545176 0.057081833 -0.022593603 -0.05211024 -0.072914779 0.044205874 -0.088136956 0.10611878 -0.06320563 -0.077929229 -0.11982124 0.026866987 0.014626563 -0.091947496 0.097274244 -0.051847398 -0.0024506152 0.11322661 0.0019329488 -0.04357262 -0.066418529 0.011205599 0.028914571 -0.0075385273 -0.036082879 0.11304337 0.033359215 0.037518129 -0.044945493 -0.024029508 -0.0037043542 -0.01675725 0.07821323 0.051546901 0.078726441 0.052035242 0.001766324 0.086773917 0.095069692 -0.051066518 -0.04680869 -0.017057106 -0.031476885 -0.045600846 0.068794429 -0.09562172 0.093954399 0.012625322 -0.04640089 -0.010144874 -0.11820215 -0.0031013787 -0.073219493 -0.064060852 0.054510832 -0.06278488 -0.065322652 0.029376492 0.11561793 0.065458506 0.091081724 0.071395963 -0.076232582 0.06469366 -0.015280873 0.043321878 0.11137646 -0.030916482 0.017752901 -0.076630041 0.040777639 -0.061763138 0.055605516 -0.034565836 -0.083045781 0.028615326 0.038005307 -0.046189219 -0.057589024 -0.065835342 -0.081804767 -0.040824607 -0.040399149 -0.058692187 0.10534093 0.067731157 -0.10531636 -0.082272246 0.10715094 -0.11184889 0.060236707 -0.10244621 0.04701595 0.028375953 0.064387947 -0.019948378 0.09093523 -0.015654191 0.016547307 0.023530588 0.089806169 0.058822677 -0.015351877 -0.083249852 -0.10869974 0.065607205 -0.02305384 -0.06382522 -0.074521631 0.066932723 -0.055275381 -0.10471196 0.048908293 0.071133554 0.098174736 0.10984333 -0.010455728 -0.032268286 0.081893459 -0.12326029 -0.071778938 -0.045532823 -0.11510517 0.047579825 -0.052624553 0.051030099 -0.10135064 0.06694442 -0.051162601 0.0018905401 0.091877222 0.053569615 0.01541315 0.030129492 0.063105792 0.11320673 -0.097240806 -0.080654308 -0.049294353 -0.051153868 0.00045900047 0.056828097 -0.0087874085 -0.024682194 -0.092893958 0.11213939 -0.0046538115 0.015481576 -0.087690443 0.055544347 -0.033451095 -0.10713597 0.10933773 -0.0020396709 -0.088104561 -0.014868394 -0.014354482 -0.099335387 0.042320937 0.0095593482 0.0040190369 -0.12417302 -0.1185392 -0.080237091 0.12132911 0.0092109293 0.081464007 0.038233981 0.020669132 0.045980781 0.061262906 0.062559858 -0.10808939 -0.10598326 -0.049412429 -0.10430762 -0.0041876584 0.087724105 0.066339299 0.093249276 -0.031923354 -0.091881856 -0.025402755 -0.11838287 -0.046375349 -0.10455348 0.10398981 -0.071468368 -0.10400119 -0.10950084 0.016359538 -0.11042379 0.10498703 0.10713939 -0.10627718 0.061790094 0.01127556 -0.11215441 0.028357446 -0.062110826 0.060652643 -0.098499075 -0.066039339 -0.060799316 0.088050485 -0.027908236 0.0071688294 -0.010099664 -0.12371878 -0.12474099 -0.0093304813 -0.11130038 -0.03646946 0.027640894 0.060029969 0.022587329 -0.095680192 -0.11267887 -0.1248066 -0.057759538 -0.116171 -0.085988 0.09187077 -0.063702986 0.11814678 -0.036467224 -0.057566181 0.0076978654 0.094527557 -0.094662651 -0.083727881 -0.025155202 -0.10179833 -0.084297061 -0.093692392 -0.11633208 0.091485441 0.032152742 0.0093279183 0.11562139 0.10655066 0.0016103834
bias 0.092776097 -0.092028342 0.12491408 0.055720165 0.027111173 -0.036407419 0.14574371 0.08735165 0.090920709 -0.017893035 0.11218286 0.059364997 0.043265674 0.13410459 -0.081447981 0.035387605 0.15661009 -0.037223604 -0.035902709 -0.046634275 0.0030298382 0.078473069 -0.037287191 0.093212672 -0.05155528 0.0025461959 0.0001257956 0.11577909 -0.043529887 0.045402445 0.16062732 -0.054621592 0.021443607 0.045933388 -0.032844365 0.040422659 0.021069894 0.026469804 0.11831218 -0.0035787672 0.10184073 0.087478399 -0.11505942 -0.052710611 -0.016743457 -0.032176837 -0.033158645 0.080872804 0.14906152 -0.031351086 0.0074327332 -0.12326245 -0.11974493 -0.10491464 0.065980345 0.13326402 -0.11612143 -0.088335 -0.021388382 -0.0021709651 -0.033907682 -0.084473863 -0.048948854 -0.11894198
layer 1 64
weights -0.095941983 -0.054246966 0.13789533 -0.007033891 -0.011928752 0.068719283 0.1413954 0.056439444 0.040430389 -0.070742607 0.10680152 0.15753359 -0.00032334961 0.14469194 0.11170621 -0.048369989 0.10904873 -0.056956448 0.077693969 -0.079150513 -0.077440441 0.062342502 0.10490659 0.11442123 -0.057532139 -0.036175184 -0.014329866 0.11152706 0.076899759 -0.044104453 0.096806236 -0.025926182 -0.10636932 -0.056821294 -0.083466157 -0.023571743 0.15910949 0.010561711 0.12070182 0.017684236 -0.095321722 -0.030994486 0.0044810325 -0.081924669 0.12359005 0.036131635 -0.0098872762 0.11368419 0.16112852 -0.0060947333 0.081473231 -0.078183234 -0.11001763 -0.037395533 -0.064955041 0.057282154 -0.076065257 -0.10858677 -0.074801445 0.024638832 -0.10432531 0.098446637 0.11646095 0.0030140281
bias -0.022802478
norm 7
mean 0.81424409 0.10335558 0.38367599 0.40995789 0.80980504 0.70817095 0.24769735
std 0.059889674 0.11382189 0.23080936 0.31029767 0.10921922 0.16282932 0.11480086
