layers 3
layer 64 8
weights -0.28862894 -0.014580112 0.21959291 -0.34287101 -0.34273252 0.073233098 -0.18964918 0.25688508 0.34357217 -0.21389584 -0.29485923 -0.052786987 0.29335773 -0.014215373 0.02459766 -0.16301262 -0.17464347 -0.11384214 0.23805943 -0.26242137 0.33188018 -0.035699602 -0.06854409 0.22644128 0.33884314 -0.12175436 -0.065335497 0.16095455 -0.034909263 -0.18853912 -0.32450825 -0.18091674 0.076131411 0.23144293 0.33997029 -0.16182654 -0.063873924 -0.14124487 0.16507319 -0.24145786 0.33100405 -0.31510863 0.19950716 -0.062736556 0.18680996 0.23147871 0.31800729 -0.10232344 -0.23522717 0.2508308 0.11429787 0.058833838 -0.18651763 0.29988697 0.13876492 0.018498125 -0.19005139 0.10152227 -0.26603329 0.082043603 -0.291794 -0.078564629 -0.082260109 -0.090362586 -0.31638327 -0.33278397 -0.091129452 0.057808574 0.24759242 0.32826957 0.0897891 -0.31342217 -0.35137427 -0.14202839 -0.19335929 0.035885934 -0.11910173 -0.2248434 -0.28778824 0.085288949 0.29066777 -0.18598165 -0.3294864 0.32013822 -0.24802038 0.18655564 0.06065568 0.25175193 -0.16265662 0.15631056 0.18818079 0.18764599 -0.27625126 0.092232853 0.18522073 -0.29501736 0.16190088 0.087909766 -0.0799881 -0.024350131 0.097424842 -0.3078354 -0.10282377 -0.25826573 -0.12414771 -0.20734833 -0.15498061 0.26781687 0.25677323 0.23711158 0.25270954 -0.24439284 -0.31495392 -0.002665746 -0.27797616 0.31117064 0.24090017 0.075569004 0.095194012 -0.17181107 -0.001551594 0.020645253 0.085366882 0.073705181 0.32907265 -0.15612878 0.18511318 0.041213378 -0.29205358 0.17333204 0.26554283 0.34462345 0.073450409 -0.071708433 -0.15680797 0.25487143 -0.25155586 -0.22056444 0.3149052 -0.018308885 0.18007898 0.043046597 -0.11619191 0.042744026 0.19974272 -0.020492725 -0.057638679 -0.098943181 -0.34895897 0.088355727 -0.11132934 -0.28573093 0.2883153 0.16909075 0.009420326 -0.18607774 -0.055008084 0.22089306 -0.096033402 0.17295296 -0.0089854132 0.30709243 -0.3328566 0.10582871 -0.34417281 0.32504573 0.14518675 0.27231634 0.083667181 0.34977904 0.34425017 -0.035815887 0.28440654 0.086255714 -0.27805874 0.16721109 0.082586788 0.19506694 0.08108893 0.021468172 -0.20719357 0.12739386 -0.093357459 0.11905098 0.34086612 0.31924251 0.065694459 -0.031345792 -0.060611591 0.27884683 0.16981703 -0.014670095 0.32980439 0.038070828 0.32702368 -0.24075502 -0.047083721 0.341941 0.33585775 0.083639532 -0.097891867 -0.1531903 0.037552081 0.068140581 -0.28516805 0.16429321 0.21805233 0.30948591 -0.0056243283 -0.33060235 -0.071847647 0.0073301378 -0.098985121 0.28538913 -0.14522064 -0.022607654 -0.2679061 0.012853313 -0.13766256 -0.22261468 0.26045454 0.14443716 -0.28261203 -0.33189428 0.21972808 0.077240802 0.035823934 0.16232269 0.029447833 0.21551749 0.11197925 0.22447857 -0.26432264 -0.31530106 -0.19317785 0.24077718 0.027778523 0.33925432 0.25433949 0.06909959 0.094395369 0.20777586 0.026556097 0.21488959 0.10770665 -0.33278459 0.16259496 0.23788524 -0.085305937 0.14416632 -0.13765299 0.14535183 -0.32544515 0.07984893 -0.064806089 0.19082277 0.31740329 -0.045323331 0.046776891 0.0042139683 -0.053011376 -0.13452612 0.031288259 -0.27482733 -0.26816371 -0.14236678 -0.19736521 0.18820991 -0.066154405 0.32222778 0.19577493 0.076313488 -0.054458112 0.17278045 0.00080690143 0.1341224 -0.14497116 -0.053757463 -0.23321094 -0.056666691 -0.21579549 -0.2806282 -0.21749569 0.0056924378 0.0019741585 -0.10041086 0.14354634 0.023202809 -0.22492673 0.092643157 -0.13948517 0.015081238 0.12534869 0.11501807 0.34284097 0.015674118 0.35290718 -0.20041855 0.26569191 -0.11435477 0.16123088 -0.31453303 0.023863167 0.11579125 0.24621776 -0.29555252 -0.34619817 -0.23031697 0.15060367 0.028203068 -0.3048887 -0.026290655 0.16947906 -0.29978049 -0.24083948 0.28849232 -0.12954867 -0.20832638 -0.035330608 -0.31175283 -0.23331146 -0.2635417 -0.068711542 0.051958509 -0.06505724 0.17593439 -0.28153998 0.24492811 0.34855241 -0.25379092 -0.090626553 0.12648489 0.21003604 0.31192246 -0.043757111 -0.15382399 0.21575022 0.30577779 0.32718763 -0.096563235 -0.020849034 -0.15401275 -0.1598316 -0.049761392 0.014447855 0.34996983 0.017873719 0.25310403 0.27849129 0.054619577 -0.13089825 -0.22465985 0.055007663 -0.14555439 -0.26010159 -0.081968494 0.3486053 -0.033125442 -0.12209234 -0.3303113 0.20272306 -0.018837027 -0.28598115 -0.29755187 0.0095051676 0.034153614 0.31370923 -0.1917513 0.084992573 -0.30349356 -0.07013876 -0.31079203 0.21357645 0.17266206 0.29101786 0.2616978 0.23046002 0.10950493 -0.049069341 0.1158616 -0.07843975 -0.16997302 -0.086536288 0.048361316 0.30690071 -0.17954844 0.12448586 -0.061307352 0.18991804 0.22548188 -0.021984259 0.16673453 -0.048693012 0.012035833 0.027683187 -0.17570397 0.16153792 -0.34734562 0.01885671 0.27567226 -0.17750394 0.16528802 -0.1521451 -0.020135192 -0.025579259 0.074365243 -0.19888698 0.15766104 0.2765896 -0.25745866 0.20254056 0.13197134 -0.31708226 -0.019426662 -0.20097223 0.1979876 -0.32291639 -0.25661302 -0.1842922 -0.2344992 0.17059645 -0.08867979 0.33893219 0.27733609 -0.23246166 -0.27132446 0.15783219 -0.12827511 -0.20389409 -0.043734141 -0.28022477 0.067170314 -0.32368538 0.34131992 0.28170094 0.32757178 -0.14889276 -0.29277143 0.0057990691 0.085483879 0.34424484 -0.20516627 -0.051353235 -0.19961834 -0.34978095 0.21916352 0.19401273 0.06858325 0.22808218 0.21801633 0.15040921 -0.29213691 -0.27440804 0.22450294 -0.33401391 -0.035588544 -0.031971041 -0.29201511 0.043575753 0.35198304 0.29136562 0.020976739 0.25771755 -0.22236748 -0.10847777 -0.033618856 -0.15437576 0.30042425 -0.16286419 -0.20401999 0.17939903 0.15813109 0.042890359 -0.28864664 0.00013680867 0.20295283 -0.095255502 -0.065642916 -0.35333246 0.199972 -0.070662394 0.26868114 0.27162692 0.20842493 -0.34711 0.17189477 -0.1944847 0.027646689 -0.036707208 -0.06160925 0.10900346 0.16107126 0.0087432796 -0.043399327 0.16799991 0.083563499 0.20181172 0.03729035 0.19736429 0.1227865 0.12876245 -0.26309922 -0.23195766 -0.21906541 -0.16729003 0.14792098 0.28597626 -0.087849624 0.16910002 0.092738912 -0.058498055 -0.065860055
bias -0.058885004 0.15988091 -0.14958468 0.08055371 0.038418073 0.24267603 -0.21753952 0.31141311 0.22019385 0.19891828 -0.042978361 -0.30660841 -0.0083164582 0.2900582 0.14614183 0.13528603 -0.33402506 -0.27863193 -0.090669334 -0.11439691 0.15713567 -0.017174756 -0.0043107374 -0.046766859 -0.10987616 -0.30212554 -0.097939752 0.040862169 -0.28944269 -0.040406477 -0.15220471 0.062668525 0.33335161 -0.26534411 0.0082577476 -0.10813411 -0.19520485 -0.22796787 -0.02921767 0.34683511 0.031602677 0.098931678 0.05360603 0.33950222 0.11056138 0.27936363 -0.076365702 0.1144375 0.22781914 0.23313537 -0.25688183 0.22059399 -0.28510118 0.24962689 -0.069948338 -0.003349663 0.0020528045 -0.030583777 -0.18527915 -0.12816152 -0.068781503 0.31230691 0.27488562 -0.26048779
layer 64 64
weights 0.10053128 0.064864367 0.12014714 0.10188943 -0.028038263 -0.010251731 0.054807425 0.11456974 -0.063898683 -0.079713374 -0.050303623 0.10955919 0.088032186 -0.036325812 -0.025751695 0.019160002 0.034478575 0.11585867 0.1137614 -0.099209711 0.11884056 -0.026765928 0.050042361 -0.020131484 0.047574311 0.1068254 -0.11951321 0.017710671 0.076695293 0.075197518 0.10876091 -0.09580034 -0.067894727 -0.07757695 0.082809463 -0.063420519 -0.089899451 0.0071604103 0.1032297 0.004845947 0.092792869 0.080388427 0.063295275 -0.087150902 -0.037742332 0.0087740421 -0.065259367 0.12161538 -0.034678563 0.063029423 0.073924527 0.080806613 0.072742492 0.020421088 -0.0053227693 -0.0090964288 0.11232793 0.089380354 -0.12425822 -0.046971351 0.0022051185 0.051997051 0.11447136 0.11872602 0.10982113 0.10197937 -0.096099243 -0.091348439 0.080079556 -0.12284799 0.0066422671 -0.078312412 -0.06979683 0.018017128 0.017476127 0.065233633 -0.089734554 -0.051357403 0.083897516 0.02846773 -0.028566062 -0.076443017 0.058488712 0.052156791 0.043193087 -0.015903741 0.11415151 0.097585335 -0.078826606 0.055188596 0.096887216 -0.046914428 -0.12186797 -0.10405077 0.10336873 0.00016735494 -0.071458593 0.069266334 -0.029584378 -0.10761988 -0.054165915 0.047880143 -0.0067925304 -0.048194483 -0.0055489391 -0.085114032 -0.044970647 -0.093878016 -0.0074429661 -0.029907048 0.063840792 0.071260035 0.094195038 0.097910702 0.020931065 0.056581765 -0.0063891113 0.071893647 -0.076134637 0.0057447255 -0.089654893 0.0066660643 -0.0090963542 -0.074073046 -0.10072741 0.0054848641 0.025843471 -0.017529353 -0.062411472 -0.068074286 0.049276382 0.06343323 -0.10347833 -0.04943274 0.086355239 0.028917164 -0.082619444 0.098929733 -0.072365299 0.10321768 -0.083129093 -0.048952907 -0.010200858 -0.083351493 -0.047218248 0.033635616 -0.027351543 0.019097969 0.091112226 -0.11396341 0.045726344 0.025832951 -0.1246506 -0.02347067 0.046931446 0.05621551 0.067816332 0.012478203 0.10635976 -0.054824352 0.041269809 0.06162712 0.1100968 -0.050045073 0.024401471 -0.022602439 -0.078460589 0.02819708 -0.075856268 0.064535409 0.059559539 0.01167655 0.10543954 -0.095059901 0.010301024 -0.10453519 -0.08371596 0.066079006 -0.03078416 -0.038798168 -0.067462355 -0.029182315 -0.013739288 0.08449775 -0.078734025 0.1229236 -0.065181002 -0.10433075 0.0094418824 -0.019669026 0.049723446 0.004966706 -0.017418444 -0.11193888 0.036834165 0.019742414 -0.00056956708 -0.097843274 -0.0023009479 -0.10330935 0.10771555 0.039870828 -0.054265767 0.0041234195 -0.030843243 0.1159168 0.089664564 0.032888249 -0.042462572 -0.01136075 0.072531953 0.079829723 0.075802252 0.054060355 -0.082352385 0.10158624 -0.017466322 0.023539633 0.082604453 -0.079034939 -0.050811633 0.09647502 0.075500458 0.10514553 -0.092909336 -0.062681258 0.061857507 -0.015323848 -0.063948631 0.060844809 -0.071171522 -0.089047179 -0.12180351 -0.042408928 -0.058583513 0.055708617 0.036078185 -0.08479248 0.050871298 0.072284639 -0.12482616 -0.10406774 -0.096639901 0.071879804 0.055925772 -0.065559804 -0.061273351 -0.06122157 0.045573801 0.12170409 0.026301175 -0.022796437 -0.09184733 -0.10491119 0.017873734 -0.0091380626 -0.12272996 -0.069345966 -0.090105712 -0.081883684 0.069672555 0.05083999 0.11466961 -0.033630237 -0.051055804 -0.11122794 -0.10137881 -0.042992607 -0.011614382 -0.024744451 -0.099096894 -0.042141899 -0.056905031 0.077580303 0.12414956 -0.059544876 0.054405749 0.040777847 -0.030254796 -0.097378343 0.084768683 0.03223525 -0.099829718 -0.023380652 -0.034581572 -0.056442231 -0.031433523 -0.089671418 0.01839374 0.085389748 -0.0048428625 -0.081857055 -0.00090518594 0.040063679 -0.02518867 0.041165531 0.095360905 -0.087273166 0.11884835 0.093845844 -0.1031246 -0.088409528 0.016102776 0.062405407 0.030202433 -0.034808442 0.020032644 -0.058621556 -0.049534023 0.072296962 -0.10343502 -0.045911551 0.055745319 0.05469881 0.11389886 -0.10557497 0.055838525 -0.037246272 0.11070785 0.12228496 -0.004145667 0.060975879 0.088462502 0.095619142 0.016665041 -0.10158832 0.0091664791 0.059419096 -0.056024477 -0.099438235 -0.031842038 -0.08968696 -0.092058137 0.064625114 -0.016037926 0.031094134 0.046504602 0.0061852038 -0.041025236 -0.09374617 -0.016657129 0.11016858 -0.0060486645 -0.024459541 -0.035073459 0.07699208 -0.043373168 0.10806884 -0.10126194 0.058392152 0.044082284 -0.062205076 0.01667662 -0.0086142421 0.033598825 0.055219322 0.11653011 -0.051368296 0.1133433 -0.12249364 0.045750022 -0.048786059 0.053327128 0.099571243 0.011775956 -0.056424826 0.051158056 -0.059699014 0.073148564 0.057677269 0.076148227 0.06308037 -0.054644302 0.10669456 -0.040824011 -0.049461409 0.054405585 -0.065278843 0.01746197 -0.0056873262 0.05338496 0.094564408 0.075392067 0.11669543 -0.064163119 0.11718088 -0.0066354424 0.062767521 -0.087825686 -0.023892969 0.012857959 -0.079237938 0.025426105 -0.071113333 0.073790073 -0.064746752 -0.031428456 0.10392985 0.098931 0.07460773 0.052325413 0.086199507 -0.066279575 0.12204333 0.050404698 -0.050115123 -0.055846527 0.11142844 0.075199932 0.00068126619 0.069817796 -0.021905869 0.085117027 0.0028351098 0.12159571 -0.032456771 0.078679502 -0.072524354 0.078133479 0.124575 -0.04470697 -0.046810865 0.10219295 -0.10196237 -0.0055340976 0.024598524 -0.060708284 -0.10239649 -0.11006778 0.034054309 0.095356837 0.11782849 0.025681466 0.0076595396 0.055842564 -0.038824201 0.11054087 0.019533917 0.016072974 -0.020206168 -0.018157497 0.11004417 -0.032121509 0.11575039 0.0070192367 0.058019981 -0.0077949017 -0.069211036 -0.045437932 -0.037239432 0.057089284 -0.078334108 0.052338198 -0.024471283 0.0016682148 -0.079477474 -0.036772847 0.0016390085 0.10222416 0.028423384 -0.070249617 0.022141874 -0.090291038 0.052909672 -0.047299936 -0.11143525 -0.048855588 -0.069349036 -0.016599089 0.020948932 0.0024328083 -0.084687918 -0.11278696 0.067708611 0.11033428 0.0038368851 -0.089977399 -0.011784241 -0.045117676 0.084963068 0.12221949 0.063999116 0.069143474 0.02959086 -0.0051093698 -0.0047506243 0.12197313 0.11657165 -0.10606804 -0.11456729 0.055055752 0.049986005 0.094713658 0.1047077 0.10177608 -0.039854452 0.054266393 -0.072714835 -0.086495176 -0.023567915 0.031443357 0.09225814 -0.069435835 -0.077983201 -0.11390558 0.0022647977 0.043333918 -0.078057423 -0.071224004 0.025396436 0.11266676 -0.01180388 -0.0041563362 0.046580866 -0.12002835 0.052451596 -0.11436576 0.086774901 -0.1022476 0.078777671 -0.04403545 -0.016317546 -0.0093606114 0.1115694 -0.095657408 0.015324622 -0.0054488927 0.026832074 0.12328878 0.042731628 -0.1037018 0.063488632 -0.025755033 -0.1182995 0.096411273 0.077073202 -0.12394534 -0.084790707 0.1115101 -0.055836469 0.096247002 0.1222939 0.12061083 0.099988908 0.11883543 0.046245277 0.056373164 0.00064252317 -0.0013144016 -0.086681291 -0.067101359 0.097559199 -0.047213107 0.053947493 0.098019004 0.042268872 -0.05338037 0.12065275 -0.11600722 -0.035543352 0.091963395 0.054320052 -0.061651617 -0.1201248 0.081877992 0.02396971 0.11918412 -0.060449079 -0.022683993 -0.10115705 -0.12341133 0.1039073 -0.016338289 0.056804702 -0.10749018 0.028734982 -0.002277106 0.089368135 -0.064882502 -0.035273314 -0.050813451 -0.011289641 -0.10360476 -0.091471538 0.062484697 0.09119755 -0.035892993 0.073179141 -0.012774467 0.087131143 -0.069709867 0.0050085485 0.074050918 -0.06131354 -0.094457626 -0.013103247 0.10168731 -0.056130677 -0.11130805 0.044094756 -0.10171922 -0.013282567 -0.12265381 0.07437703 -0.059220865 -0.12463462 0.084477901 0.033478752 -0.022407651 -0.035873666 -0.080682561 -0.040295333 0.073690102 -0.1086451 -0.098423511 0.040898755 0.076759905 0.05885537 0.12316133 -0.027461439 0.022167653 0.020985559 -0.023401603 0.0094481558 0.10763943 -0.10573334 -0.028115451 0.0037888736 0.058745742 -0.11442283 -0.08358568 -0.021519318 -0.042144015 -0.08771883 0.055497363 -0.046442926 0.11467928 -0.060291871 0.070400938 0.077624753 0.11573604 -0.035984889 -0.072219536 0.050609961 0.023431137 -0.025267422 -0.036385402 0.10094506 0.0025025606 0.10071152 0.046195611 -0.095515281 0.049921677 0.076826647 0.082085013 0.010019854 -0.011781141 -0.098169982 0.013547942 -0.0053331703 0.00058162212 0.054188639 -0.022933394 -0.030997366 -0.0041099936 -0.088008195 0.025402516 0.11985624 -0.054124892 0.095346704 0.030368656 -0.04116191 0.063116491 0.0033196807 -0.061320692 0.062082082 -0.081546128 -0.076127455 0.020575762 0.094422027 0.047800124 -0.092470959 0.039176017 -0.04920812 -0.11466673 0.11592862 -0.069362715 0.057881758 -0.098353162 -0.058230624 0.12317474 0.019193739 -0.014254868 0.083111033 0.015383705 -0.030191585 0.10179812 -0.084125429 -0.099219635 -0.10022958 0.068382546 -0.047960863 -0.11216421 -0.12110959 0.084842756 0.0054726005 0.087577119 -0.083638251 0.065615267 0.09749046 0.092029095 -0.11142053 0.073606759 0.12470961 0.08117418 -0.054198906 0.12070541 0.067972958 0.021549195 0.0116411 -0.064017504 -0.07138361 0.078994423 0.012013182 -0.11855528 0.069007516 0.1240658 0.086085096 -0.038092002 -0.03926678 0.09881036 -0.063448027 0.036680087 0.034625843 -0.082821459 -0.12037608 0.12171054 0.05448465 0.015241727 0.078160837 0.029017076 -0.0029065162 -0.11262392 0.10658647 0.05252102 0.10072283 0.021082252 0.070545286 0.1078077 0.046147615 0.05598776 -0.096422464 0.10276143 0.091656864 0.066433951 -0.08506836 -0.0029778183 0.11253774 -0.10310271 -0.01226905 0.0069504976 0.012119547 -0.047767043 -0.0045810938 -0.11324435 0.080467924 -0.074275941 -0.070711076 0.027256623 -0.020392507 0.11264355 0.014454171 -0.04870829 0.11078781 -0.072062463 0.09650223 0.1110882 0.10475796 -0.063072085 -0.095743522 -0.0059141666 0.01515387 0.035860822 -0.10769577 0.025323689 0.057966918 -0.11599523 0.015019313 0.088288873 0.087452635 -0.060127452 0.073629439 0.019635662 -0.060991272 0.064356476 -0.016600266 -0.098457739 -0.055372924 0.014674827 -0.093150303 -0.10064828 0.10075162 -0.092007697 -0.046137139 -0.040092573 -0.10070913 -0.096284509 -0.06791839 -0.11853634 -0.01908727 0.12468608 -0.029841751 -0.032376409 -0.099805668 0.085268274 -0.1045166 0.014411181 -0.073926926 -0.11508259 0.049604431 0.053143218 -0.11223777 -0.10627732 -0.01376313 -0.12080024 0.026072994 0.058963031 -0.1128813 -0.12413611 0.065919429 0.012073174 0.1072108 -0.092620343 0.072232097 -0.077698603 -0.069898352 -0.12455592 -0.056022257 0.10844308 -0.061379865 0.10048857 -0.10312119 0.0379311 0.060014114 -0.026047423 -0.11284038 -0.0090157241 -0.12054756 -0.014404953 -0.090991899 0.096535355 -0.080419689 -0.050967097 0.1013469 -0.078085154 0.019692943 0.025504962 -0.010479748 -0.065330476 0.093724996 0.094310895 -0.103828 0.066439718 0.029852957 0.072855875 0.071533948 0.063315049 0.0026728511 0.02054359 -0.0037360042 -0.057329699 0.072173178 -0.086352989 0.041575417 -0.06678842 -0.050013229 0.10515809 -0.095991865 0.10982814 0.049620271 -0.04791145 0.1143149 -0.067843169 0.087233663 -0.092434898 0.0034420192 0.020285785 -0.083891511 0.03693901 0.075170502 0.033195004 0.07962127 0.034715429 0.083597824 0.083756343 0.11486545 0.052211374 0.056627393 0.060277596 0.026447028 -0.054871842 0.044613838 0.024537981 -0.097298279 0.056153536 -0.046386883 -0.034706309 -0.083031267 -0.040618911 0.11534365 0.092287853 0.051216081 0.054807231 0.099840149 -0.11981767 -0.092358172 -0.023450524 -0.0027434677 0.031509161 0.11925122 0.11602074 0.064402267 -0.069368273 -0.05423668 0.046029076 0.05076988 0.032067418 0.023176849 0.053470999 0.10730565 -0.020079851 0.047916159 -0.013901189 0.068472102 0.043602318 0.086405635 -0.11874452 -0.060255855 0.051981911 0.12127779 -0.12395963 -0.037101433 -0.031673372 0.019646063 -0.10457736 -0.024965584 0.10891901 0.123817 0.091372415 0.10153161 -0.11108938 -0.08063896 -0.1246305 -0.08458361 -0.097627982 0.057107747 0.1227819 0.051601678 0.031939939 0.069097519 -0.062647372 0.10850747 -0.10638508 0.1216971 0.073190063 -0.033162415 0.0935141 0.066883221 0.029571339 0.039975718 0.099149153 0.018548921 -0.06308949 0.042177081 -0.054456145 -0.11070454 0.06108883 0.045037135 0.080547795 -0.0081066042 0.061158568 0.041317523 0.12251675 0.086237833 -0.048234642 0.042973384 0.015896127 -0.037327409 0.1244027 -0.049583957 0.025185108 -0.095793694 0.089149758 0.054264382 0.11780496 0.04910627 -0.073602274 0.040378392 0.07165511 0.022601828 0.10019629 0.12014264 0.12029824 0.012936071 -0.044603333 0.057596594 -0.071547672 -0.0066807568 -0.056733727 -0.082216963 0.080240279 0.10520385 -0.05197306 0.094184861 -0.054359719 0.067622006 0.12244904 -0.034782588 -0.03101106 -0.044367895 -0.095998287 -0.014816195 -0.061058149 -0.065065533 0.049324661 -0.061850369 0.015019387 0.060158178 0.1167708 -0.047969431 -0.10384983 -0.073469967 0.00045014918 0.11825836 0.031832933 -0.070582345 0.047010869 -0.11343962 -0.060512155 -0.067071974 0.016657248 0.058348253 -0.016775712 0.10937966 0.036365122 0.022448942 -0.071333453 0.10230395 0.065911517 0.050298005 -0.043777257 -0.034131572 0.058382213 -0.055872679 0.044404194 -0.019980416 0.065439716 0.073976666 0.0029049963 0.092695042 0.11400774 0.046604335 -0.11162484 -0.088215336 0.092240781 -0.041291893 -0.087548643 -0.11334136 0.12480736 0.073125646 0.054688081 -0.040258273 0.072339371 0.10948664 0.054441348 0.048721313 0.052507102 -0.091968849 -0.039220944 -0.064531773 0.032034025 0.089378908 0.031894669 -0.01789397 -0.11673237 0.076600254 0.018263534 -0.032217473 0.034490168 -0.096145645 -0.0074559301 0.11487631 0.12220319 0.068981275 -0.088276863 -0.09082298 0.032041937 0.058778301 -0.079921648 0.0751542 -0.0791976 0.04780063 -0.043830171 -0.12129329 0.11087362 -0.071943685 0.032174453 0.0092906505 -0.024431959 -0.030296922 -0.011134237 -0.014688581 0.029673308 0.021944851 0.11183256 -0.12362617 0.025712609 0.017039672 -0.029750824 -0.029769182 0.035689458 0.044169962 0.082300276 -0.056069866 -0.060853601 -0.061334848 0.030114502 -0.031915173 -0.032860294 -0.0047219396 -0.047020093 -0.039093927 0.05750069 -0.0049478859 0.10447064 -0.085446492 0.071035102 -0.10552534 -0.11466296 0.1013256 -0.060687929 0.013422251 -0.028872102 0.020138964 -0.081720427 0.036434308 -0.082461879 0.0078489631 -0.11905608 0.034360096 0.052973807 -0.057225481 0.10791166 -0.057458729 -0.069175094 -0.11540872 0.0587174 -0.034934759 -0.003014341 -0.041617066 -0.098991171 0.1174719 0.05661878 0.059663489 -0.050230622 -0.10397631 -0.021765471 -0.0081929117 0.076824471 0.055046961 0.028683603 0.07716471 0.081103057 0.042156771 0.095790356 0.10639226 -0.055398583 0.089624316 -0.093147144 0.091075867 0.059933826 0.011250943 -0.089491099 0.045565456 0.10216826 -0.02905418 -0.022419423 -0.11204527 0.11080746 -0.041335136 -0.066847771 -0.043038875 0.016761184 0.0081320852 0.081563205 0.098371536 -0.042031109 -0.038957208 -0.10728472 0.055598244 0.10696118 -0.11561857 -0.04921338 -0.099715769 -0.074065194 -0.12311995 0.09825854 -0.078975335 -0.096279487 0.12253053 0.063305154 -0.012829468 -0.072324306 0.026766464 0.074386448 0.1046399 0.041572794 0.071011513 0.015344143 0.098661855 0.095557198 0.068166047 0.0098564327 -0.048376769 0.081745774 -0.1113466 -0.010047078 -0.11767903 -0.0089449584 -0.077435389 -0.014153495 -0.088954255 0.04028514 0.10627188 0.034555361 -0.089500248 -0.041084662 0.068388492 0.10356313 -0.112051 -0.046667367 -0.017905444 -0.12136421 -0.062408537 -0.11432485 7.3462725e-05 -0.080752075 -0.10805912 0.10479426 -0.012062028 0.0070123076 0.050558344 0.072897673 -0.014323145 0.0075954497 0.028141215 0.083551347 -0.10751313 -0.09438704 -0.053808406 0.07599771 0.066873282 0.043549463 -0.11285999 -0.10357246 0.091198698 0.086345538 -0.053227454 0.0080796778 -0.071331024 0.059463561 -0.019558311 -0.05254069 -0.015382618 0.073835999 -0.03491208 0.050473109 -0.064791054 -0.043636367 -0.074427202 -0.1144814 0.076610237 0.038738325 -0.075494885 -0.031744421 -0.08997415 0.014402241 0.081418499 -0.019365087 -0.020072162 -0.10511507 -0.12013498 0.00061792135 -0.03867209 0.092841893 0.040385872 0.043019354 0.099413559 -0.089902118 -0.10208105 0.10044235 -0.049084842 -0.072489619 -0.033501118 -0.016927958 0.035546154 0.026106745 0.053566992 0.11622819 0.019191876 -0.10842764 -0.064627558 0.080019742 0.0042991042 -0.057625458 -0.11926381 0.043790922 0.030516252 -0.0042648464 -0.035354465 0.096741796 0.017274782 0.044243693 -0.08762069 0.1028526 0.048084304 0.075152814 -0.011987746 0.10429965 -0.04807432 -0.027007192 -0.039693937 -0.08195515 0.059699804 -0.082281142 0.017081767 0.078270361 -0.02744858 -0.069847077 -0.010292128 0.067933559 -0.054637581 -0.11685497 0.044653684 0.087728962 0.096709341 -0.071353391 0.066807494 -0.062491611 -0.072946474 0.11325289 -0.12442125 0.053083763 -0.10928422 0.11709668 -0.029415146 0.010253295 -0.058808967 -0.10365197 0.031554669 0.082220629 0.034883782 -0.012628078 -0.10531339 0.02756761 0.080602467 0.073042288 0.12111315 -0.11507469 0.10629082 -0.0079839677 -0.1032463 0.08897166 0.085821405 0.0048683882 0.07148993 -0.11113042 -0.09335053 0.074566886 0.078072831 0.062390894 0.076583058 -0.008005932 0.085453093 -0.043314412 0.039843768 0.058428496 0.080464885 -0.053909212 -0.0012708753 0.020177886 -0.056673706 0.033289924 -0.11134833 -0.06373243 -0.044883236 -0.022826687 0.11988179 0.10560532 -0.031986848 0.0197016 0.0048003793 0.040512055 0.092562675 -0.081347466 0.0031600744 -0.10105437 0.013564795 0.10325359 0.089680344 0.0068829209 -0.066248059 -0.10434188 0.0080258101 -0.062710911 -0.057180598 0.082808003 -0.077355802 -0.061810657 -0.036042422 -0.019897968 -0.097240075 -0.014070138 -0.092175394 -0.032561064 0.013459817 0.059551269 0.080243275 0.097580105 -0.10765477 -0.1130701 0.03626658 0.040873259 0.098558173 0.089990541 0.11401625 -0.044333816 0.023119435 -0.12298514 0.12307815 -0.093840525 -0.016853049 0.016807809 -0.01153253 -0.021720484 -0.055196449 0.070573732 0.068024844 0.11327976 -0.019484892 -0.066284612 0.040390581 0.023205966 0.087839454 -0.047245085 0.027701095 0.11977479 -0.082244694 -0.049034238 -0.018708006 -0.10930786 -0.10933505 -0.0086768866 0.10278893 -0.072795168 0.0011985004 -0.03112866 0.055623308 0.11738047 -0.088453799 -0.094796851 0.047262296 0.021340489 -0.083632529 -0.077555582 0.036371335 0.091531277 0.11515698 -0.11429697 -0.038399771 0.080326304 0.0024208575 -0.0022144616 0.052863434 -0.11207439 0.052293196 0.031728029 0.054045841 -0.075211719 0.088692337 -0.019131422 0.1187574 -0.089703798 -0.056289688 -0.047442719 -0.071458176 0.10033509 -0.019100681 -0.12056708 -0.016031355 0.10632862 -0.018716455 -0.092272431 -0.027664632 0.01299195 0.10478492 0.048837245 0.1087947 -0.042150572 -0.044533655 0.087727234 -0.052148372 -0.0011782646 -0.095072269 -0.095253453 -0.07645005 -0.016635031 -0.021259204 -0.094767541 0.062454209 0.087964565 0.088788271 0.073511586 -0.088635191 -0.042195395 0.016971856 -0.11979012 -0.007195279 0.085625678 0.020899221 0.089339286 -0.077821329 0.079284772 -0.069911093 0.085133031 -0.12286668 0.060932755 0.034208626 -0.088115647 0.030016646 -0.033051908 0.02080065 -0.013003707 0.07223776 -0.11088647 -0.015558004 0.06962958 0.029492676 0.078399166 -0.046132118 0.10982458 0.1121393 0.011954248 0.004829675 -0.018754199 -0.071104303 0.016225606 -0.10086986 0.069920823 -0.054750279 0.085581958 -0.085087329 -0.051801249 -0.079104051 0.055717871 0.11551692 0.0082425177 -0.031526774 0.066533312 0.071307465 -0.046730846 0.050342232 0.11955032 0.020182624 -0.029897824 -0.055596888 -0.11344442 0.018948898 -0.11535084 -0.044611976 0.036406964 -0.063170671 0.020240217 -0.10511039 0.067754313 0.063121691 -0.03766045 0.047043532 0.096664399 0.097624943 0.11511932 -0.021925673 -0.017659724 -0.030971974 -0.11083247 0.069407418 -0.010404363 -0.042308345 -0.053966627 -0.079368934 -0.070650473 -0.10196768 -0.11616498 -0.025312126 0.048621923 -0.0082727969 0.061848164 -0.0487082 0.028798342 -0.015087828 -0.075995535 0.070034117 -0.046154529 0.032851249 -0.008005023 -0.068411812 0.050049633 -0.070976928 0.086270228 -0.041765824 -0.082204893 -0.11846195 -0.027564406 -0.0061253011 -0.0046209991 0.04060781 0.11267534 0.054876462 0.098323911 -0.12133645 0.1112918 0.0093942285 -0.014733493 0.053602278 -0.038273215 -0.040322781 0.079083607 -0.053103149 0.1229817 -0.066951782 -0.034714475 0.12155178 0.11982207 0.059182152 0.097153008 0.088028058 -0.051082462 0.068570599 -0.1182152 -0.12173112 0.080221176 0.034536645 0.044183433 0.035004079 0.042347759 -0.11892733 -0.087604567 0.11742775 -0.015217155 0.060319692 -0.11561391 0.061938375 -0.10996851 -0.11217831 -0.12278177 0.069519982 -0.094400749 -0.089462578 -0.028321996 -0.07211566 -0.079307139 0.096307501 0.064430401 -0.076136097 0.051435441 -0.027146697 -0.023946211 -0.041834354 0.06967105 -0.00045458972 0.055058271 -0.06026499 -0.054310888 0.11114065 0.031833947 0.052085802 -0.027284727 -0.046359196 -0.11429311 0.028700903 0.066686094 0.00031644106 0.097187504 -0.12315759 -0.081531614 -0.050484538 0.081188187 0.070168108 -0.037373379 0.10677227 -0.038201079 -0.055900097 0.041936666 0.08290942 0.084305152 -0.080360919 0.022857651 0.11996666 0.039078832 -0.110526 -0.10829379 -0.008221522 0.030722365 0.063385278 -0.063332811 0.040681496 -0.014316767 -0.008936137 -0.033048034 0.04896611 -0.0090113133 0.012293622 -0.091087654 -0.046736389 -0.058420897 -0.040096998 -0.023506507 -0.032107979 -0.06226185 0.04391256 0.12452082 0.11276279 -0.02206187 0.073631898 -0.068421632 0.025007427 -0.039966866 0.047783151 -0.055816084 0.096461773 0.1161315 -0.078624606 -0.11264649 -0.0055880398 0.083687529 0.044129342 0.086313844 -0.05724895 0.099327177 -0.11141683 0.062870413 -0.011600047 -0.04619129 -0.11293119 0.048821405 -0.090735525 0.10015573 0.019645706 0.026838526 0.070463866 0.091266587 0.093929589 0.050156936 0.10308251 -0.11109476 0.1025933 -0.11856896 -0.053009272 0.064718843 -0.062793836 0.022209927 -0.059746623 -0.060807034 0.051147252 0.11550319 -0.033671468 -0.10537001 0.10965872 0.032065377 0.1203423 0.12067434 0.065813914 0.083957046 -0.086278513 0.12001827 -0.063621283 0.075013176 -0.12339312 0.0015330464 -0.079691395 -0.024434343 0.10348162 0.036400065 0.020656958 0.093081132 0.087871149 0.10176785 -0.0082951635 -0.069824934 -0.027755678 0.10728717 -0.026542202 0.050970271 -0.05842264 0.090076253 -0.041235656 0.029169694 0.011734709 0.093240902 -0.06647104 -0.01493679 0.099014714 0.060359389 0.10697843 -0.0017607063 0.049409822 -0.077110231 -0.05456917 -0.054597184 0.10500027 0.088626906 0.011559337 0.018373623 0.027163804 0.062052861 0.070140287 0.11119977 -0.10273348 0.016924441 -0.10439244 0.095192224 0.10004258 -0.015040591 0.07901004 0.117944 0.12129557 0.025119841 0.096411303 -0.046461552 -0.12031661 -0.016945496 0.085801721 0.083916202 0.061630711 -0.093628675 0.044955999 -0.033335745 0.047674105 0.095735148 0.12296706 0.035747632 -0.094364107 -0.013698891 -0.066502914 0.051632658 0.052256331 -0.076187313 0.082259089 -0.083035737 0.035493255 -0.079750031 -0.0045211613 0.04686293 0.024624065 0.088553146 0.041138917 0.11615159 -0.11679344 -0.029653355 0.0046710074 0.090550259 0.12396035 0.010975197 -0.094260439 0.044146806 0.045262724 -0.0074293464 -0.048847288 -0.12441958 0.095791608 -0.12217443 0.080393344 0.047278747 -0.072875425 0.065424725 -0.070295572 -0.11474405 0.084088713 -0.069414079 -0.037852779 0.02844277 -0.027254313 -0.00055088103 -0.12036867 0.10922967 0.091002032 -0.017033994 0.08509323 -0.025331303 -0.11651668 0.05514133 0.028572559 0.059665143 0.062710702 -0.10743874 -0.10946946 -0.058657646 0.089577481 0.1151672 0.03700164 0.068156868 -0.090085536 0.089475021 0.0082024783 -0.085476235 -0.013486296 -0.00026006997 0.00073932111 0.096824244 -0.016871765 0.033713609 -0.056047618 -0.047685459 -0.096926346 -0.10912561 -0.010166004 0.12368119 0.036885664 -0.056383044 0.072789252 0.046903864 0.10582753 0.10656917 -0.091477931 0.10349183 -0.10534601 -0.0058957785 -0.068205729 0.10134387 -0.039131135 0.059884742 0.00085043907 -0.075131401 0.01443179 -0.0046887696 -0.035902843 -0.059483692 0.093552038 0.059712052 0.054815099 0.092192352 -0.097272038 0.092208371 0.048847258 -0.04127118 -0.0097981989 0.10654098 -0.022504494 -0.045939505 0.11685711 -0.060148537 0.006384477 0.109634 0.0092785656 -0.070031285 -0.092101455 -0.094062418 0.046706289 0.0041750073 0.12013395 0.10220532 -0.077801496 0.00048291683 0.049388945 0.057006061 0.12437373 0.041253969 0.028403312 0.055015907 -0.064967826 0.053679109 0.068229347 -0.11560771 0.022761405 0.027692184 -0.09415555 0.046272874 0.032313913 -0.090395868 0.011869147 -0.064582959 0.12131879 -0.042189553 -0.095209673 -0.070616722 -0.078966856 0.063192323 -0.061561912 0.080559745 -0.11307532 -0.11490481 0.051208735 -0.11701109 -0.02194415 -0.10635036 0.073800191 -0.12195283 0.049329489 -0.10522035 0.023020968 -0.076245949 -0.029486209 0.096556723 0.083862603 -0.12256768 -0.031756237 0.11523312 0.052983329 -0.005508408 -0.10700226 -0.0459214 0.09026745 -0.0037491918 0.029813394 -0.10277171 0.097694457 0.09536694 0.019554645 0.034746721 0.12095043 0.058878094 -0.11690633 -0.093206286 0.080413371 -0.046114296 -0.12484449 0.093641177 -0.042197391 0.049081087 0.04728277 0.068244442 0.10090788 -0.097548425 -0.078243241 -0.11842465 0.064425185 -0.085915476 0.042287663 -0.07309109 -0.01354149 0.00027900934 -0.11484151 0.015248701 0.089808404 0.091343611 0.076819196 -0.11944342 -0.12073545 -0.11140759 -0.037895471 -0.03827256 0.0050404221 -0.075705096 0.11313614 -0.021440834 0.0077836066 0.060383096 0.11959103 0.11994612 0.021615922 -0.098950729 0.11557296 -0.077231377 0.099049285 0.10239795 0.11875615 0.061196283 0.1011969 0.020291954 -0.096857786 -0.060040519 0.11166604 -0.073519632 -0.036096454 0.084605888 -0.12106992 0.032445624 0.092399821 0.063040838 -0.0069383383 0.0058006644 0.029955506 -0.021121979 0.097029552 -0.085790396 -0.086165383 -0.0011763722 0.06694828 -0.05996789 0.061852843 0.06244272 0.10849281 -0.087333098 -0.0052236766 -0.076371744 0.032859653 0.039803818 -0.11607133 0.054847404 0.089425445 0.062275708 -0.07329534 -0.056922317 -0.022042796 0.041142315 0.01453431 0.040287316 0.099433824 0.0061792284 -0.022586465 -0.10576743 -0.011446953 0.077423543 -0.061378732 -0.087106317 -0.09774594 -0.0069906414 0.090345636 -0.097773522 -0.040682763 -0.035564557 0.11220257 -0.090935737 -0.093961954 0.10145798 -0.12499072 -0.027657509 0.01387313 0.022702679 -0.045759976 -0.072739795 -0.072141916 0.042957187 0.029003158 -0.10297929 -0.11750397 0.10694858 0.11313368 -0.010871738 0.075624406 0.090692252 0.014390886 -0.048997119 -0.064331025 -0.012744829 0.063164204 -0.050970584 0.079650834 0.10139978 -0.026501894 0.012277246 0.022302389 0.071567982 0.03063482 0.11201246 0.097966716 -0.1235577 0.0048543215 -0.11533564 -0.091121674 -0.087991148 0.11382772 0.020472139 0.070326865 -0.088720322 0.056266055 -0.1052184 -0.0097986013 0.093977436 -0.061312869 0.026711524 -0.042939857 0.060140133 0.049478993 -0.052995816 -0.12397423 0.050238922 0.045370162 -0.012396261 0.031436875 0.036388561 -0.067414552 -0.033723727 0.098898917 -0.081040308 -0.016365498 -0.070321366 -0.10806212 0.030549198 0.021528363 -0.11001846 -0.039554551 -0.050869882 -0.062785074 -0.038849756 0.012996271 0.023627758 -0.094077557 -0.075836271 0.038689822 -0.093049511 0.035437018 0.030918121 -0.11695103 -0.025637358 -0.055706531 0.076123849 -0.066000819 0.045593441 -0.070131049 -0.026473045 0.087577552 0.068322927 0.057769626 0.078557611 0.030773476 -0.12336278 0.029230341 -0.046416685 -0.067239806 -0.11383687 0.0070178956 -0.014902368 -0.006855011 -0.089415312 -0.033163413 -0.096264958 0.057463944 0.05635938 -0.016114563 -0.092292696 -0.08652854 -0.091478884 0.09559381 -0.067729995 -0.044442743 0.04512614 0.091615424 0.08474268 0.12244102 -0.071922913 -0.11282749 -0.044869661 -0.046751261 0.035506308 0.0062849671 -0.088398397 0.10840751 0.048386216 -0.070167184 0.028923303 -0.077143312 0.050410509 0.062897608 0.042957246 0.11944836 -0.060258135 0.028475747 0.021957412 -0.09418714 0.06042698 -0.072160825 0.036824346 0.068467721 0.0067043751 0.030727804 0.010801837 0.090993702 0.10297751 -0.1049979 0.061245069 -0.067743123 -0.070882782 -0.073431894 0.074541122 -0.095870703 -0.078074276 -0.11402336 0.0019602478 -0.014503673 -0.0572505 0.0041679442 -0.068711579 0.12466303 0.066461891 -0.0093566477 -0.10523352 -0.12059392 -0.0080015212 0.058523521 -0.055497319 0.03453356 -0.11335459 0.068327621 0.066174418 -0.11992522 0.012958154 -0.091627806 0.10193659 0.024798736 0.022208735 -0.022426769 -0.11800326 -0.015219465 0.02978462 0.10134441 -0.064206064 0.0022670627 0.077039018 0.095504865 0.072742447 -0.095622629 0.086017042 -0.11539505 -0.019423306 -0.099754855 -0.012831211 -0.084569439 -0.05588679 -0.1027372 0.044205233 -0.12293507 -0.09178023 -0.041191727 0.063492522 0.11181146 0.1208811 0.052536711 -0.07246457 -0.0742286 0.028279275 0.10355319 0.11736967 -0.072499126 -0.085838184 -0.052051753 0.022593722 -0.092094064 -0.01996547 -0.025880262 0.12371349 0.12101915 -0.041430265 -0.08573091 -0.032030523 -0.02506116 0.095950291 0.10436061 -0.032792494 -0.099086687 0.077346131 0.013856202 0.077320814 0.020420864 0.081995785 0.033531666 0.014480785 -0.094914958 -0.00043025613 0.012976035 -0.1049675 0.012420312 -0.084041744 -0.015388176 0.01202926 -0.1017236 -0.095732182 -0.091610059 -0.043516845 0.037678853 -0.036281109 -0.098671883 0.017183363 0.075508982 -0.11202972 0.099379241 0.020122096 -0.059853375 -0.099233836 0.088847116 0.11529538 -0.083694607 0.048196852 0.0084518045 -0.084062353 -0.10503344 -0.10140216 0.072656959 0.087092817 -0.056749329 -0.067741886 0.017943472 0.086946145 0.077977404 0.037545845 -0.057206899 0.042301789 0.11998563 0.011654884 0.047254369 0.0028262734 0.028075859 0.068490535 0.10418727 0.121392 -0.014823109 -0.062394828 0.049170613 0.029237375 0.11750211 0.12277922 0.074158102 -0.050830767 0.040375456 0.086012766 -0.00061604381 -0.0093909949 -0.02881749 0.045843095 0.095684528 0.073225468 -0.11810295 0.11458097 -0.075573072 -0.019561708 0.11892346 -0.063097164 0.082528755 -0.014170542 -0.10675457 0.098146498 0.045718655 0.10636938 -0.10123564 0.079295397 -0.058047771 0.050752789 0.07801795 0.070455536 0.081944183 -0.087176353 -0.086790621 0.077626467 -0.12037162 0.11233152 0.061089516 -0.12157725 0.060884997 0.03536725 0.082216129 -0.065565124 -0.055751413 0.10195816 -0.12365256 -0.056330606 0.098040983 -0.092472434 0.093525216 -0.052853853 0.10616532 -0.032461226 -0.0065363348 0.096975952 0.0571879 -0.070434615 0.02227132 -0.076625615 -0.045752525 0.016729772 -0.0088729113 -0.037905857 0.057023779 -0.010230601 0.0097982138 -0.037983701 -0.061113685 -0.096826494 0.0044020563 0.12283227 0.082067102 -0.072841629 -0.1233689 -0.027151972 -0.048752978 -0.039193153 -0.082548678 -0.02841799 0.069550276 0.071111068 0.11631587 0.10094717 -0.036873132 0.029781237 0.055437028 0.12381932 -0.045987457 -0.081288517 0.0057979822 -0.019899741 -0.016056612 -0.10636446 -0.10695148 0.026835784 -0.0037158728 0.081445053 -0.11672376 -0.094312176 0.054368764 -0.031570345 -0.060562894 0.10154498 0.11741428 -0.0059645176 0.038217738 0.020099297 0.10414463 0.10411365 0.099782452 0.087554529 -0.087576792 -0.063706517 0.045917705 -0.10702404 0.021779612 0.11390275 0.060187638 -0.055982038 0.028380275 -0.068456814 0.040757805 0.10266396 -0.024123594 0.11600268 -0.089137226 -0.11934868 0.063236579 0.11883987 -0.0030873865 0.097663492 0.087912574 0.00093059242 0.044492215 -0.084065288 -0.11735101 0.057069749 0.080135241 0.0069571733 -0.0097778887 -0.11670171 -0.037993923 0.077317193 -0.085409865 0.040487766 -0.044335321 0.082221836 0.033942983 0.0095426738 0.042460248 0.051947236 0.070901856 0.11388023 -0.088276729 0.0018179119 -0.11125702 0.11456482 0.0030652732 -0.066138163 -0.084797412 0.014196202 0.10888764 -0.05531615 0.067819446 0.026946262 -0.042898774 -0.016339168 -0.08368367 -0.041470423 -0.097821414 -0.11234853 0.075686902 0.088141203 -0.095036313 -0.089751169 0.089183524 -0.032285988 -0.090075538 -0.021868423 0.04250896 0.027977243 -0.000515908 -0.080512285 -0.040976822 0.045402601 0.064917535 0.010943279 -0.00047193468 -0.041623995 0.057262421 -0.02916564 0.034984589 -0.05370824 0.033409849 0.078934759 0.061033562 -0.09490402 -0.022805512 0.072973117 -0.0591169 0.079655245 0.08795917 0.10619621 -0.056931287 -0.049635112 -0.013719916 0.0028884858 -0.039527297 0.045623824 0.027955756 -0.051797718 0.079669669 0.075159281 -0.029043332 0.10822035 0.0078945756 -0.069015741 -0.00023554265 -0.0049917549 0.065435201 0.0035411566 -0.10100083 -0.04747048 0.034833878 0.080834806 0.0090826601 -0.04160209 -7.095933e-05 0.055478096 -0.099409029 0.022106454 -0.025570571 -0.06984365 0.057256773 -0.10638154 -0.10023123 -0.1107311 0.029869825 -0.060373157 -0.12486038 -0.11883582 0.095577076 0.034120277 0.038741246 0.042805225 -0.074968696 0.047141016 -0.10247804 -0.030757934 0.087708279 -0.057651967 0.091803953 -0.069589019 -0.023793861 -0.10527366 -0.057128966 0.033558324 0.060935363 0.087539241 -0.056239456 0.0054201484 0.078160018 -0.080410227 0.068222284 0.058486283 -0.062239751 0.11030114 0.0012056977 -0.060060054 -0.10943539 -0.084128648 0.084342971 -0.023978859 -0.037418365 -0.076836556 -0.05970791 0.10314561 -0.10691406 0.037946388 -0.07511875 0.021184281 0.078398928 0.10087693 -0.077037066 -0.046467423 -0.10585904 -0.085595459 -0.090359867 -0.087693244 -0.097627044 0.11453815 0.042579651 0.11041321 0.087645993 -0.080496743 0.065815166 -0.069648489 -0.081267253 -0.051681772 -0.039906204 0.10399452 0.12168898 -0.0027907491 0.035349816 0.090209752 0.12183765 -0.052869558 -0.075397521 -0.08236216 -0.063142687 -0.033327103 0.010444313 0.07850711 0.0037603825 -0.0062470734 0.020702705 0.016518161 -0.022466391 -0.10704125 0.084476054 -0.09958683 -0.085186899 -0.010768726 0.0040783286 -0.035343453 -0.075466841 -0.075300738 -0.077146843 -0.066031739 0.039591104 0.050822556 -0.037902251 -0.083504245 -0.10963434 0.061156183 0.096317261 -0.027406394 0.031736985 -0.0033768415 0.030666366 -0.048520535 0.023703292 0.10630611 -0.042402029 -0.10603543 0.043551579 0.090045825 -0.070412308 0.032996446 0.080879077 -0.094960719 0.025935888 0.11336595 -0.030278623 0.083363369 0.037458345 0.087156385 0.11776806 0.08446461 0.00011429191 0.0088945776 -0.070963696 0.09890984 0.12122855 0.06290783 -0.075079441 0.035136551 0.12494591 0.096527994 -0.11490774 0.042001083 0.090688556 -0.078914151 -0.07812123 0.05104439 -0.039277449 0.12319505 -0.07555674 0.087486267 -0.035481885 0.065783024 0.051998019 -0.023359433 -0.011753082 0.082312196 -0.074161574 0.070646361 0.024469629 -0.016516954 -0.010299161 -0.10044391 0.097570986 -0.023915142 0.12226188 -0.039989933 0.11767751 -0.082724079 -0.074084222 0.1082373 -0.10905677 -0.10990302 0.0077304393 -0.094686478 -0.064798191 0.064302728 -0.0097896308 -0.039799511 0.081720829 -0.067731529 0.070727006 -0.042655379 -0.090700552 0.10464071 0.12207486 0.10671183 -0.028802082 -0.096848249 -0.02666156 0.085082218 0.011507988 0.080083519 -0.033372864 -0.0010459572 0.0083210021 -0.10771374 -0.053620547 0.00147295 0.11397129 0.035617858 0.014082611 0.10777564 -0.03542839 -0.06509997 0.020121306 -0.11556031 0.11784723 -0.092693195 0.032587051 0.031866997 -0.05746828 0.046951234 0.028600007 0.051438317 -0.049037561 -0.050469562 -0.11600146 -0.014618948 -0.085830182 -0.054702953 -0.089602873 0.12323914 -0.040416986 -0.027466759 -0.12386787 -0.09128356 -0.02116704 0.046576872 0.018818989 -0.0034108162 0.10253921 0.093486369 0.055315077 0.059782282 0.096258909 0.11476474 -0.11526105 -0.10354154 -0.0051387846 0.11308748 -0.10178182 0.034650922 0.047662079 -0.040568054 -0.0081883967 0.097326115 0.034198523 -0.054806024 -0.089551777 -0.041070059 0.0037826151 -0.0039900839 -0.014152095 0.082226515 0.0045735985 -0.0096514225 -0.12385118 0.05792743 -0.065183818 -0.0056686401 -0.044530407 0.092256963 0.0040114224 -0.016232476 0.094749361 -0.0028579235 0.084654853 0.043449745 -0.0053558052 0.03782545 -0.0040925294 -0.091028526 -0.023044541 -0.084311619 -0.10618198 0.12198283 0.09983933 -0.060968995 0.0067957938 0.054523826 0.089090511 0.068172544 0.052710101 -0.0033010542 0.0018982291 -0.029343188 -0.099746302 0.11110789 0.054254979 0.10705459 -0.031329781 0.010802701 -0.052244678 -0.073283449 0.055081025 0.043916479 0.049648732 0.10229915 0.033775434 0.018037364 0.056473717 -0.030147865 -0.023398861 -0.11175391 0.11566854 -0.017344877 -0.039821237 -0.025963441 -0.029427454 0.111358 -0.018008545 0.069774136 -0.022215769 0.016079873 -0.090852082 0.060104325 0.070707753 -0.052954882 -0.11615631 0.1045178 -0.10412414 -0.12206821 -0.02925697 -0.11890472 -0.010030299 -0.11614487 -0.064118594 0.100031 0.078671932 -0.071258828 0.10525924 0.12264673 -0.0816181 -0.097904742 -0.098884776 -0.051817968 0.016992614 0.095396742 -0.019092053 0.12072879 -0.11200723 -0.086099029 0.002665177 -0.031376958 -0.048404217 0.073874384 0.066870019 0.089137927 0.013057292 -0.096395075 0.048106298 0.12188259 -0.039780885 -0.08475256 -0.071851864 0.029635683 -0.099984571 -0.11093153 0.081825957 0.10532892 -0.10017917 0.060604647 0.067173511 0.026040271 0.058209568 0.10885277 -0.025373146 0.0020169616 -0.019675002 0.021409959 -0.083110303 -0.10542023 0.09245418 -0.066390425 0.096505791 0.037161052 -0.024320871 0.064979374 -0.016257569 -0.017646074 -0.03775987 -0.074674755 0.097701579 -0.019508049 0.060325742 -0.073842213 -0.10215971 -0.085769385 0.019534841 -0.042112857 -0.093325704 0.061964944 0.059926897 0.010675341 0.11139867 -0.067264974 -0.0933346 0.094044402 -0.0019964874 -0.039030433 -0.046407357 0.052064523 -0.044257596 -0.11657305 0.057513058 0.046056554 -0.026630536 0.11777888 -0.043461636 -0.10071719 0.033141404 -0.078700632 -0.087250456 0.070704356 -0.030788869 -0.1115118 -0.062549025 -0.011471093 -0.050361693 0.089678109 0.03843753 -0.10284111 0.04383719 -0.011126578 0.10283931 0.055898115 -0.023591995 0.0025192052 0.090252057 0.065251485 -0.0096419156 -0.12233931 -0.095713094 0.04228653 -0.026177824 -0.079260662 0.010375202 -0.097824782 0.056446403 0.019264415 0.045915037 0.11762351 0.115925 0.10901262 -0.028795704 0.10755686 -0.10415037 0.0074964613 0.079590872 0.017592818 0.11556286 -0.12378646 0.087923273 -0.046495482 0.067108959 -0.08956182 0.00037643313 0.082657382 -0.012987047 -0.023547545 -0.029064149 0.027565241 -0.063985452 -0.041281804 -0.051660985 0.067141533 0.11720347 -0.10958804 -0.050741255 -0.11711498 -0.049569353 -0.063129678 -0.048942089 -0.057497501 0.0025045425 -0.10253119 -0.025363654 0.052222952 0.081701323 0.066440821 -0.094772175 0.081864282 -0.09873347 0.12111083 -0.097594589 0.018419251 0.012675852 0.089632958 -0.07598415 -0.016172603 -0.092689827 0.061260417 -0.10003957 0.070722744 -0.083614007 0.096400306 -0.026611239 -0.088980287 0.11807589 0.020642385 0.065037891 0.0090837628 0.076824218 -0.013873234 -0.049986437 -0.10821223 0.11512546 0.095993504 0.05692564 -0.0048776716 0.020581201 -0.065655604 0.10942857 -0.086356372 -0.069076851 0.098593757 0.015360042 0.12033607 -0.004905194 0.00018016994 0.10481457 -0.1028744 -0.088528752 -0.034672871 0.070193172 0.059818059 -0.10581441 -0.029256538 0.12477225 0.050904006 -0.045639694 -0.074099451 0.013630524 -0.036363795 -0.11660087 -0.06195116 0.10641845 -0.07256484 0.066070005 0.025975153 0.062200502 0.038646221 -0.023494422 0.040881768 0.038975745 -0.012109712 -0.063037902 -0.076061323 0.028554738 0.06079796 0.021460295 -0.035074696 -0.11773889 0.057096243 -0.11988701 0.035446629 -0.11705409 -0.015846744 -0.060285553 0.030647814 -0.013633505 0.069581062 0.019395545 0.077343047 0.12484705 -0.097340092 0.11677819 -0.00038322806 -0.084948957 0.0048620105 0.058073357 -0.052109316 -0.036135867 -0.055071443 -0.052402884 0.06227836 0.069842681 -0.066278577 -0.033717692 0.093059704 -0.035037071 -0.024509788 -0.10099852 0.02310206 -0.029085353 -0.086313501 0.021722138 0.097900644 0.0074681491 -0.0023782104 -0.064966395 -0.010427788 0.037858531 -0.034222171 0.073439822 0.075802311 0.10770245 0.10210305 -0.0449377 -0.04555431 -0.073536336 0.11343981 -0.045703337 -0.087050632 -0.027727842 -0.074516922 -0.07943061 0.0403402 0.0044133365 0.10263136 0.047228158 -0.055362329 0.10199435 -0.098257646 -0.11109389 0.10781553 0.1050649 0.0013639927 -0.026904121 0.079402477 0.075210571 0.095226854 0.048436999 0.078708425 0.068818554 -0.011821061 0.046170324 -0.008653 -0.076605439 -0.088201851 -0.10707146 0.084993064 0.062820509 0.052207097 -0.091173142 0.036546126 0.096468031 -0.030770987 -0.059704229 0.042495385 0.017474383 -0.06814003 -0.018565401 0.070547953 0.046536118 -0.072592303 0.057813495 -0.1192445 0.0068074167 0.059945494 -0.10845615 0.013216391 -0.022932455 0.046297163 -0.049334407 0.06251435 0.0022197366 0.026735485 0.017054155 -0.11729549 -0.02702713 -0.080015078 -0.0044028759 -0.092861727 0.052922413 -0.056987002 -0.022325695 0.092606738 0.035577133 -0.065309778 0.071029603 0.056798741 -0.057423949 -0.011893556 -0.03026858 0.11501385 -0.052563712 0.017189413 -0.068252698 0.074797392 0.099717617 0.11155041 0.070110828 -0.016522855 0.059055701 0.069507569 -0.088077247 -0.063545689 0.033938333 -0.047525138 -0.11230612 -0.032999024 -0.011350363 -0.058895141 0.11845271 0.09129481 0.10425618 -0.062150106 0.1169146 0.0030432343 0.0061792135 0.10929988 -0.051938981 0.064228997 0.067098498 0.0044453442 0.076883137 0.039855927 -0.057356387 -0.087503269 0.1066999 -0.099132791 -0.0017402768 -0.043015584 0.041287839 0.065268099 0.013572827 -0.021796018 -0.038243771 0.085755914 -0.02095744 -0.0035015345 0.030024722 -0.07935226 -0.0026527494 -0.01331912 -0.055272698 0.042593405 0.089276299 -0.0044101924 -0.042052492 0.0221674 0.10177763 -0.050217047 0.10805149 0.014135346 -0.11072849 0.033180639 0.070611969 0.10305531 -0.094403476 -0.050278738 -0.0058070272 -0.092602134 -0.054887131 -0.055222288 -0.021200582 -0.051198065 0.1206328 0.023688287 0.024432525 -0.015079707 -0.047170416 -0.094890431 -0.011153892 -0.085435107 0.0080770701 -0.11976831 0.095802292 0.046343669 -0.045122042 0.11097969 0.022685021 -0.11369376 0.00531964 -0.062694013 0.1043319 0.011597753 -0.11781058 -0.06790933 0.039330766 0.023542911 -0.02587527 0.021253794 -0.056654721 -0.028522477 -0.092462018 -0.073659912 0.10930653 -0.07161653 0.0067817718 -0.1141676 -0.11035658 -0.0073906928 0.095617935 -0.037663445 0.075604677 0.091323957 0.087472424 -0.10921715 -0.090974659 0.10356665 -0.055361107 -0.033389896 0.010272339 -0.031293049 0.0055790991 -0.071432769 -0.02566278 -0.047330692 -0.017713711 -0.10012458 0.059158474 -0.015971899 0.087978244 -0.015338302 0.054607794 0.10324651 0.042121068 -0.10839969 0.087239265 -0.016963974 0.035974875 0.011876732 -0.017835781 -0.033005148 -0.055917397 -0.080210075 -0.027338117 0.021247238 0.041003838 0.033994913 0.070641071 -0.038705245 -0.028170645 0.0010326058 0.11726244 -0.11270453 0.092211545 0.013900101 0.043293729 0.042155594 -0.1106641 -0.12260447 -0.010711461 0.067640364 0.11796793 0.073357195 -0.12487562 -0.018665314 0.1084213 0.039112002 -0.11921416 -0.059762985 -0.025789559 0.04570426 0.087339476 -0.021008432 -0.053658828 -0.018985361 -0.020090491 0.024866924 -0.12233429 -0.041204453 0.1104385 -0.11170289 0.060652539 -0.067245677 0.11782086 -0.0029638708 -0.081735849 0.048581511 -0.012661919 -0.077867702 0.050862759 0.050141037 0.0008597821 -0.05502452 0.108529 0.048260361 0.032458618 0.075967595 -0.050971091 -0.075794607 -0.10559742 0.026973367 0.076201499 -0.058022946 -0.11707343 -0.03109093 -0.1046273 -0.095942006 0.038680494 -0.057737455 0.040640295 0.041812345 0.11296856 0.11045189 -0.060919836 0.096649706 -0.019993439 -0.068596616 -0.017372146 -0.013877749 -0.09414655 0.058520183 0.048011228 0.068321943 -0.063085005 0.033556595 -0.032675102 -0.0092790425 0.045597851 -0.10432152 -0.081974775 -0.1076003 -0.043640107 0.059057251 0.092029646 -0.058957994 -0.11884908 0.01749675 0.12064719 -0.070638284 -0.10307425 0.016793609 0.010676309 0.040673882 -0.0039038062 0.074835002 -0.057757676 0.081210464 0.098885268 -0.091407895 0.0030459315 -0.069965109 0.0054395944 0.12119794 -0.093953431 -0.1230308 -0.072373688 0.12400223 0.085927278 0.097879976 -0.070337191 0.018787578 -0.12480332 -0.020533934 -0.085211605 -0.035800666 -0.046011925 0.033933491 -0.11560737 -0.010062203 -0.053399563 0.024333581 -0.10778052 -0.072495028 -0.048019469 -0.092398331 0.055243284 -0.086165249 -0.029604241 -0.011763066 0.08770746 0.081830829 0.025943518 0.06349574 -0.066345781 0.10518727 0.10040878 0.10805155 0.0039339215 -0.10561605 0.013509884 0.0088709146 0.057355389 -0.03551884 0.0030490756 0.093421102 -0.11958256 0.11746131 0.01790902 -0.032006443 0.041714162 -0.11562297 -0.045593023 -0.032957628 -0.028642938 -0.089302346 -0.1124932 -0.014594093 0.05745624 -0.10370615 0.052590206 0.10553344 0.0332513 -0.077468336 -0.11112776 -0.10424101 0.077962428 -0.038392767 -0.11821869 0.094199717 -0.0689127 -0.043055385 0.042689368 -0.12423716 -0.0082363784 0.010892689 0.085455358 0.047387138 0.019503132 -0.089174926 0.082990929 0.12090452 -0.040966541 -0.11598448 -0.10084023 0.085566685 -0.02323778 -0.096706897 -0.11039126 0.020343632 -0.013996899 0.038830802 -0.036119476 -0.11287723 0.013569534 -0.025073692 -0.10658999 0.053333953 0.018859655 -0.060363799 -0.07394813 -0.089447349 0.094223514 -0.0013080239 0.11775835 0.10737671 -0.10361168 0.034410477 0.0088108927 -0.084959492 -0.060318619 0.037417501 -0.084542066 -0.091253132 -0.029539213 -0.11278704 -0.12454103 -0.12242566 0.064057589 -0.00085175037 -0.050434783 0.10367095 -0.093890131 -0.11560036 0.095148951 -0.025769159 -0.062511131 0.10171749 -0.050309211 0.044053689 -0.093082517 -0.043233797 -0.12087682 0.003691256 0.01754643 0.0049702823 0.04593493 -0.078580797 0.024418086 -0.06929639 0.069077328 -0.10521452 0.088432685 -0.049030259 -0.057872713 -0.047327802 -0.036936358 0.011021838 0.061564133 0.0058318824 -0.10942528 0.044837549 -0.058080137 -0.031341538 -0.07490997 0.051039428 -0.046066135 -0.074229747 -0.0044960976 -0.061231598 -0.062791824 0.020739809 0.10219932 0.060079277 -0.0081436187 -0.019761428 0.032346427 -0.059449375 -0.077482149 0.084163293 0.083910376 0.03676106 -0.085538909 -0.029875949 -0.045598537 0.018539652 -0.081041679 -0.11034976 0.089489579 0.093471751 -0.050479785 0.079510152 0.0072175264 -0.11551088 -0.11660038 -0.039995983 0.019033551 -0.030058473 0.052203298 0.047912255 0.12129019 -0.044494137 -0.088752747 0.1109228 0.059366509 -0.1218303 0.023600847 0.069188893 0.0031491518 -0.076572672 0.084562957 0.066192314 -0.053717047 0.11806592 0.082079008 0.00066830218 -0.077360421 -0.049483389 -0.030588925 0.029222921 -0.11750695 -0.0044809729 0.05816099 -0.064342618 -0.075861111 -0.12310906 0.047365159 0.0019231737 -0.10653597 0.082545176 0.057081833 -0.022593603 -0.05211024 -0.072914779 0.044205874 -0.088136956 0.10611878 -0.06320563 -0.077929229 -0.11982124 0.026866987 0.014626563 -0.091947496 0.097274244 -0.051847398 -0.0024506152 0.11322661 0.0019329488 -0.04357262 -0.066418529 0.011205599 0.028914571 -0.0075385273 -0.036082879 0.11304337 0.033359215 0.037518129 -0.044945493 -0.024029508 -0.0037043542 -0.01675725 0.07821323 0.051546901 0.078726441 0.052035242 0.001766324 0.086773917 0.095069692 -0.051066518 -0.04680869 -0.017057106 -0.031476885 -0.045600846 0.068794429 -0.09562172 0.093954399 0.012625322 -0.04640089 -0.010144874 -0.11820215 -0.0031013787 -0.073219493 -0.064060852 0.054510832 -0.06278488 -0.065322652 0.029376492 0.11561793 0.065458506 0.091081724 0.071395963 -0.076232582 0.06469366 -0.015280873 0.043321878 0.11137646 -0.030916482 0.017752901 -0.076630041 0.040777639 -0.061763138 0.055605516 -0.034565836 -0.083045781 0.028615326 0.038005307 -0.046189219 -0.057589024 -0.065835342 -0.081804767 -0.040824607 -0.040399149 -0.058692187 0.10534093 0.067731157 -0.10531636 -0.082272246 0.10715094 -0.11184889 0.060236707 -0.10244621 0.04701595 0.028375953 0.064387947 -0.019948378 0.09093523 -0.015654191 0.016547307 0.023530588 0.089806169 0.058822677 -0.015351877 -0.083249852 -0.10869974 0.065607205 -0.02305384 -0.06382522 -0.074521631 0.066932723 -0.055275381 -0.10471196 0.048908293 0.071133554 0.098174736 0.10984333 -0.010455728 -0.032268286 0.081893459 -0.12326029 -0.071778938 -0.045532823 -0.11510517 0.047579825 -0.052624553 0.051030099 -0.10135064 0.06694442 -0.051162601 0.0018905401 0.091877222 0.053569615 0.01541315 0.030129492 0.063105792 0.11320673 -0.097240806 -0.080654308 -0.049294353 -0.051153868 0.00045900047 0.056828097 -0.0087874085 -0.024682194 -0.092893958 0.11213939 -0.0046538115 0.015481576 -0.087690443 0.055544347 -0.033451095 -0.10713597 0.10933773 -0.0020396709 -0.088104561 -0.014868394 -0.014354482 -0.099335387 0.042320937 0.0095593482 0.0040190369 -0.12417302 -0.1185392 -0.080237091 0.12132911 0.0092109293 0.081464007 0.038233981 0.020669132 0.045980781 0.061262906 0.062559858 -0.10808939 -0.10598326 -0.049412429 -0.10430762 -0.0041876584 0.087724105 0.066339299 0.093249276 -0.031923354 -0.091881856 -0.025402755 -0.11838287 -0.046375349 -0.10455348 0.10398981 -0.071468368 -0.10400119 -0.10950084 0.016359538 -0.11042379 0.10498703 0.10713939 -0.10627718 0.061790094 0.01127556 -0.11215441 0.028357446 -0.062110826 0.060652643 -0.098499075 -0.066039339 -0.060799316 0.088050485 -0.027908236 0.0071688294 -0.010099664 -0.12371878 -0.12474099 -0.0093304813 -0.11130038 -0.03646946 0.027640894 0.060029969 0.022587329 -0.095680192 -0.11267887 -0.1248066 -0.057759538 -0.116171 -0.085988 0.09187077 -0.063702986 0.11814678 -0.036467224 -0.057566181 0.0076978654 0.094527557 -0.094662651 -0.083727881 -0.025155202 -0.10179833 -0.084297061 -0.093692392 -0.11633208 0.091485441 0.032152742 0.0093279183 0.11562139 0.10655066 0.0016103834 0.11791629 -0.064644679 0.089307636 0.081567734 0.027111173 -0.074068576 0.11022305 0.04900527 0.054277718 0.0037685931 0.072701871 0.022726446 0.068440333 0.096725553 -0.11744305 0.054799154 0.12065183 -0.01793687 -0.035902709 -0.025170967 0.0030298382 0.040324882 -0.037287191 0.057272166 -0.039646894 0.012770712 0.0001257956 0.07922408 -0.08056134 0.077584311 0.12349407 -0.027710512 0.034465283 0.078241587 -0.032844365 0.045141861 -0.015748814 0.032329366 0.082453981 -0.0035787672 0.12222661 0.10086377 -0.11505942 -0.045420185 -0.052440196 -0.032176837 -0.011226296 0.044952095 0.11121549 -0.019392446 -0.03129293 -0.12326245 -0.10979554 -0.084567919 0.065980345 0.094324455 -0.10101204 -0.074531719 -0.021388382 -0.0021709651 -0.033907682 -0.084473863 -0.048948854 -0.11894198
bias -0.11597538 -0.076850682 0.098353729 -0.029920995 -0.011928752 0.028148949 0.10334627 0.018642157 -0.0006005913 -0.087914065 0.065682337 0.11797003 -0.024523988 0.10395491 0.072044387 -0.064050853 0.071277052 -0.072981164 0.077693969 -0.097288787 -0.077440441 0.021953866 0.10490659 0.074679703 -0.068058625 -0.044767916 -0.014329866 0.070322871 0.037661761 -0.072771147 0.056148931 -0.04903996 -0.11756808 -0.084834933 -0.083466157 -0.028285727 0.12031507 0.016020745 0.08060804 0.017684236 -0.11303417 -0.041921154 0.0044810325 -0.08954528 0.086542264 0.036131635 -0.028756648 0.074812457 0.119746 -0.016446978 0.050353274 -0.078183234 -0.11913915 -0.054241747 -0.064955041 0.016505241 -0.088833928 -0.12067756 -0.074801445 0.024638832 -0.10432531 0.098446637 0.11646095 0.0030140281
layer 1 64
weights -0.057117209 0.048747614 0.10287318 -0.002999261 -0.013527438 0.091563344 -0.1087493 0.022512153 0.11958297 0.014562652 0.10198835 -0.030577376 0.07893157 0.11693314 0.055444956 0.084956855 -0.0086208433 0.010859564 -0.11113892 0.008020401 -0.070654809 0.10971591 -0.093784973 0.072443128 0.023632884 -0.020675972 -0.0093100667 0.10714115 -0.070720315 0.030920759 -0.097435042 0.090393081 -0.091289937 -0.037771195 -0.097846329 -0.071171641 -0.06947878 -0.015413284 0.12334482 0.0017344952 0.060761362 0.090817437 -0.095539123 0.067540318 0.0909729 0.076384842 0.071465433 -0.067667097 -0.096540987 0.071231768 0.063321382 -0.11665459 0.08601585 0.056199446 -0.021019757 0.11249457 0.11066097 -0.1008888 -0.054162428 0.0040174425 -0.077202782 -0.049456507 -0.061442897 -0.0042571425
bias -0.00104855
norm 8
mean 0.86834341 0.083774045 0.70251578 0.27028367 0.87873954 0.73316479 0.23689403 0.59518784
std 0.025095941 0.06877394 0.12275256 0.27560538 0.072776936 0.21573628 0.08723098 0.36897168
